{"arch": {"num_layers": 1, "neurons": [39, 56, 66, 166], "acts": [0, 0, 2, 2]}, "weights": [0.2816850453495247, 0.41170117886283386, -0.4383863904311971, 0.16832298682957542, 0.9486488345698987, 0.538456343018116, -1.9111062857228416, -0.11664347668731365, -0.2741961033900024, 0.9130373726946983, -1.5534229491331963, -0.9533402929371428, -0.6522440777007339, -0.35122186614005424, -1.1100052060369423, 0.6803923671299393, 0.1967216933012798, 1.6293671505313165, -0.4225635794458451, 0.6477589560387218, -0.22424051386679425, 0.055778006818529, 1.4247094938761042, -0.4872054103409498, -1.598882691307542, -0.6790612241859658, -0.25351234335219774, 0.8415346095815859, -0.3358355120233426, -0.6735838189460057, -0.2592449701482283, 0.6164668346132358, -0.05643996618773335, 0.4619772773075094, -0.7036937772311047, -0.07706661547981151, 1.0986853941793735, 0.5693957893472794, -0.23046282315320782, 0.09995562746187547, 0.6233059123603129, -0.860793563534775, -1.477928377150331, -0.5963468052056522, -0.09440297732904471, 0.5766203307531567, 0.050830522141751475, -0.4417345474892717, -0.00626877545467425, -0.10907754079721796, -0.21088720063169863, -0.048536788139053835, 0.3733160123764281, -0.1524062336640335, 0.23687821647202204, -0.2385616497199311, -0.3518880491355086, 0.15088849161802043, -0.3214442991958508, 0.2625467348684474, -1.0578337541072464, -0.6024573855565395, 0.1450650231461832, 0.22425457064143364, 0.5718064017818265, -0.48576068483891466, -0.07565746590521323, 0.6351120496557663, -0.18901580637687668, -0.15672425739485682, 1.0099590358640367, 0.06945918946499757, -0.7240426393124646, 0.7761991393087159, 1.0452616564427177, -0.675613716472204, 0.5618638875523052, 0.24359034705658683, -0.40557216492321974, -0.417391761257068, 0.20516734328875258, 0.3256084279965959, 0.43508010783395046, -0.24657619833750388, 0.10457847821582869, 0.4129299372460751, 0.4813967869352507, 1.120096749007663, 0.7848932301916036, 0.8765647074758223, 0.14848050453595368, 0.2494852310350303, -0.32568719077595937, 0.45730309678761366, -0.1367858447823855, 0.07897093776861157, -0.83230839185563, -0.7034466178409189, 0.15182270936901143, 0.4072018350145715, -0.2728388052533457, 0.47908632766512427, -0.5632759842863196, -1.116700473812437, -0.5089913737197912, 1.1903957867880963, 0.48863814852483456, -0.4402395451522857, 1.4576730438363408, -1.0123166168983653, 0.5001344498554363, 1.0011991290378306, -0.11564740484035721, 0.30359441039102064, 0.2704335121200904, 0.5578901564647784, -0.669945227948216, 0.5384302310211505, 0.42922610888184953, 0.31019992550119296, 0.36497666335245527, -0.11384435047704163, -0.37501369486700026, 0.3124423482679505, 0.21988860397341986, 0.26370049439681087, 1.3911603912996593, -0.8371404675203007, 0.09698525894825617, -1.4527937107329398, -0.842086442726786, -0.07113217400206275, 0.6864509793564983, 1.202919287621107, 0.5490115211863704, 0.3946862828191372, -0.7805167217767037, 0.3728209008334329, 1.1550418484122216, 0.3385681500026418, 1.0856011220654647, -0.6365326527577546, 0.5489664942751608, 0.6480728778973598, 0.6631870753783629, -0.9560582491942837, -0.5158816289572368, 0.677905612901323, 0.06093887179655977, 0.46854329815019385, -0.9005350774424506, 0.7255875625022252, -0.6557214024181948, 0.34957654361319795, -0.9599168334880288, -0.05278099262669943, 0.8219600871327422, 0.012525545168093337, -1.609267358371532, 0.6433141972417653, 0.6079875221357138, 0.6231906598210564, 0.1581411196826934, -0.5961280316577253, 0.15989651100543467, -0.14113818632342276, -0.49763209372025446, 0.04139895300953679, 0.6431898973582495, -0.9267542289553874, -0.10993702920968053, -0.8534282823567384, 0.38255566938502333, -0.13856966707972987, 0.19384648133101307, 0.7821860640802364, 0.6008303906901892, 0.09191911610832114, 0.02726558065425883, 0.5812312985816775, -0.20284965198562183, -0.06554675160975641, -0.4546452034895144, -0.3131881590174768, 0.36994445213954186, -0.41242703170445905, 0.30385591437497556, 0.10734454155961733, 0.6713727855865637, -0.586224593596336, 2.2754592261370887, -1.0829962379921996, 0.953073343491412, -2.07748312515656, -0.7184494153325773, 0.36060748571842904, 0.7730325195205989, -0.3716768414199809, -1.3434405035972714, -0.2708708693982197, 0.13044529401045712, 0.07164113225415768, 0.6475485697611143, 1.057589553180057, 1.0931407411434115, 0.017201600772226107, -0.580318750944299, -1.0197469877812213, 0.46005316397028784, -0.2644882677548757, 0.509624573019287, 0.00087337754853049, -1.4766792761379925, -0.17753447278650666, -1.1485121587015077, 0.7261060089378158, -0.19938094960961994, -0.5510358411676473, -0.13053702137527612, 0.772940071430894, -0.018937223328531334, -0.5359600057461824, 0.19903026964272685, -0.6654396311966629, -0.568811510535447, 1.0559468178080245, -0.43136496793438844, 0.19753143230483233, -0.27336527815459294, -0.390118357018234, 0.3243582979453159, 0.40912508030233397, -0.9908006348247567, 0.4259276109454434, -0.6490107663677648, 0.3143735049884604, -0.36598861362906826, -0.17493842840273915, -0.5088081101534527, -0.006498037218165664, 0.04641201680107895, 0.7307089107935254, -0.13333425003986046, 0.030214198544387158, -0.06709689362326521, 0.520051296676722, -0.24559185053746807, -0.19333720027336154, 0.09023980834971668, -0.4555854143151209, -0.08110986099353443, -0.5306564895067218, 0.10376185408133234, -0.47895502004910007, -0.46059433363439456, 0.4506067248966924, -1.3275108744730968, 0.7018314487840256, 0.006382803833214032, -0.025143203616536214, 0.5065423693534858, -0.46072861650700414, 0.49938104467694555, 0.6001267849714034, -0.0699614504577745, 0.6139942311828748, -0.28290089122713136, -0.03612145476657572, -0.1956724130010113, 0.6874053165727194, -0.9929949037615533, -0.6088783580253226, -0.005371600225124992, -0.13264772049455714, 0.35180131903979495, -0.4582566045001832, 0.628302568048203, 0.797252525445604, -0.475051498288973, -1.1407781507079318, 0.06101460800246763, -0.4592208638832108, -0.25030067765152314, 0.327660739798546, -0.5848578606748129, 0.11451782297995913, 0.5648451291480956, 0.4001031389124704, -0.9464927331648928, -0.0938815023008954, 0.35750303404026074, 0.9985888628960295, 0.024732769629286777, 0.07489010100667468, -0.501075172946348, -0.294666381886675, 0.8960519402864122, -0.40243928160275494, 0.3064217687368866, -0.5229294587372499, -0.2752007351203227, -0.05213700733199393, 1.0528917255988268, -0.3618343973322007, 0.32480206585640536, 0.3685149415242722, -0.5718133360234186, -0.3919029122448201, 1.0095216682936554, 1.0767265125262697, -0.17403382864920652, -1.0676110467823468, 0.23457722789109822, 0.13586539027129604, -0.2604748220836863, 0.8710537625773725, -0.8133219182903932, 0.4898095398018403, 1.4158835841921966, -0.24363054242793483, -0.13450491406601423, -0.8200203721005006, -0.8462830966419451, -0.13733678147788006, 0.6566882339483706, -0.5494889591740688, -0.87029954246593, -0.012479005158203677, 0.12254244501034256, 1.064476833283514, 0.37442599702654533, 0.5848531037767667, 0.37341628983201874, 0.9652080336427773, -0.009186575173388674, 0.6610718226063426, 0.20161149370920478, 0.2187896547033909, -0.18512653978058285, -0.3102313885354779, -0.42731130059398276, 0.285330430578702, 0.07114199224967527, -0.18286671632710794, -0.23508470272307738, 0.49600644032075675, -0.268461356728698, -0.11547336685173262, 0.5224835558310312, 0.6001102310429671, -0.4044143640944361, 1.0582545141940871, -0.3561136474564385, -1.0977597864710633, 0.8890124705485655, -0.1435921204412187, -0.17312547910642348, -0.8993535962893371, 0.9110883275896603, -0.5028876930147538, -1.2197936414027932, 0.2717291739036261, -0.28680450601957974, -0.2593147712162975, -0.1843741206853574, -0.2079287949561033, -0.07868494677883517, 0.1928353628984612, -0.36980425912958537, -0.4007674601576561, 0.8415734157113797, 0.31033995212457177, 0.1569031370472389, 0.23830860084055935, -0.2415858429136976, 0.15376853454270317, 0.22100589504282594, 0.5941399050432234, -0.20378671839877013, -1.00422967514666, -0.42100059145926344, -1.0866911339580234, 0.667933376353912, 0.07076211799856416, 1.0271428856713534, -0.6195349921838964, 0.26557019930169873, 0.27331455925888715, -0.3859654722715311, 0.5788977025398953, 0.43213892114053254, 0.9396477694376838, -0.6231130647407661, -0.2841416855843848, 0.274613298355879, 0.24345147896171956, 0.2938892232252767, -0.30935275864503053, 0.6454385754897435, -0.6080292546461781, -0.27603412561213453, 0.5660684051550288, 0.11737716932158337, -0.31231366095304397, -0.7952570241372177, 1.1964137721558081, -0.2124081371468706, 0.4283823483144126, 0.6406411535787253, -1.627662935739215, 0.3151975227169806, -1.0741609339846732, -0.44474128614387287, 1.564597516399147, -0.6980113533698218, -0.7414790988046329, -0.0031523313798752263, -0.053230283530269845, 0.13181049731425104, -0.639388699753905, 0.9682303456300454, -0.8245265792055536, -0.5127781455024532, 0.4079111476404184, -0.2306853985549881, -0.2140564042492768, -0.7961121499736138, 0.09684911417061282, -0.13439288472719937, 0.41495887042349483, 0.1064136147514889, 0.3030396214413299, 0.6738167355895088, -0.19449822317905552, -0.58726700552703, -1.1935979822820613, -0.5104829798699106, 0.16017502957601518, 0.11558157571329768, 0.573994766506024, -0.07067534442757473, -0.7718072138447013, 0.7360289793920881, 0.21649240545217327, 0.06287476907240924, -0.5711784619978061, 0.3782479077690485, -0.4439401120018236, 0.2261724020635093, 0.4757023240871421, -0.5174843935130083, -0.18229210015445257, -0.2965688482435009, 0.588236164565583, -0.16642576814728527, -0.032614628649761196, 1.0645504797751, -0.4233184886156293, 0.20459506763895358, -0.18737278688548514, 0.5767602684172126, -1.17298290789349, 1.292829443089717, 0.6843811015449559, 0.25403169191905695, 0.22440100224448636, -1.3841564706179779, 0.7377675989841169, -0.329919980514759, -0.05530083113177102, -0.15472727203657805, 0.12720618673811832, -0.5930592955962272, 0.15090044638410768, -0.15221080560925568, 0.3210087348553847, 0.28717555728448646, -0.38093732036819555, -0.37170668705065923, 0.04301602052068538, 0.5850122692969012, 0.18834715296109478, 0.03176152559447902, -0.5452432575610767, 0.1790027243036242, 0.21162480346734835, 0.7201029694920885, -1.2295670803333576, -0.46951586985245897, 0.3976774234759851, 0.6455849625840023, 0.8218272310091952, -0.08066332323567446, -0.025299562743948775, 0.2816593871636578, 0.4939822605488543, -0.8501033400111458, 0.9858511753016369, -0.4853418088270365, -0.06395089244974558, -0.7672762132726524, -0.647844764232703, -0.5655611789972648, 0.7496727806479527, 1.7000773441825752, -0.2602361620422905, 0.2875089190295667, -0.9258159854169644, -0.4219363016770032, 0.27953000014600127, -0.4481340914223209, -0.7701315524779078, 0.36154487128416096, 1.1099434599967442, 0.1136554915188408, 0.30572844535979, -0.34024528317737823, 0.7063283508146145, -0.49056046114055063, -0.9001225404824625, 0.45600063811828534, 0.10643456812063955, 0.39253743825969317, -1.6257230418267603, 0.5492422629292448, -0.6856375615797548, 0.253046954398002, 0.2019170166649197, 0.6552258597168307, -0.16241928797293093, -0.3237941441096372, -0.6148159333830323, -0.30999003282435705, -0.13388272666747952, 0.08084636039363127, 0.7475502421090359, 0.04642570850355006, 0.5374151841291933, -0.16628052559728979, 0.02553993737802539, 0.330845949827943, -0.39393417647701345, 0.09435454008087327, 1.4188724465034999, -2.31534268809655, -0.46228774197822314, -0.5501215230224996, 0.21647745179342678, -0.7476345097426682, -0.2824647086299683, -0.14343097247152595, 1.5644135959876508, -0.2528092033667778, 0.41132332238040287, 0.2604973112181974, -2.7274292944784326, 0.28335319247132995, -0.768237365851742, 0.13171058317693055, 0.2861881407567666, -0.204385550322352, -0.10798690404094258, 0.08495557317441804, 0.49704243367985546, 0.7056855993135314, -1.6296301328732743, 0.16828407808127524, 0.9648061356317654, -0.12997506283049268, -0.3070582917873894, -0.2226857468222436, -0.19318282228266634, 0.11316273787704065, 0.6674900235701869, 0.12043792670132752, -0.6171778851747011, -0.015320951401176355, -0.1842024341641556, -0.7834009538363241, 0.3412909280188026, 0.35199199435134776, 0.005558194651802302, -0.32633725387744633, 0.46650673668905973, -0.9008897922197034, -0.3203826305159281, 0.3757699707623351, 0.11305342262528084, 0.7885931249271669, 0.6841702405093002, -0.2447886433541495, 0.748651921698672, -0.47374977113338385, -0.7518067346348644, -0.29567615677291387, 0.03842293827156391, -0.052982804023640626, -0.7567435165684459, 0.24485850526900926, -0.13549346379434138, -0.41972479565898224, -1.2540541007596346, -0.37135893172857454, -0.49387131139357177, -0.1685543848540002, 0.8788728318813209, -0.18573268641722834, 0.20395258024901997, 0.7128841264250528, -0.5668988167094203, -0.11133650334338546, -0.8898436140568962, -0.2283865294397815, -0.0999362162932758, 0.02590495112796373, -0.009564482047081428, -0.5650048536011304, -1.1652274997346528, 0.4191726895572282, -0.11093540847430791, -0.6227204264429995, -0.3148179192964348, 0.191790556098357, -0.03766790837796093, 0.08201896533702474, 0.7765636084118865, -0.5480548621333133, 0.132322365952664, -1.0402974702691221, 0.41419401169556447, -1.4836070666583283, -0.09677149118749796, -0.4207367043855836, 0.9730605534930035, -0.5067239683806749, 0.40854256639794245, -0.490728121056905, -0.8614882220287703, -0.6801173507566831, 0.1474492167716761, -0.05064681207396863, 0.14143665033792413, -0.5249432563335497, 0.5473384063517073, -0.29235757466226997, -0.837957454203433, 0.4091058090512105, 0.8736670403425774, 0.12512326002580046, -0.30036264838045285, 0.9417307845044702, -0.41109930726074934, -0.7416666505413568, 1.8768832580956913, -0.46756607266776307, 0.5307174174521933, -0.15599360502448728, 1.0518016274818145, 0.1592761222729072, -0.9234539356943371, 0.6304905883538287, -0.25541810664039405, -0.4721728098516304, 0.06381036233281803, -0.764401301222045, 0.5190529197936762, -0.8656470681032137, 0.4520833120604777, 0.15251134968231478, -0.4101054754583883, -0.11157965881767018, -0.27857467097333477, -0.2705275371561505, -0.5583295858634137, 0.1793597661361671, -0.37324640001580756, 0.6762496318449414, 0.19584049632738548, 0.35432328631383103, -0.03425172327615098, -1.8945479083612482, -0.5188866485205876, 0.29272871012684265, -0.28709545179990986, 0.5411667249752039, -1.293976382038596, 0.7822415073569139, 0.15438452843241818, 0.35215862922627594, 0.6791238889887363, 0.7221562175892721, -0.25368990802137964, 0.33458262226187935, -0.36229369968763914, -0.8931043763925891, 0.44943658252353863, -0.12073195532980595, -0.2612448254572915, 0.6551596824526548, -0.16564522219582237, 0.08709645318733863, 0.2067090602848352, -0.1384446462954011, -0.7450054581537544, 1.2180829605710501, 0.10514029764641211, -0.29045334562168584, 0.12425047604853548, -0.5150165405757302, -0.9264377194480239, 0.7205786391717102, 1.047908338270841, 0.42903764216482887, -0.12699471693165287, -0.18826597775145837, -1.0851821812279265, -0.11984607824814772, 0.7589878766511611, -0.7555083929520462, -0.5517939023759291, 1.0169806964431427, -0.788845272732322, 1.0818731996827167, -1.2000086265469718, 0.29613528572442116, -0.25623193797850236, 0.0924515758600781, 0.025787593468239816, -0.08522989398981876, -0.1378429694458129, 0.8726987840818987, -1.058849836561709, -0.3516812719067608, -0.2871676974877751, -0.9138213097259944, 0.3724271734263134, -0.09686527582256871, 0.11155835079986645, -1.2666712738723995, -0.3139912066950764, 0.6487056980516605, 0.4874600129791334, 1.1077796835243168, -0.02836056176563409, -0.031023746813999747, 0.21174695437035687, -0.3304313712723614, -1.4375068474274093, -0.12744442494827565, 0.1642415049723585, 0.19212811664520862, -1.058654662090103, -1.2928158913020809, 0.2861789039938322, 0.023010198193448628, 0.009649765336409592, 0.295700729557228, -0.09641727579192291, -0.8567427781862054, -1.852788136897741, 0.5641390276610235, -0.5164048036520159, 0.005682773158652243, -0.2664398213850059, 0.6810636478920566, 2.41308387002816, 0.16174507920570905, -0.8132548562116816, 0.16455588920727274, -0.18167938114900217, -0.22773719791644695, -0.08889742532957279, 0.5721834380594872, -0.40019491732609247, -0.8049184146278892, -0.48341519098280283, 1.706225284781838, -0.7223632840171831, 0.07494047303363224, -0.29083753002593526, -0.2372128298921446, 0.1841139497467116, 1.2393426148824878, 0.5147602405637905, 1.1006740025512909, -0.044880758957169656, -0.28101396855739874, -0.31412747232826244, 0.1710088573799804, -0.5421452488369296, 0.5618590944929859, 0.10749367627778816, 0.8215246210287708, 0.4018267562487503, 0.6285204125397623, 0.020079962234065482, -0.4650677694811585, -1.2731342159383372, 0.20496059929346777, -1.076772683702262, -0.505382051547189, 0.5352607537007523, 0.5199016121288891, -0.6725254092148466, 0.3429817950950076, 0.13325856475150477, -0.6204248435732554, 0.3703329042602738, 0.026230524190282725, 0.2439014194635556, -0.6154898150826209, 0.3853130354651122, 0.34726617683509303, -0.5583273411605512, -0.44442747491637813, -0.20192044431346334, 0.34639098399473034, -0.3426562512282335, -0.2056687700175706, 0.03707211906430184, -0.28948332075860594, -0.3902609930117459, 0.4927015504769073, -0.22269678736185236, 0.7454039820332197, 0.30326945417047363, -0.12098594728649398, 0.11761094802541464, 0.021285779527174697, -1.2173408805014037, -0.2894455992626022, -0.5743161318597482, -0.37211213506349117, 0.5538108903809659, 0.8263744092003197, 0.9581003102686544, 0.6265145119795169, -0.41537341679165957, -0.8063092628734666, -0.706440967781611, 0.9313493807346891, 0.677327746302503, -0.009972801559357466, -0.5765586761169594, 0.44031960296890993, -0.2942374507520655, -0.3315975990709361, 0.5183174398143106, 0.22793388354588098, 0.32015036381017076, -0.29186120689968315, 0.5816249360010879, 0.5656499282598008, -0.47311637626112135, 0.08536637339387736, 0.1613114848013394, 0.07043989369132408, 0.7891975772476008, -0.7104940248381683, -0.30570418877973726, -0.5051407330802563, -1.1690364921912575, -0.36070837830798363, -0.0960113672113026, 0.6877654674851562, 0.5511007734146761, 0.3798080880026248, 0.07631495156624105, 0.7274433616963718, 1.3967691567218314, -0.8443336547472358, -0.18054736009175454, -0.4929744943727455, -1.2706362458390728, -0.20725491498982002, -0.15033005294032406, -0.031140821394186294, -0.35889975097405247, 0.6668470056118513, -1.0704294046189624, -0.35879856554411094, -0.3984844079579728, 0.14168442025731232, -0.7542210614199095, -0.30052176341460746, -0.6074817038183866, 0.2336596464108292, -0.23544361490897844, 0.20327847129246845, -0.6538307875145091, -1.1424444343327553, 0.8999728964466773, 1.2446111828205182, -0.30673993265623345, -0.5364556633150157, -0.6996962736368404, -0.2597817137171917, -0.250541013839356, -0.5456684176790718, -0.3125938144089131, -0.21369650465414297, -1.6855633160141419, -0.0713871053021853, 0.17484369559071541, 0.33941657220150445, 0.010574535288393458, -0.5163591128883099, 0.2748455967977825, 0.34397432342235357, 0.42073572403673826, 0.8785901179352322, -0.13121668524352997, 1.4740429084392563, 0.08660441239341478, 1.4404061399648322, -0.6706342023330489, 0.20537486382970582, 0.3787322705748216, 0.2822792910521553, -1.089925585121159, 1.1090177350396888, 0.4004322851661214, -0.7568339678198006, -0.7009000112382526, -1.4169580632569772, -0.3847363872002878, 0.21989567536172444, 0.4962267417379161, 0.274255676619708, 0.589398690852226, -0.7960079866592679, 0.07384361420540302, -0.2775786243614944, -0.24107783356233445, -1.1864570897345605, 0.321256137105698, -0.9560078059080794, -1.1658863906901002, -0.37852056956191615, 0.5165044726264437, 0.9703394108476175, -1.37253752622842, 0.12627547500158737, 0.9462321994473265, -0.3653777060443886, -0.7746092022789796, -0.38331341988712386, 0.4609509511017741, -0.9253170970141343, 0.10891697253833604, 0.11842408699789314, -0.37291591211444775, 0.03593569649125162, -0.45185601247171037, 0.03792049835712786, 0.5062963293570462, 0.6149982710661889, 0.2780730924984433, 0.38880123007189415, 0.4422532632843809, 0.6024110493819378, -0.17410411840776002, -0.123483304017867, -0.38401162308829495, 0.4947741618408743, 0.47893244140344454, -0.19173038873455184, -1.157597845579228, -0.41553339525519584, 0.37782734432198845, 0.6177327009831022, -1.4508629498476067, 0.11564750994375281, -0.19804795474038556, 0.04261268889734626, -0.20344123033791234, -0.1903793379233285, -0.1891011504101919, -1.041816053022969, -1.4283007171035271, -0.03630925923252104, 0.04891831868886573, 0.12534072402770258, -0.637992561766463, -0.44935722066844735, 0.36110923349760554, -0.5178373881215961, -0.0975075997417256, 0.030259944027786964, 0.6276450371889111, -0.2148481969985542, -0.9111521833320507, -0.7357184918981341, -0.019251710247908536, -0.14803565433161897, -0.2554080689467221, 0.3234926337984098, -0.5746391236194641, -0.0030406686425843432, 0.34363337585984355, 0.7291454560643951, 0.06150779338891249, -0.3243783274939384, -0.5339865115113082, 0.2293229228186853, -0.4393012995996266, -0.054105991937828474, -0.6729651112507611, -0.32800708400723794, 0.3075224480459528, -0.9526708867076978, -0.9825168253097418, -0.695875780793398, 0.060129975607201555, -1.065218464595194, 1.397153687105789, -0.7306301895649521, 0.07688703755771009, -0.18871675760142373, -0.00092849457939349, 0.09479390430733292, 1.833572037137824, 1.0263307066160892, 0.5327253212157426, 0.511409819547575, -1.7646770927350723, 0.9372679751630398, 0.3811067635641684, 0.3319208040108039, -1.7102771273809627, 0.16039841120220533, -0.4713909612593784, 0.7658400564193811, 0.8198294860199749, -1.2982059334239682, 0.42534929918437875, -0.3334776638323489, 0.7942919746504262, 0.2986411096477044, -0.16277047724642119, 0.511741234735413, 0.41478077454544693, -0.3930640073202198, -0.4188300834277853, -0.07438261497697897, 0.39367352032438424, -0.011092291103537957, -0.17733099112672346, 0.05364147849720809, 0.06495906787299396, -0.03321188450946612, 0.6814959003255291, 0.5409762760810062, -0.6240592686370936, 0.5742668049633263, 0.1250073099667967, 0.25473510824281587, -0.1562721065995254, -0.01744492112156745, 0.20354288603934056, 0.5555408412834298, -0.46781387176443684, 0.4402915832239166, -0.6772289522927837, -1.0841248635390563, -0.22919028691790855, 0.37224842094044397, -1.4582087475291936, -0.0978471150667822, -0.2760101632952547, -0.19126434996426506, -1.1526287644793223, -0.550025545503396, -0.7198051013321698, 0.9687202687935578, -0.9186361196992968, 1.1805385634616026, 0.04522430871095462, -0.7587061401305328, 0.3814284215133609, -0.8687588782027167, -0.18703875370889272, -0.09333400093903921, 0.9085083978245944, 0.2215408213023638, -0.1254128030938425, 0.017279632587635894, 1.0259363056962856, -0.3877344483753863, -0.07935549375957368, 0.008574412699463484, -0.14810198376036632, 0.35772126284940065, -0.011050976579750174, 0.07396218613064266, 0.4559270449086158, 0.2315559899964973, 0.4069166881153138, -0.5219163961227813, -0.727342560919532, 0.3023771991468843, 0.6068154107158952, -0.394132662556105, 0.7540937703051016, -0.6282750461859268, -0.17303528577656851, 0.5720300743047166, 0.6159732612839841, -0.3622857012199292, -0.5355586219580862, 0.5162424308436414, 0.012634944693231467, -0.5901232409781281, -0.46788868575884873, -0.30910265207949505, 0.27965803324581107, -0.4905314125521789, -0.23774638951634752, 1.0005468577703178, 1.1794823349165737, 0.37423245896865753, -0.27214368420256135, -0.23121578186444353, -0.17475415319037169, 0.27062757970246576, 0.4340549059845284, 0.5798818358230696, 0.4323507096688148, -1.3028646912505624, 0.9860567895718342, 2.753558891317259, -0.17308674469299046, -0.24821488811905623, 0.018314749286240314, 0.016513648864498826, -0.7525496055250976, 0.452092924918016, 0.48487460057628856, -0.08570404364916692, 1.1151178578897463, -0.5960720751334228, 0.4803996607889285, 0.4018414121597963, -0.004661409092443669, -0.8433032182427139, 0.1001214631753745, -0.5634974807637324, -0.053179552306190245, 0.9667200195728678, 0.13790650583862407, 0.48814325455957935, -0.9315843831382575, -0.8505482969380325, -0.08846725792083912, 0.9244805110903578, 0.22328825743116937, 0.6169289939960279, 0.008857359814852733, -0.4176178798217892, 0.37124068464036286, -0.30262411306647935, -0.43980677838930865, -0.3798568349637577, 1.0399829129860478, 0.0824266436572369, 0.5666970102313418, -0.435005526519323, -0.07594063509834494, 0.0983547238534292, 1.3522139860271076, 0.008108532699997228, 0.10177120917219856, -0.5088036367010385, 0.6705753236136451, -0.5229709139866248, -0.6211831286342356, -1.1190190879686641, -0.14801328179631645, -0.03763398087482345, 0.2756221766313367, -0.7710278573079098, 1.5214772576171338, -0.19968147720373142, -0.906436786027203, 0.14461500239377, -0.14383527987573813, 0.546243870423879, 0.464185875833244, 0.32805610436876637, -0.062280210343208034, -1.4232947997449932, -0.13306843565218468, 0.8809799583539014, -0.4235676907961857, 0.10322750490619235, 0.5374930136367069, -0.20653733516484835, 0.5257746182337788, -0.382328730549224, -0.4169336837664288, -0.42796281708606015, 0.4340863070559791, 0.2991982751470076, -0.8383670836953587, 0.653735615172979, -0.38172075113897225, -0.768528580771689, 0.4389111688796662, 0.11146392797552047, -0.02915776453180051, -0.4731791829638313, -0.499176323485541, -0.23247793624519553, 1.7443373544136396, -1.1031251577498224, -0.6760720417320258, 0.4602404487530006, 0.3125450696849268, -1.1068711609944215, 1.0354091553835438, -1.0445277208269665, -0.1533085799365433, 0.590778473834142, 0.3882389944683394, 0.056044462699918474, 0.6154075093684219, -0.3104306979801525, 0.05898610769980362, -0.08890597651777679, 0.1096021503004219, -0.7823052309684446, -0.48968624517077364, -0.3015571465177691, -0.007941960106796868, -0.290520412771558, 0.11320914032375703, -0.6001425800231472, 0.27629299849169753, -0.2855394721145162, 1.3915417192644324, 0.39551517349398824, -0.7383518287859038, -1.0740973763698354, -1.0839159928668658, -0.05859644955610213, -1.085794512073597, 0.05587856893582497, -0.1824057830781216, -0.547146261383508, 0.4191126576626746, 0.22162226075044594, 0.38442438079358654, 0.8434078195676762, -0.4296754509421079, -0.22090934619160296, -0.19847632738354465, 0.21442660266461175, -0.5784599243555738, 0.6834337067364612, -0.20994257665037974, -0.870788334133933, -0.14865693549999118, -0.23722730024035826, 0.13353264589240843, -0.42127141913449817, 0.6250178216758884, 0.6925320982200199, -0.44568477098301346, -0.7506495136011602, -0.03268012873722294, -0.22907233569218374, 0.04979800630890583, 0.018878839344088554, 0.2306794584012555, 0.4859666514552534, 0.36380697617848684, -0.3447408525684797, -1.3037984568707994, 0.637955292880396, -0.6493272500655378, 0.18434862421314474, 0.2568664171599109, -0.03730605805235859, 0.3351697146120722, -0.16852418578141642, 0.3642837400386228, 0.17721724761297353, 0.3833864707642432, -0.7725014196676152, 0.22095671353094692, 0.5753160635499791, 0.16848948623642318, 0.7933559325215219, 0.08767926096370177, 0.33964477673402577, 0.09349798240358284, -0.36596943204053056, 0.781565227269085, 0.10206498080825377, 0.32807731424654696, 0.08266618026560847, 0.6381993258360062, -0.15753037481595508, -0.8786702188279323, 0.15981976111280544, -0.46770832684077956, -0.8747278238310754, -0.23988638811029944, -0.7536083107481075, -0.33544562217697693, -0.7450593016913883, 1.1028851783885028, 0.5807790933939485, -0.3149383574292418, 0.08452169265262881, 0.23755543145420693, 1.001848729964169, 0.3991768966261286, 0.10044192694123577, 0.3544206731108455, 0.024293761690477613, 0.2434679531117412, 0.5650140426377256, 1.3498052437874062, -0.053366741208714374, 0.20775489794242313, -0.5800342393536788, 1.014862271026293, 0.6740439348936024, 0.12401772887894698, 0.23606587268155685, -0.09275846506051326, 0.7319338108308977, 0.7015883179826113, 0.26122782075822015, -0.2184319217511405, -0.40083433534942237, 0.03279965279082003, 0.11484020235940277, -0.14256247427112442, 0.0630473454739254, -0.025534425743278983, -0.07325024087299756, -0.3564441376885007, 0.31869393404237745, -0.15188223624254854, 0.14528620822403765, 0.22768888968174605, 0.3586634722059382, 0.3683742771703765, -0.1150316228006159, 0.5408122736512128, -0.2403185640928723, 0.04958606883042456, -0.9015705175932776, 0.4276054804165537, 0.18544705979394008, -0.4411285915449879, -0.1552938991702349, -0.21023190645941886, -0.1466205320294863, 1.2252050559739285, 1.1019632760069493, 0.6060006140283749, 0.007653587339917755, 0.4007447887329652, -0.34874307408099997, -0.012262319354353797, -0.28638054554470604, -0.3831603641785236, -1.0619342547382784, 0.17338116172462173, 0.1837727089935202, -0.26570441075600504, 0.42274446473920746, -0.6614130461170047, 1.3397692012401947, 0.10720400060551297, -1.0832559341575234, 0.7691081562824232, 1.5964277920361591, -0.800132181380684, -0.19670796759835973, -0.39485283078555433, -0.745319456719616, 1.119700004645706, 1.0419477067685066, 0.03560282069834088, -1.158832954509677, 0.7935358037781304, 0.48392336754747817, -0.49980097280764707, 1.099037281050536, -0.7191297750857573, 0.4690750490616312, -0.49866623487756107, -0.7645631751854813, 0.09692289937367057, -0.9101520432601966, 0.4184430685657411, -0.5470114878071085, 0.2728444853294164, 0.11950456984264962, -0.59098550029726, 0.2919495346449096, -0.28763676682556494, 0.16521542038105136, 0.622860847106517, 0.07226087420665808, -0.47400060207711814, 1.0688730164611782, -1.4516596318444188, -0.31889288310439723, -1.0351216803775694, 2.3611737719434296, -0.29867834152437356, -0.22824833069367995, 0.2297733174375512, 0.5189090340140623, 0.2014312946847212, 0.260196760024338, -0.30227255926578067, -0.17328986601966426, 0.058608435286328996, -0.27986301149168835, -1.0949901924581615, 0.44797169944186344, 0.29791626047638486, -1.0079980538764155, 0.11976713403611011, -1.746962573760595, -0.07602285784319726, 0.2765670476703365, 0.3173066769239431, 0.06064178265620268, 0.4824754310726217, -0.9011606028962306, 0.20564591503847657, -0.045528283741957, -0.517399418244461, 0.5915894916236539, -0.1932173963414104, -1.2123937433514207, 0.062353230303163754, 1.1799914784229424, -0.5608311551937999, -0.40424562415994214, 0.45083734298057454, -0.6266225170748257, -0.08306931496935942, -1.1079949995522704, 1.6929759695912656, -0.3227104379507958, -0.42839564733530744, -0.23317797613906413, 0.9997791656782563, -0.04247266509243114, -0.5423730965062451, 0.05537934111146745, -0.6155452972458206, -1.922938515270103, -0.015632121569528486, -0.2596887788781437, 0.8243625644962039, 0.06602066606764855, 0.16717797785220928, 0.6477926225295051, 0.3727984127682674, 0.2522373445292159, -0.11473995147231747, -0.5769721556578674, 0.5189620443329059, -0.09468935488519972, -0.24204984625433731, 0.1001781701133688, -0.12445807720730817, 1.1190985187086782, -0.05364036446687207, 0.28725379900054515, -0.3919674311745854, -0.22735200172097542, 2.5031370312340875, -0.049514678004860084, -0.35818426866867836, 1.166781596775671, -0.2945536367599155, -0.6978994720951985, 0.7688272450903703, 0.4032367623710185, 0.06739324617388151, 0.5248134830484501, -0.15840677679694737, -0.1962504529163244, -0.9143690165867111, 0.5025333664478555, -0.1686277702988787, 0.21722666926494383, 0.011823412462630006, -0.06439857884024613, -0.03325601865999027, -0.47652554984056616, 1.1400074152942818, 0.5213295387261863, 0.35846964949658244, -1.1362373732584654, -0.373304934264747, -0.19615080913508176, 0.9829688933500376, -0.7300134716231135, 0.3613731272392469, 0.4332785441567607, 0.29929697210131184, -0.7756997396802643, -0.09416151505892204, 0.3234361535513224, 0.06130868710670464, -0.8762605983345859, 0.56997857468487, 1.6092636621689025, 0.8395404374408117, 0.5032607416618682, 1.297179744945835, -0.10289208612186562, 0.2793876253766599, -1.121360951972491, 0.5846250383637904, 0.7017099624648453, -0.4180900784755056, -0.5454426801160943, 0.08089219469020614, 1.589508653854242, -0.3303769016645528, 0.561218771235228, -0.7478303627636931, -0.28179188989551, 0.5172820037429038, -0.6986553835133817, 0.1148588077290472, -0.4561726244730561, 1.2192703929253732, 0.8710281807920575, 0.4953047717947613, -1.9017727986570525, 0.14449231560132808, 0.4257654128255422, 1.0590217112540112, -0.02270821386289172, 0.15960659681243766, 0.6858033552797547, -0.4299206740960539, -0.6187041177195344, -1.0209046805923567, -0.09915709207443114, 0.2010231521078181, 0.43643230607907546, -0.29501081608636676, 0.19397583633188517, 1.1173556581154698, -0.0682582548908589, -0.0020816520507854763, -0.4839915855650943, 0.12620321997548345, 0.17281863337669692, -0.49815237286463104, -0.8117667803159407, -0.46325365318572803, 0.3785158792016562, -0.33967138027688487, -0.3975620355929254, 0.4518139170520795, 0.391441097400894, -0.8508875784631961, -0.1496604783944012, 0.173808513906775, -0.7200046857765459, -0.267651121679078, -0.6542694596636017, -0.7045505830780737, 0.17953822607246103, 0.9763983269826484, 0.4133834372779208, -0.7532355280732151, 1.1750355982985359, -0.1369483924861816, -0.4182700127372535, 1.0197764078563878, 0.9825166208498122, 0.04641745249190619, -0.05214112618162195, -0.6242087703558356, -0.37932878421381544, -0.15009671608271924, -0.07021716134775746, 0.23903216296500085, -1.2637710461595413, -1.088510233018289, 0.3930075462151425, -0.9884536419280943, 0.25168912207689803, -0.16896368964677633, 0.39453025087117444, -0.626359965335165, 0.6194938014019991, 0.0036313568936126306, -0.0898006280217114, 0.10565635503518513, -0.07403363152978926, -0.7047007288000283, -1.0892421497570504, 0.5100014275300289, -0.46796714177366927, -0.7802075323979167, -0.7806224439710541, 0.3923316495492862, 0.1486065564430505, 1.2816509748909841, 0.3432798444814477, 0.7347377604653661, 0.8062168447230713, 0.014107339160661064, 0.0645071593770232, -0.4296175788980974, 0.9235423652221508, 0.7841669227814994, 0.5780601797312578, 0.8979971333742475, 0.5518517196547453, 0.19790525248447616, 0.31566329772724455, 0.8827735235052184, -0.30982354752349256, 0.3435407961122226, 0.14462508399518553, 0.2273434381511027, 0.026950557839894668, -0.07210735010500904, -0.3493164196787711, 0.7383284192436201, 0.9729046199475327, -0.795677741215989, 0.5412755314514526, -0.18574763958102455, 0.2974123108261584, 0.41613839220118076, 0.546197926899723, -0.032734256005892755, 0.4557304484036262, -0.620439004304486, 0.47396323976627164, -0.1856447054333489, 0.9034866963078758, -0.4400973838627926, 0.7326862826170225, -0.17608622839930227, 0.54800728308356, 0.7162423703583286, -0.3711646114273002, -0.4297937366051853, 1.7753845960632864, 0.11353180737440915, -1.0556874755808157, -0.8530398846216317, -0.4034091863572701, -0.15349183174418776, 1.3895747522089552, 0.8289570579271609, -0.039550785220289986, 0.7696494831232066, -0.4309559283780897, 0.5219672798096273, -0.25025497866129565, 2.0055379041642647, 0.44523694943269604, 0.7960222867613844, 0.14306842089444505, -0.22609080225084416, -0.5308145220169816, -0.38026193087307303, 0.8225554906182053, -0.4425479491208581, -1.1017460579352298, -0.7931049250420359, 0.2373094323749417, -0.34070021601542616, -0.06403612681237432, -0.2115706674066108, 0.41093993235526005, 1.0403329309988538, -0.5744597922605149, -1.2080177480773029, 0.8555573177602818, 0.28988686373485806, -0.5805838140090873, -0.30047665015069447, 0.08476916382075975, 0.5733308138141451, 0.8287079997580236, -0.3918614279087663, -0.13842157475013217, -0.0649253241107466, 0.36064281413648513, 0.6144969116617154, 0.5354300150709241, 0.006019241938908736, -0.3770540275115255, 1.0508226516189745, 1.5803510204702513, 0.1405247817716585, 0.3596522301881208, 0.763136085708831, 0.6208575529661595, -0.45571378578430144, -0.06668850667178, -1.0398601442889515, -0.04383659475298125, -0.6745178815689903, -0.16782993937898905, -0.5387404663773452, -0.9237408000895043, 1.1151560801593825, 1.0195701809312478, 0.10814894473741479, 0.36897148189451184, 0.11307767567404686, -0.11161611183169773, -0.718268649940388, 1.644971615604761, 0.37505196688279796, 0.5135169426319235, -0.21076635096915863, -1.2755836574724961, 0.9646100510404991, -0.0030252445303336033, -0.3515339079202668, -0.21153516294015023, -0.8887497714432901, -0.7895229907908019, 0.1733774368514847, 1.3214532589280585, 0.031071084207158733, 0.48576734728848203, -0.2982669646570293, -0.1983875542964456, -0.33675885847447684, -0.09363653113836722, -0.11985558132862976, 0.3982348380163334, 0.4471773964715878, -0.026631852791859686, -0.9487866621460447, -0.6892523752986759, -0.8847882263744224, -0.7911806669847216, -0.23935195784788552, -0.6625093817889833, -0.8711643638947164, -0.44039355799136504, -0.1588803594390146, -0.2637513404588372, -0.6521440626398071, 0.8157610900301566, -0.3812911212351646, -1.2565710266911119, 0.35485680835100164, -0.12166183174305971, 0.18790577194543737, 0.489241730845664, -1.439737847006623, 0.9875379454349791, -0.07673288676397688, -0.1049948043304069, -0.08494630259160973, -0.5635664230961975, 0.47291437942496983, 0.22128597787938695, 0.8449755181768687, -0.35825379880090674, -0.4222745831173403, 0.6285976286744802, 0.24262947419787217, 0.20284309652129334, 0.3501920862941237, -0.34807970233779495, -2.07738925958928, -0.41777488993801215, 0.7006011814549419, -0.4531536774652464, -0.23946577311063405, 0.12287173853867445, -0.42579080997293994, -0.9075689685876955, -0.1145343938901194, 0.2934879615818785, 0.36996029435578737, 0.24378980570442832, 0.13253169805821302, 0.12694420407197535, -0.5745329359911471, -0.44688132221040944, 0.5148931304185833, -0.2447094041762659, -0.8267625217619929, 0.9804182032529856, 0.372766562652264, 0.4711185366000673, 0.07393004409915817, -0.08393071324464463, -0.2602993087080397, -1.1512611039340006, -0.27791033866860576, 0.45877182296422797, -0.20225614615895515, -1.5427859329933686, 0.23640764082739035, 1.6086547158235658, 0.010909340372904495, -1.407741001456032, 0.6484912757611164, 0.9026437495732837, -0.2651624870443154, 0.7266750107901923, -0.10197978499675625, -1.032195924184545, 0.6330783257877906, -1.1084773398852135, -0.6265314602874767, 0.7580066147109472, -0.8448203301146553, -1.2150251479988672, -0.9078957366670408, 0.1252673040362005, 0.6789016436620006, -0.33586099853222373, -0.3267866337920827, -0.34333429918980946, -0.05721010884239318, -0.6664557028507085, -0.030278562004187826, 0.3875795830631451, -0.8356506090001555, 0.1900036953848886, 0.11228425574295942, -1.062121481619628, 0.10584375239838723, -0.322022207532896, -0.7196965803548632, -0.3352263971505016, 0.7856779355013935, -1.5258264463140923, -0.5650294879937033, 0.7250180651588188, -0.9709929713617413, -0.5595005876708149, -0.807868345776779, 0.03418724046134835, 1.2296641840564608, 1.0010506323929924, -0.1500778726650206, 0.0019605527531305345, -0.3711346239956772, 0.15661258902200056, -0.5093326533646516, 1.1881578403733146, -0.8075141110912389, -0.3570362626907835, -0.8305858658224945, -0.5566494175850658, 0.170015229187259, 0.5165986384181385, 0.5215103444647697, 0.5314723597303485, 0.8063068231706945, 0.5443289003781573, -0.3202155538435507, -0.456549023362535, -0.18218248324105424, 0.16410886055075705, -0.02425777384628835, 0.32355116055269195, 0.16768571886670391, 1.9268452394785662, 1.0164169320069865, 0.09842463858828941, 0.16814340989318882, 0.5479176853823311, 0.7119534466655292, 0.9067206573316855, 0.09338038583329342, 0.3449131806802247, 0.8794251404044, -0.4690415188204764, -0.3225251793080806, -1.1523208862210996, 0.21794847780523977, 0.04514784302363359, -0.33278563434995556, 0.6517834432150573, -0.0398556203953633, -0.07995321562498221, -0.4048589073844431, 0.8482252915771982, -0.3993707803936359, -0.7222869148452328, -0.10067954057697442, -0.3187382126494372, 0.33337570773195535, -0.48943068388824895, -0.5697080057360095, -0.21309137941067716, 0.39657825917996187, -0.15883983237961344, 0.567773067897669, -0.18068429582465964, -0.8737063027695704, -0.24243884216772954, 1.0631631510170068, 0.25215903145404256, -0.18835215191080323, 0.17528178689573384, -0.38645254369896476, 0.19760006557346133, -0.31631520335297464, 0.9172403130263485, 0.4993560671923831, -0.18289651186525094, 0.9839647867307169, -0.20794382778072934, -0.00730886439870404, 0.3871289620307131, 0.036718744363986325, 0.41064008377710326, -0.37077508691323013, -0.3995997716014555, 0.3293747081192115, 0.49278682787622047, 1.4420631367663197, 0.8422593267339207, -0.31553570680454596, 0.023822835560278952, -0.9665327963841366, 0.452490178140328, -1.1809294025687753, 0.36654134018807993, -1.3951097121068472, 0.32389692408233545, -0.709794990882822, -0.1539945956302269, -1.198472963078207, -0.058628358687897016, 0.17598741751769104, -0.8927950130345509, -0.4986655751800665, 0.8088044349461151, 0.1821098134892429, -0.07320881036936785, -0.4527942412318877, 0.8590131872776591, 0.8088570578618512, -0.10973544407545267, -0.463633812814072, 0.43357655902184083, -0.183139967207761, 0.8998726078940824, 0.8510801185915469, -0.12311710594926895, 0.8775483449990786, -0.543257605534259, 0.9412409039765899, 0.293483278703138, 0.08529217156017763, -0.3597628214212763, -0.40415039110165796, -0.07022916378811846, 0.3784049718613016, 0.5101158342476089, -0.9469738291476818, -1.2253783228742106, 0.16285904874180632, -0.4143493499057718, 0.37398293022866763, 1.1478705614784501, -0.5939136474888044, -1.7193853479277088, -1.461921699160344, 0.3893951729788102, -0.6235242291319305, -0.458276196852572, -0.4104869134988257, 0.11625637883966423, -0.23596169674106285, 0.1402085396101979, -1.0921277811092678, -0.9796234801038434, 0.22416970887984033, -0.2615248472980004, -0.10658377431391275, -0.5435357390227412, -0.3728776668921334, 0.36135538693280733, 0.8467273642772749, -0.5375778530503087, 1.434860366940525, -1.2368109842981931, 1.2427750619101379, -0.004878863381950545, -0.21056359470856115, -0.8341218731893777, -0.997787316771229, 0.6169247983760943, -0.6166560821929028, -0.3417094504824833, -0.035457154536060354, 0.23335437069978324, 0.3965196505803885, -0.03829903269935046, -0.7745766516702783, -0.4947479862795406, -0.07294721994505615, 0.800977827116284, 0.12361252185891236, 0.9565278164862245, -0.7158300321023059, 0.2644470231839755, 0.13185271056132308, 0.7005580289332667, -0.3269715842514129, 0.9168763662184365, 0.30654527908588436, 1.3289619201913434, 0.339723031160046, 0.08222949257394607, -0.3264938237744286, 0.746661129629678, -0.13330219460967108, -0.1625510542010696, 1.4040889347493235, -0.991615009430737, 0.1704894621224011, 1.3680861664648196, -0.8414729758010138, -0.10710871383428501, 0.5974514703704088, -0.10566927817146382, -1.0950785902476303, -0.2741759033682921, -0.814603021007087, 0.5230289370204629, -0.27480376137451157, -0.06387262571514188, 0.6087010706396487, 1.759130667136613, 0.13458681995745653, -0.44533624867306226, -0.4916956289016498, 0.1590262594908913, 0.1789308067780418, 0.5952401280937861, 0.38173217239312185, -0.09046560815012447, -0.07362768458481933, -0.1136380944584786, 0.7015456354685972, -0.104330869683468, -0.4364441277561768, 0.0950793072603637, 0.6710972561148201, 0.060677067362399736, -0.10782575839172494, 0.17088931177632807, -0.24376539350587317, 0.3547900307308234, -0.29007829779970035, 0.03222042504479036, 0.15340643101035115, 0.7380490958726421, -1.938439569425638, 0.5347170067670923, -0.23358792910911408, 0.29389018353807306, -0.8529456553864256, 0.39535027802870737, 0.01420359342295607, -0.24339098191674466, -0.7743840108149295, 0.8426432450758992, -0.46048825436335106, 0.2559153024862622, -0.37431452416865063, 0.31279806052221165, -0.48493030297579176, 0.7612570182630543, 0.31153413451632744, 0.4007220035911212, 0.24667530771501045, -0.5474578094147804, -1.0216922040162566, 0.06175528229995058, 0.2548569143816507, 0.05960173327672269, 1.8000378028080324, -0.9485571834590026, -0.39816896763783016, 0.7101196724920389, -1.2368597104020758, -0.8617836081653799, 0.08005496005874325, 0.945564030645841, 0.038563078065052596, 0.27445768350629735, -0.33049702353037363, -0.3901425592605441, -0.42796763274537847, 0.3555068132272354, 0.9990805782609271, -0.13804723603366864, -0.23237158855744466, 0.25755775261763897, -0.11653258819276364, -0.7553929976963658, -0.8107572034853571, 0.05806855412311611, -0.07845046504966205, 0.4544585600914392, -0.3864486356569529, -0.6692526508887957, 0.05262974818308035, 0.10053971289574154, -0.2539853715979063, -0.294226376737192, -0.45756015196688293, 0.21372695147664122, 0.6640211533742386, -1.3147115042012614, 0.38165221604942373, 0.7157429526506645, 0.46190996487686475, -0.1800010233102473, -0.5352174368247719, 0.3002813734764473, 0.5231462363269422, 0.6451679108560446, -0.14648199959328817, 0.30521316022833545, -0.3349038994338812, 0.41984364094546645, 0.3258012550782461, -0.45451277281679153, -0.17926146087768977, -0.26938232971218035, -0.17273822683752163, 0.23692974516398987, -0.06118814840653937, -0.27966046506858483, 0.25880431283682453, -1.1092685564978102, 0.15064134401195872, 0.498010265801311, 0.11578983004357904, 0.44257692449106467, 0.3571856386640322, 0.09012823381147235, 0.5647394047264221, -0.3014740909791709, 0.0990800589998933, 0.3919681213779858, 0.5182064957250532, -0.3400310947242953, -0.9555758487048198, 0.10355251594900862, 0.5028366360826534, 0.24184995189296665, -0.598129313026442, 0.10096119800730538, -0.33469597453575917, -0.2658266157493287, 1.1467881466656542, 0.539009034637871, 0.8153275149753572, 0.893125742103313, 0.31678887775078773, 0.3372058865664471, -0.4393429021769616, -0.20454910401746051, 0.5212421715682163, 0.7083502491159519, 0.47650009716486874, -0.6385533659270064, 0.4421589577492725, 0.5417273993531633, 0.7758090324714637, 0.8051113051736272, -0.643500564971645, -1.316641860955174, 0.09452167561446143, -0.22439833959591987, -0.5072723488178473, 0.6965801684755426, 0.08704060551714138, 0.3546702262363327, 0.223900067346127, 0.8745220817910624, -0.6008964941948358, 0.44877250395946466, 1.0069254231005003, -1.0204499935196907, -0.7333861942457414, 0.4343052568766156, 0.5020919622192258, -0.5233202342525085, -1.4166762986580075, 0.37443218309672466, 0.5998236347101674, 0.006268487541554899, 0.33602699810021036, -0.6237611626336044, 0.12905569036001596, -0.0036929374427355816, -0.47172847433056697, 0.5595396878185592, -0.5911266625586138, 1.1838703982316219, 0.3528481293709839, -0.17478439288495337, 0.1318583788025971, -0.358936524907432, -0.09891949345175548, 1.0630769710609729, -1.013456204499304, 0.8169998539457719, -0.502417684027942, -0.1936892039653879, 0.19602411618879037, -0.06269656184413838, 0.4322824403105191, -0.43312627840748397, -0.027915575377720183, -0.45646282171055935, -1.0496000350585977, 0.3504266289609895, 0.5768018233119852, 0.8557453736231475, -1.3094005950560474, -0.018871128519058956, 0.1637805547799318, -0.23109235709895792, 1.2481874990858726, 0.38288443857550447, -0.3044592706804148, 0.8969297107095191, -0.723331535573861, 0.8341743408915743, 0.4965813493034289, 0.3232232070421677, 0.1819436857186492, 0.6706634767979816, 0.6674447220986564, -0.442013434038002, -0.8241072954349358, -0.806915233798752, 0.2450201872956649, 1.5459635034380712, 1.0893199310972652, 0.6299468541873634, 0.8026605300064183, 0.38253440337595906, -0.012044960275963884, 0.2156373893823758, -0.5957608915134424, -0.30887073023738326, 0.49343773753076303, 1.5351197089908963, -0.19962061734730294, 0.015878807810864173, -0.08028128389873188, -0.9700464527955891, -1.737718911073184, 0.06293970194829915, 0.4447314203333944, 0.16089768931904483, 0.3954520698618752, 0.34396618772693904, -0.7985721103685617, 0.08251940105595604, -0.3352357624305383, 0.143420658629484, 0.5992858924386815, 0.8551671351025738, -0.35083312008816986, -1.1048967111138601, 0.7928363540444993, 0.44551797630203427, -0.5378811057072075, 0.19068430759598967, -0.06025424032228657, -1.0629367438569362, 0.7001497195659898, -0.12860706480411016, 0.2705455262166254, -0.04884199814335574, -1.3585740049261636, -0.9514138568206107, 0.798794352728845, 0.15825400527188385, -0.4851889829684672, -0.22735881885773068, -0.22720080450688757, 0.5596150221560384, -0.4613987070284449, -0.22965376486711994, -0.17612383327980793, -0.1254287122475208, 0.8247815152213502, -0.5625090266292558, 0.04379834507754485, -0.6820800831728162, 0.32592759069084093, -0.8204839199856058, -0.04911970141939815, 0.4724628340245749, -0.0898835726943407, -0.39992525446983335, -0.23049169358730476, 0.5972694788301147, 0.7644618280399916, -0.4492527007544974, 0.04513131030956777, 0.6148303520131359, 0.05682671777544382, -0.19043915587666124, 0.30066183345420994, -0.13594269034025847, 0.28084214869167373, -0.09211697545566155, -0.7095939054563097, 0.10291091321463788, 0.1404693841265371, -0.3320776851400631, -0.6386591137550182, 0.4134788938641688, 0.20831148890832524, -1.224226766674803, 1.0245387955401843, 0.6085992029265017, 0.13971870619593801, 0.48937264447087947, -0.11424026099273243, -0.2844722680610264, 0.01082888958778512, 0.4920031919068696, 1.5383249778594286, -0.06204601292797311, -0.4214734514320041, -0.14594109435342897, 0.42475892748210703, 0.3681460154056249, -2.249151150643126, 0.29478997824370773, 0.46691865637496366, 0.20237090409050124, 0.13509473654735937, -0.5607291477741305, -0.35223675399129045, 0.8635124271394731, 0.060501011533545854, -0.21222294118301008, 0.24526422183004928, -0.7303802395282285, -0.12907919687102357, -0.00045233973249506065, 0.38730897703160444, -0.30971003213478954, -0.22813289437819936, 1.07017873219211, 0.06229280090819099, 0.12157731663872132, -0.17122132623476233, -0.3612103629861104, -0.19247227049307702, 1.3736775897647049, -0.29688557150303607, -1.5455709047675756, -0.619993582635155, 0.13232468918751278, 0.9298675258912278, 0.6527204960526058, 0.24890405174628152, 0.5697650443730298, 0.4944456850498061, 0.6963823618754158, -0.8773392237092419, -0.41484123716899435, -0.8504335899440411, -1.3467381273748256, -0.4443455241871559, 0.17504086979501093, 0.10673514554989336, -0.626218768281112, 0.2004213295648138, 0.32972704452218693, 0.07102275715721579, -0.14837893057185653, 0.20840619232263283, -0.809483835051612, -0.1289487277036937, 0.18142872913780023, -1.0939824558565938, 1.1089866309697736, 0.03191768377892687, -0.12601901759997824, -0.42515024821867425, -0.4027244728815112, -0.07095787900736053, 0.09117021370478698, -0.5269653549481707, -0.3780476118266791, -0.5566828825722767, 0.8237572616840159, -0.2095076461793416, 0.48225107644635723, 0.7979476563615973, 0.35267727435614793, 0.8789404235754006, 0.6664703564593245, -0.6533719382311858, -0.5777218059327289, -0.32247386306816805, 0.4029903088476011, -0.5462643184804112, 1.0165043135125547, -0.5921457103138824, -0.6050962397965415, -0.365103977133875, -0.6574083656031379, -0.029351074787714978, -0.9669662273455515, 0.09509450012351081, -0.27330785433761395, -0.8133523578911792, -0.7470894618519062, 0.4521223093380217, 0.3270219403119817, -0.23965177569584634, -0.5154641022533608, 0.764980360795522, -0.09451351700892904, -0.839368934331926, -0.8665962770006016, 0.5783002006000005, -0.4215859766893161, 0.5658416179715109, -0.4939871440379109, -0.24108434614542834, -1.112772007219925, 1.2241311282257699, -0.5611368698099223, 0.23436406752182898, -1.0424566966027258, 1.202402846596128, -0.5392072252221967, -0.03181599032764443, -0.6019837747069534, -0.6810175880216413, -0.7189129911506963, -0.20408084495263365, -0.1600272478035324, -1.4084579023073256, 0.3623628078294472, -0.4702549432264382, -0.20121451601014323, 0.13104277890046112, -0.18144513956077385, 0.941618127291289, -0.0045184833729041, 0.45076342922188, 0.3510482651611783, -0.23712981144940018, 0.7923262694435718, 0.43608186506774393, 0.3646028285128021, -0.9739941464156554, -0.15540552549736267, 0.04665719853440242, -0.19503581661717448, -0.07590581781336303, 0.3275030926175359, -0.6709561222538106, -0.1961335133539643, 0.692270105289241, -0.9148550178742159, 0.3967498968606455, 0.29056675807380716, 0.09195172538838495, 0.22775404477315028, -0.4984678979977841, 1.0747974312615929, 1.0992644320975928, -1.215536414891737, 0.41937035535641987, -0.5546859891981827, -0.9936618801648665, 0.7327361317646554, 0.13319060275307962, 0.006347332636528466, 0.0468565623764702, -0.9040565163575531, 0.6666329137065828, 0.7712195520760433, 0.0703054634017303, 0.16869407166675124, -0.35463703897507665, 0.8395707975745668, 0.9182918095491241, -0.13276521966487248, -0.036021588128050036, 0.3552747148669725, 0.249836662106176, -0.31111839562707394, 0.053116438686481915, -0.7078746665553962, -0.24238202516999688, 0.6845323227729379, 0.94598767161062, -0.28975254052004573, -0.5014463618991751, -0.45813971955913296, 1.3486362114809758, 0.43706245511837466, -1.7293257498327559, -0.7083868178113536, -0.7467249578580164, -0.4865653746766217, 0.3623565678811471, 0.5823884780186853, 0.019648063057804276, -1.6712115577410693, 0.04668131135955188, -0.5310991375473929, 1.1519812616006682, -1.0171513804490324, -0.711621399713545, -0.2168130604452176, -0.841973844811287, 0.3542858549124423, -0.006396237991061336, -0.040619664775077974, -0.8256013468501786, 0.11381227273956843, 0.5959513503943428, -0.35597468399877585, -0.24765508154944904, 0.9205838539600107, 0.217332759627779, -0.8574668822607795, -0.3709791371232729, 0.3664023962639975, 0.598205110662553, -0.4531227981958447, 0.19720355165183776, 0.6858588942744273, 0.7814512462365233, -0.7696569726782264, 0.9695759359654986, -1.395521389811666, 0.10035090738744648, -1.2221842203306934, -0.3502022334124305, 0.769896175854845, 0.07196111771559482, 0.7536559368178093, -0.4022255136693653, -0.5062044426451784, 0.9950423025585058, 1.3707836216581784, -0.0060624658779244445, 0.7379574687525688, -1.2676305737462397, 0.17757878848811992, -0.7044059418221736, -0.4639107384329139, 0.2849400969588677, -0.7171569605601674, -0.39753448488459797, 0.39944363617778866, -0.3009049487328049, 0.8948894663005343, -1.132291997092685, 0.05527646986630158, -0.47179972030712247, 0.17569793995075325, -0.13587641533211595, 0.31094607854885054, -0.15981501027266015, 0.24765827525705333, -0.5357866777466616, -0.452225311137213, -1.7344628618445967, -0.055252381097101635, 0.5474222653498655, -0.06376266066801473, -0.5625869467477247, -0.1921391503959153, 0.04665292284929183, -0.3623913287520299, -0.3988780002184843, -0.8750218056674488, -0.24580044741998228, -0.004230428679187326, 0.35967253306102237, 0.15629209940014974, 0.46264384511029516, 0.053332512329376046, 1.033081404443032, -0.49144554428336085, 0.07551076165909926, 0.48601043828233415, -0.6662590030732531, -0.10717725276156903, 0.1743195704441755, -2.190245010751311, 0.715491595070487, 0.502558347285613, 0.2970051131837152, 1.0243253146147868, -0.29433460881001433, 1.5668678907900828, -0.9467063724351307, -0.44896541646270566, -0.23025187017904258, -0.633062523810656, -1.3898335583960373, -0.7007616609744507, -0.15457872212283702, 0.6142024014382467, -0.03488967693323932, 0.037645707945208995, 0.6802440500832561, -0.15369258515637102, 0.9719509491727492, -0.27148771729828136, 0.5311432594478723, 0.5399807953617904, 0.8341439198990404, 0.5477296275632616, 1.1312663904647946, -0.19921119230738135, 0.22836864923728317, -0.429997757179831, 0.47582726103004036, 1.1126552102042897, -0.5301684469169555, 0.8714283049483692, -0.8670266678576727, 0.4533201076241237, -0.49234305234628545, -0.0870310325356726, -0.36185215925067593, 0.09976721986288908, 0.43184005971018746, -0.2969170457541991, -0.39742651221858016, -0.17606233500261434, 0.1425013118458744, 0.3335759540262342, 0.11829867778007903, 0.31462875687268466, -0.41892621496515703, 0.8481090849341347, -0.04420942865929835, -0.4046779196658202, -0.2744183513717865, 0.6754828887820921, -0.18724233299409934, -0.030905634305139096, 0.0719872383537976, 0.12539283992950429, 0.4367307776683827, -0.21633008445132754, -0.6462703504372161, -1.098329196205482, 0.2722780926607973, 0.3455651570116818, 0.5206196839499454, -0.09547172496829057, -0.4424480206032851, -0.4167180327354675, -0.6295585799093248, -0.6413756024431044, 1.0096499684429152, 0.4869002515052944, -0.4197570242059019, -0.30159339175650896, -1.0367643800989843, -0.6475414391502098, -0.6771347839170895, 0.45283821823639137, -1.1858204503934633, 0.23051227096029986, 0.5422424098789113, 0.42235916152103187, 0.14682470931585923, 0.26439257585741865, -1.237377229299902, 0.1244393164913043, 0.8091645064578966, -0.5576025660864545, -1.058050725294836, 0.39352122963412806, -1.4190640786855007, 0.2500195509168336, 0.8766595179116438, -0.4798493221748001, -0.8223020666486862, 0.16738600576079746, -0.8607568782890829, 0.40507183816074116, -0.7584662435564109, -0.0902223512259203, 0.30989395571558387, -0.5634857144439733, 0.05630635134226225, 0.8345415537461884, 0.6752195762036053, -0.061724789974642785, 0.5875974641003008, 0.8775456235737833, 0.1618739910412707, -0.7002231669122122, -0.33058766109464727, -1.0813027205957921, 0.018197473705121037, 0.6979883548732205, -0.8204299632307657, -0.3481087175446722, -0.027786362524888947, -0.8260217504217697, 0.13748434814304514, 0.022097044885494615, 0.06167695633958851, 0.5783911190297476, 0.31798472982576126, 0.1855445868827693, 1.2627223377600574, -0.11458738635889208, -0.9059735101740644, 0.5509968655493119, 0.06014106195876329, 0.5002291840059704, 0.5944700252872788, 0.885187005682263, 0.5466706066510382, -0.10689761075910546, 1.6473631398883397, -1.3292498222851532, -0.35907756885206854, -0.24681999740039942, 0.5236103322511103, 0.6542901928431248, -0.031364310521730124, 0.21953874881044974, 0.45926470936725394, 1.1617025589737442, 0.03684942807930472, -0.4958877248303416, 0.20867202965341777, -0.48693001981337786, -0.1564454211247393, 0.5710074669089639, -1.0853903431803067, 0.6891882573939017, -0.7218426803572178, -0.21179383160756554, -0.22968190354715787, -1.2959803216017445, -0.6493168739596091, 1.3967462826943815, 0.014201364692602081, 0.24091467314782627, -1.0981461566202504, -0.2656603029694473, -0.6756260591181905, -0.6772390792120131, -0.4836438319286373, 0.178956021381566, 0.261092518574798, -0.13433403903526017, 0.065261785827193, -1.674533862375285, 0.057524055068250826, 0.30179068186601715, -0.5259591765593626, 0.5771811742312704, -1.3057668217242477, -0.8981045266903316, -0.05327039876046647, -1.298471536732355, 1.0186448070133893, -0.3749742094265835, 0.15817674407055962, -1.8229429107297792, -1.1194360582569214, 0.591920980868751, -0.8212634789492919, 0.10575440249203628, -1.7337175031845882, 0.32851720930616135, 0.17867474406613496, 0.7676610231684124, 0.38819507538573483, -0.7421679369996277, -0.10013769037241485, 0.4319578810607419, -0.24096462087538031, 0.15576251378075873, 1.4538696215160694, 0.47416057967743724, 0.4314774980190621, -0.03843452366436695, 0.2770923423032843, -1.0742258358442727, -0.3842716010105433, 0.048369782016192936, 0.3265145960680349, -0.019246494460420704, 0.3733457296436427, 0.1296751200555243, -0.3455033236333052, -0.7214520447449296, 0.48821573332748874, -0.13508773301729085, -0.07980392082423511, 0.049301419648944356, 0.9368751806371276, -0.5179906979421101, -0.67677260739699, -0.11146067080320751, 1.6299792018741082, -0.04230261494258705, 0.5158149855417867, -0.5639054764268827, 0.34341045716854746, -0.2573182565878953, -0.663519628643887, 0.6384788766015042, 0.3198761888892204, -0.08763869755073919, -0.884709735312152, 0.43260989167490266, 1.1317972887180525, -0.1458547709158197, 0.4369118602146592, 0.44097633312256734, 0.5813748478528068, 0.7762654051020654, 0.531642267518728, -0.2653376861101597, -0.012543265417027688, 0.6089014049426125, -0.04159751945206577, 0.5679414317490554, -0.8285965731372513, 0.10290352868435076, -0.05570520051402478, 0.1352445005848416, 0.017530452040343814, 0.26765554379155626, 0.7280872596870586, -0.07883869051530852, -0.11242120405567871, -1.2398890741592907, -0.5087293679877978, 0.08475235558630627, -0.017379646016956955, 0.3472932751262152, 0.045944340811413964, 0.6694263476280464, 1.4064057338486224, 0.4711860234160196, 1.4951673047839167, -0.7823062353539408, 0.3129406731643223, 0.38834015196384847, 1.1906260811570233, -0.8128768483518161, 0.06807056913669735, 0.5448254820466655, 0.2734887355490764, -0.48695471144583624, 0.7386401462378676, 0.07360756680563588, 0.08338396630643369, -0.35401223371491086, 0.2744254732144366, -0.13379269878398653, 0.08887010871268836, 0.7644468263796509, 0.7706482779890589, 0.07366008426808647, 0.4282825519652334, 0.6914564094072156, -0.3122134569023197, 0.26571811684440305, -0.5512887839579987, -0.4341380794883538, 1.5516253715768842, 0.8341830013419975, 0.13925794019495524, 0.7798938551812349, -0.3339619759002094, -0.5840486142929472, -0.385317659503247, 0.34925587284097265, 0.8907832085212476, 0.2360201891505802, -0.18532773216683848, -0.12571237188550957, -0.04404486567197684, -0.6072103551154702, -0.5069858291308162, 0.7429606578738448, -0.2947508402405472, -0.1252742451722454, -0.429185039154149, -0.392139651027502, -0.6520540110013768, 0.021200141711054044, -0.7271306366414864, 0.7377297968337744, -0.38582794020095024, 0.5867856105163821, 0.6800310939505074, 0.1875261660212283, 0.43792159222712246, 1.225082998543248, 0.6521199603462087, -0.5912870681339127, 0.3134633159839205, -0.28803832597781653, 0.7859153117789679, 0.013617357285671816, 0.585068492994627, 0.018409031894318445, -0.11206385992124807, -1.036469027988649, -0.14461560319128733, -0.22242503527579088, -0.8586943492136261, -0.04751625602818725, -0.627974043592928, 0.39599029651696505, -1.0868417038561093, 0.10141629437910768, -0.346239544392745, 0.12900044808643576, 0.8910728846224626, 0.307247934994781, -0.18291334416645147, -0.9916143886141995, -1.065772346081637, -0.35993671321734105, 0.2737845885779898, 0.2810233874076241, 0.13132440460084163, 1.2237765613840692, -0.23937156456154007, -0.6520296335677007, -0.2765987753195621, -1.0074852279410993, -0.39135569026738093, -0.7971817771486553, 0.6242147930330734, -1.120192157817049, -0.24550265894832157, -0.15432468768567964, 0.3350909114450735, -0.5078210730371147, 0.18870489581438524, -0.03913826672703364, 0.24410526006932043, 0.44318451689094795, -0.9552461165022691, -0.4407766639259159, 0.49577564931865886, 0.07337169396107816, 0.39279601871219105, 0.7512917659601374, 0.5325874262369086, -0.09354444531541328, 0.8598759245662133, 0.35666538629642885, -0.4431101095543228, 0.16171124105518203, 1.0472444031732675, 0.92032253146383, 0.0530975058502223, 0.18075682037659896, -0.6380820006730745, 0.1329174464794703, -0.06757288647976784, 0.1256808108592382, -0.11887990319386094, -0.44230121915617515, -0.23970759335335068, 0.05612394353572457, -0.2785384058339692, -0.6881173723250997, -0.03459298443277379, 0.9144703874736869, 1.2523943290518678, -0.7755249306537023, -0.4722205564920907, -1.5097170660759507, 0.24717246939704807, -0.8254418977651752, 0.5344473229531502, 0.6631427987122385, -1.1155662541248015, 0.5103671252854168, -0.4558060290853537, 0.37009624462918744, 0.13760969143151758, 0.12624193160284533, 0.8745253171679956, -1.3091727316535384, 0.10458706129422765, 0.12589822366610878, 0.17459799344009688, 0.3415710698528879, -0.9531175779491626, 0.631757890019795, -0.0540522465023032, 0.4414215239306824, 1.154822041170944, 0.5827848847869332, -0.37914506941089005, 0.013713279503300271, 0.5597401153318637, 0.7908905651904494, -0.12503064147584553, -0.704571092994686, -0.28501850457610695, -2.0929681840190306, -1.0459047491871283, 0.6369203648050106, -0.5292554292268074, -0.07121378431100303, 0.45614750779689, 0.07110235884370675, -0.30899807642996785, -0.7504584071103045, -0.6234715012220826, -0.12476141128144802, 0.5115066666965586, -0.04653811908022096, 0.18829775692844455, 0.35640645690942513, -0.5093701013607723, -0.2201417275515566, 0.7131790660528468, 0.7034042344287272, 0.1348677429697408, -0.060265557432120156, -0.1579775173407103, 0.7447225421245851, 0.5719838874830231, 0.837308511953462, 0.3070288787168413, 1.1807869154004762, -0.30594001323262754, 0.5211699684067469, -0.37441864734013947, -0.028953801150384605, -0.6637568089362913, -0.4206778055567631, -0.26278335750906784, 0.30620385168643155, -0.7940277950534804, -0.1133975364674765, -0.05268209611633588, 0.06945464122984016, 0.3801852592930991, 0.688451019140927, 0.5565658313745707, 0.5758215472850877, 0.45441706178217367, 0.12769286614192585, -0.41116905822972405, 0.3010291998841483, -0.6286833981939699, -0.23878465314961578, -0.5691752539918209, -1.3767998073545566, -0.3954097746140184, 0.008923491344483293, -0.6104340595052077, 0.040817690770124634, -0.23138138690335544, -0.3917906052331689, -0.40080964991165774, 0.3528868884728765, -0.7416359041371005, -0.8090301321977065, -0.3446921444497679, 0.6031792434021476, 0.6546064284456464, -0.054520789960086816, 0.2192969083287503, 0.7603290463131454, -0.026993968085836192, 1.0474057184423025, -0.19971439438219607, 1.099683375839499, -0.15074041432929644, -0.19611213078554218, 0.3027624212263331, -0.6323230523477257, -0.07318457806368281, -0.5705056532082251, 0.5873539684342808, 0.24749679998112928, -0.2093707968704479, -0.29368785218108595, -0.678053223159488, 0.05053816387855377, 1.0222620309939114, 0.18682219858839655, 0.525543460255615, -1.3285574302588619, 1.7798141528281728, 1.4620489901728757, 0.1224135916114781, -0.41317368767846757, 0.4778825256617816, 0.7057269020603233, 0.4539439711791627, -0.028004495120121778, -0.0016113527527625918, 0.30378504530230616, -1.0458512661659922, 0.8052294440849245, -0.5319530788365125, 0.41037918005078944, 1.0953364408988515, -0.647874637803709, 0.37912980484247266, -0.5978268753561176, -1.4801233656433341, -0.17491889029386987, 0.8067275740861286, -1.88027033706038, -0.5782858721615968, -0.5532182436382903, -0.3019218746275339, 0.636744299713893, -0.22388861692706413, -0.369283915793423, 0.20531675615529424, 0.16625443008311086, 0.3144509562427834, 0.4999347120385841, -0.9609879959096035, 0.381198610009687, -0.6262451159024336, -0.561471428947661, -0.9344721507022146, -0.042747872052387406, 0.19084243907204368, -0.7996792735173368, 0.26807214725192174, 0.20817559178007053, -0.13646102756376066, -0.2750871699323939, 0.37420141525832396, -0.5396544254407896, 1.1572135989602734, 0.6271321877179019, -0.33966632688761533, -0.1646917990239246, -0.3352512198751828, -0.03821961956507195, -0.905289379862808, 0.8082990774512633, 0.2862351662238913, 0.5332329067817485, -0.14622707287405898, -1.1914179590950886, -0.8452433154773368, 0.7950969862107189, -0.09853161894375459, 0.270730428910473, 0.07878200012390733, 0.4683361539617577, -0.13363456736242593, 0.7765475202682527, -0.5384841059665344, -1.8915538699009433, 0.39099447739261944, 0.09386038766563432, -1.0781187051965357, 0.2216217120786886, 0.14415464402176395, -0.24682541437051475, 0.20657112760016078, 0.48937776274934336, -0.7171265790622048, -0.39780246584300305, 0.04764571043584449, 0.017460737193465435, 0.06367523154456665, -0.28448156418896875, -0.4583189896594744, -0.30548898917981876, -0.6732525444566857, 0.6277240604136929, 0.6202491101813813, -0.8218646156048592, 0.0970036266640807, 0.09772028127770091, 0.5305224233009226, 0.9020252770403242, 0.37729151011942796, -0.11628638252756107, 0.7047421500222021, 0.8374622411008582, 0.802787535857968, -0.6268212019059038, -0.5402562364700927, -1.2334477502420824, 0.4755444131774615, 0.35784251747773216, -1.0080253845347389, 0.3830449903475057, -0.2132672471146519, 0.5045395650953494, -0.8207146249692325, 0.9322112770080033, -0.29804940083316067, -0.2071648345524512, -0.4959809865082222, 0.8399432861751385, 0.20798636991782155, -0.05717287188444306, -0.39670002413720884, -0.0749976565718118, 0.12836521149095148, -0.260977367715167, 0.14390500702805503, -0.08428906357895109, 0.43121032278020555, -1.3262479942605203, 0.75685095379768, -0.3164371089584009, -0.1383139378328662, 0.6209128341742045, 0.451521459557253, 0.9934659894444235, 0.29104967612450955, -0.20966105359675155, -0.7583800219064203, -0.7975518059605456, -1.0709852215110476, 0.5628776844951737, 0.40251301789232047, 0.22184246447968559, -0.7381583928698291, 0.45102345202042826, 0.20992642805598127, 1.3958599517280397, -0.9624584935675754, 0.24916191194930098, -0.7826581768983203, -0.9758399058149867, -0.6262549665356085, 0.13099925181203034, 0.43098071677579614, -0.3694812559786398, 0.4062811876401442, 0.4994870535794704, 0.32403241394538607, 0.1972450872412564, -0.1857052736921244, -0.6975625725001324, 0.055813770709093866, -1.7452837480316359, 0.6022715675921395, -0.0842728351886121, -1.2548545205840758, 0.5507130013179191, 0.5308030789692045, 0.311362400362994, -0.4014107142989056, 0.8625842350047382, 0.8221281210058557, -0.3127842614059163, -0.2581988320277397, 1.13029877952666, 0.02672582071268836, -0.43159709153260584, -0.7190597298326207, -0.3129232325599524, -0.8991845615016297, -0.4718757231760088, -0.3832377213032486, -0.4145486327639354, -0.5416434834891292, -0.5086621497329114, 0.08436543551448648, 0.7059093602544905, 0.4269895923473074, 0.028339365042968842, -0.43448454465686204, 0.1874709438753577, 1.580486022846959, 0.19705690927206235, -0.02870728038132319, 1.0501868671003975, 0.2550363114286551, -0.40457422761106565, 0.09174562642445167, 0.2933397464101978, -0.34858195119146235, -0.09586358518940671, -0.19783196419812837, 0.20951182143865066, -0.8206381262195364, 1.885500120957426, 0.27419421301126545, -0.8097463557508159, 0.9936833528361411, 0.15483713671577604, 0.18164077584912877, 0.24890030612565586, -0.5905458240255806, 0.8646552707818362, 0.06109954614701451, 0.06509266431839839, 0.06246366409734405, 0.550738488249011, 0.35504253424916893, -0.44585046821811786, -0.15166854213141054, 0.0048824595119561776, 0.21396286181702318, 0.5210400401143299, 1.2055874195928686, 1.3132248378222218, 0.4926416880481852, 0.1162197600172483, 0.7110404264394673, 0.5221890479012818, -0.36285776904547207, 0.17158349783739274, -0.4527492520353773, 0.3379526509247633, 0.35216440617234757, 0.2871517874854043, 0.35517701086719944, -1.2544915359701514, -0.3288256741614636, 0.41811871479430207, 0.5330895872804843, 0.3263199041757727, -0.1509432674640792, -0.5524193652160384, 0.5057026317246023, -0.5348449565161711, 0.17972922258035112, -0.36451536605916035, -1.1526146659838798, -0.6817237392333315, -0.27349786766311496, -0.03742970625497177, 0.4896657576659553, -0.5188695386797462, -0.9201780807206121, 0.12138058030998439, -0.050501981915787586, 0.19858821196477072, 0.22286681393513663, -0.5052985118550899, 0.0792036989747261, -1.3388085051876555, -0.34331846947833866, 0.5067907116453088, 1.0285769423689963, 0.4297031246757555, -0.5663629781902063, 0.10792242063533455, 0.1806055538261988, -0.14536138959396266, -0.10098641175560177, 0.8769870041686423, -0.817690864975018, -0.09460698569596422, 0.12731347062703838, -0.25324451634230266, -0.18399101248651623, -0.8339920597065842, 0.1522682052087634, 0.5598096400575936, -0.3836504778199773, 0.4258042074181322, 1.6561148206714142, 0.11505469696776399, 0.5838981625478256, -0.22630294367030263, 0.4225901364623307, 0.12051137193290389, 1.4406522662055246, -0.05732247531038079, 0.09604832039553546, 0.3453120510538529, -0.1688650300839889, 0.5639935882877587, -0.22728570123992659, -0.2525574085183033, 0.21609523987331708, -0.8501057977193514, 0.7885153550490599, 0.8069676872578918, -0.05470000875564163, -0.9408357548538528, -0.2577329866487027, 0.5134623960893382, -0.00625227012204152, 0.44136761586316686, -1.4432771531886166, -0.1740103204134505, 0.13087715090971047, -0.38069221695096866, -0.15981470147330118, -0.5934846405033258, -0.5756241823710628, 0.033515174274910076, -1.0656174296802683, 0.281739062440306, -2.085072850334547, -0.008232480780749563, 0.3510774282083675, 0.007020983973684721, -0.2580704243361057, -0.7957847711416034, 0.16168010409732697, -1.7584814525325472, 0.5495606698715823, -0.2576160508578795, 0.58639106294562, 0.04799819366633338, 0.29170692624210626, 0.589567519201265, -0.7975412135746645, 0.26126096556757467, -0.3069433736707129, -0.6569489951230469, 0.4054300812069413, 0.7239592428932582, 0.6665916591454146, 0.22067193988745992, -0.15811575243169057, 0.248336401639594, 0.04840458482177413, -0.08276594654517744, 1.4063447503270483, -0.6750624350156574, 0.7990674672335359, 0.5455725147371477, -0.7222880961062463, 0.5027644172542903, -0.27249880058242315, 0.3691952456588147, 0.12478333494278138, 0.8876450022148787, 0.3338031243757553, 0.5833490195555158, 1.1820436009978657, -0.6955174591564756, -0.13717242991804035, 0.26611883239446843, 0.033328958196716, 0.014553226813163685, 0.700610513131097, -0.11013576001691154, 0.4124424623250578, 0.006249592515014182, -0.44922824205299816, -0.21322891286639803, 0.27917317647884105, 0.2809330825113959, 0.3072694283833836, -0.5447860742293511, -0.18735028562702102, -0.48053016193502196, 0.25227699376022694, -0.7328560366353845, -0.05885793937872682, 0.25258612375751877, 0.36823063893387586, 0.33582981977285026, -0.3374330555992464, 0.12487522829164911, -0.3145711477885734, -0.08789572588603356, 1.033981878257359, -0.1253213468594963, 0.06989297510947831, 1.573206031552327, -0.018977620821854113, 0.27130082818347767, -1.321078909528452, -0.24012379978393517, 0.06240488173704503, -0.7953412300733969, -0.2167649413708805, 0.7886043699868367, -0.6357110210255025, 0.4880413043631921, -0.06801724984444549, -0.1969285721460613, -0.3674864127272671, -0.7266292923032136, 0.22289449901086658, -0.021655555280474373, 0.1489298862211839, -1.0704088266425729, 0.3720182215953942, -0.18422397206771698, -0.9421204034180943, -0.1522754081322768, -0.1701330362755014, -0.35291894843524396, -0.4332931212184299, -0.23596951100842983, -0.4254218006629147, 0.3994503257227882, 0.12718103918237472, 0.5553312740080999, -0.6805114753732335, 1.4652005309464944, 0.3440531551360137, -0.38943132737746083, 0.6569562678636593, 0.16211786019001184, -0.017719521497698634, 0.7449921076645885, -0.4067914722713899, -0.047002981451909676, 0.1290553717142386, 1.182096470453074, -0.2464637307174106, -0.8183677903079987, 0.858747144910941, 0.55630442802789, -0.1756110648944284, -0.5262763894542921, -0.12438817858347467, -0.1278677861761731, -0.5285565699640242, 0.7302280042573095, 0.025941565381078082, 0.06277757914725687, 0.7581766577157807, 1.4909057795318064, 1.1319303113530628, 1.1467246595151743, -0.2313159992346409, -0.7628860936275159, -0.22061380227818098, -0.19093383780578857, 1.293656799269825, -0.19531164487512181, -0.6212614056289754, 0.011914779234756694, -0.10520487376509588, -0.05257959020122539, -0.41030620744915125, 0.8482846447688636, -0.0015126650431270539, -0.06400055262401705, -0.5167705573396421, -0.7250421120794233, 0.34811099878353924, 0.9519041245161614, 0.7376442316003444, -0.848986557939251, 0.3334470352692924, -0.04974228455630854, 0.33083543716525554, 0.14738036522028025, 0.03597833705353819, -0.4033810621151325, -0.030382563798705565, -0.22736158875790768, -0.1917770854044479, 0.7616386834937343, 0.522920579887691, -0.32980503504039027, 0.6754433964822967, 0.17722830044790033, -0.46012892614712314, 1.5203624431920137, 0.3752311519002492, -0.7905806175242309, -0.37069817653381315, -0.32191936502726354, 0.13817183099570554, -0.1814423075922217, -0.551625481112826, -0.111046998861277, -0.30112667577595004, -0.2246941176717019, 0.36222527110473474, -0.6810586251559739, -0.7586003575907163, -1.1504755568371985, 0.11229379412173093, -0.038714447760648384, 0.28649211920137124, -0.4509738701954749, 1.0956824980689523, 0.18258421461988175, 0.8312703412999042, -0.13360986375090322, 1.6236940051424356, -0.03064256664625787, 0.15944582727622666, -0.26591439763249425, 0.47408516742167794, 0.4725819377561612, 0.26833829349137495, -0.030688523900021594, 0.09294351983713955, 0.5414850769417868, -0.11016330133910057, -0.024339716528658573, 0.5973826814681948, -0.46129578941127114, 0.4601282703344165, -0.16834741338662654, -0.5382057302957208, -0.5572027426038499, -0.21864459906178585, -0.13021738355940493, -0.4366957749219021, 0.39167228377232777, -0.4075343273278764, 0.2052486943126262, -0.3306380629533848, -0.6453991666791629, -0.049089628652187425, 1.225331763323915, 0.1171480001089765, -0.8626374805431567, -0.5153371856616444, 0.27355918510286537, 0.8943043634418664, 0.3967487619565329, 1.2195022821494133, 0.13333537841381427, -0.39187108960972244, 0.14822356651606303, 0.6396887239355274, -0.9568257998792602, -0.19677755293180443, 0.7002215352069813, 0.6519190223793251, 0.9592323641506385, -0.5340810647899855, 0.7830751827829041, 0.4605053422221219, -0.5277833256393556, 0.125561577669855, 0.19738272442336874, -0.3316013802053388, 0.19412987594205688, 0.09179717544426114, -0.4172198744289183, 0.09166023031491817, 0.6713587729504499, 0.12355217900326473, -0.060201704265592015, -0.6891854416996014, -0.05606792298499562, -0.2756002768574937, 0.19402965071511738, -0.5829549016710991, -0.004669724004126574, -0.32421369315000526, -0.5827049834590641, 0.09197758630281377, 0.33651053872004694, 0.7388972272396139, -0.3133815512257407, -0.15959380107880708, -0.31980746316203446, 0.32262893698947903, -0.05628616049619324, -1.134537654678531, -1.2414582386312252, 0.24373770441945936, 0.3290340257662906, 0.8140997875061293, -0.038620808052275336, 0.4332135634984044, 1.0189055001611351, 0.21145162733505743, -0.9527607242766245, 0.2182211049075224, -0.812856298913427, 0.6091777426375057, -0.1166798686400454, 0.6458634150062441, -0.20992374163686894, -0.20496837947600466, 1.4701949603687199, 0.048868537280223, 0.389079442285066, -0.8005671342803491, -0.5124570932528721, 0.30575034274971813, -0.6225420698524424, -0.14213653812566565, 0.5241629550369693, 0.27040181309772265, 0.14264488852004648, 0.24119541024968244, 0.48255639947592266, 1.0494120538539846, -0.4646214043080766, 0.39983661825430195, -0.5344342687637389, -0.6323971882709323, -0.9038839105291724, -0.9906455925604775, 0.7622424107026753, 0.19408327119527014, 0.14570000927477317, -0.6514531680374277, 0.37262864569727255, 0.46900644850597295, -0.7273416281753384, -0.383906518999152, -0.08406066244919774, 0.4160560164315203, -0.3450603349256848, -0.20169431112527228, -0.4541676508708264, -0.09602692307384308, 0.1143319050925692, 0.37785860425142365, 0.12329118502618228, -0.710193295737324, -0.6367901571658038, -0.6935737118875174, -0.21876726636791632, 0.7961405013577828, 1.5314605763950517, 0.008636339527558077, -0.5118971445087355, 0.5982244107686226, -0.4796929081133884, -0.3961764211735563, 0.013120717463005024, -0.055827233132144105, -0.49556020132090356, 0.4210264867892649, 0.2771365250502278, 0.21241493164867342, -0.23576969136450104, -0.04152188080685968, 0.49818976832571243, 0.6101340398343811, -0.1778044986793041, 0.838021805024817, 0.8942983452390821, -0.43771004039645484, 0.32666623414552476, 0.23300672091460575, -0.297246915964067, 0.06490778264575973, 0.9622219123418229, -0.017620675726173603, 0.8741734223162957, 0.07405819597289356, -0.1548073063077685, 0.30974070375208146, -0.06462768610472025, -0.4548356093933141, -0.021290207003825376, -0.20900835586036678, -0.1283200567265736, -0.14775535754178676, 0.3413287107090653, 0.2017367402596185, 0.3315284524592988, 0.674144913144215, 0.042264018929636216, -0.5437455899523596, 0.3634465219363461, -0.007439926297858113, -0.4917005588870171, 0.14308450494273706, -0.675107987628951, 0.9094539116012933, -0.03467440330821264, 0.2929717696985635, 0.6070541737006924, -0.844971634187548, 0.6021549379850899, 0.27259143168781896, -0.08169708422338182, 0.16401127374377003, -0.42832467327038676, -0.8898597443764136, 1.4642945442833555, -0.17378584644182174, 0.2197227833202576, -0.4208093259008011, 0.5671964998548997, -0.7395406438218842, 0.468216173706437, 0.17113150101885183, -0.10314323951523996, -0.44957911300824877, -0.3546303263516426, -0.34046563065890256, 1.4189409773852923, -0.2984180247020085, -0.49370462350116645, -0.6527867816511581, -1.0476072312687634, -0.07976355428293769, 0.1138950414035969, 0.12831531354322806, 0.050470332477933366, 0.9373442708916193, -1.3984052968793892, 0.2615282422934958, 0.2939460148823533, -0.20215693717811883, 0.26759670539346303, 1.3569559567817064, -0.3555680985934358, 0.39371178456259787, 0.4499788265955297, -0.7355338555877263, 0.2377805645001916, -0.1452152851385033, 0.16876107818522107, 0.3028690461059062, 0.1536201222132487, -0.057343826817782495, 0.1710913995067734, -0.4358318271288312, 0.9826289062573421, -0.18227015808882077, 0.7512734204792583, 0.9389430616506964, -0.842197510354094, -0.8282678908674174, 1.0293097504849735, -0.1011066081260602, -0.5456112448903669, 0.4406573556492118, 0.7329596736589269, -0.522355293095406, 0.618840593427613, -0.5149703310148217, -0.4611735619077144, 1.7786050672876041, 0.17585074025792313, 0.07445288906946673, 0.04305263026082288, -0.042872131138417764, 0.23044535547667894, 0.06805376900436944, 0.24221404080888548, -0.7497895431217915, -0.01429528356412317, -0.003952279071796062, 0.7646686844198567, 0.393837887955838, -0.00024127047488941775, 0.2789812914588797, -0.753931590230871, 0.2361282101375083, -1.7662952329030874, 0.049892572856081896, -0.4401331399930452, -0.474593333082277, -0.6328735576040752, -0.9614404583118407, -1.011354599913327, 0.6671049929149997, -0.9124401952471982, -0.2665266869755861, -0.07227475338945336, -0.5873097039236912, -0.70421833783381, -0.25568845004977414, 1.017285299025457, -1.5097756002111928, -0.19384126055896747, -1.4113335254312467, 0.19286735706895994, 0.07706279514535493, 0.6914508794271785, -0.0893231388478801, -1.0761723174931934, 0.5817185104663455, 0.44412292294922295, 0.19797294326649836, 0.15319835767769138, -1.4624630613160823, 0.577602402035087, 0.4303867312388822, -0.18663516194268948, -0.4314091984252399, -0.34001231449874236, 0.476588114856135, -0.04517046020463992, -0.3427677006359022, 0.3069120010136478, -0.29565541241790644, 0.7764755137636814, -0.7413461241147573, 0.25350464809857076, 0.4219501408752081, -1.0452497265142298, -0.4624210596209249, 0.650660459108461, -0.17189227393941156, 1.1236876836774679, 0.09587569098443216, -0.04276382322003528, 0.6766989031543627, 0.040128060071668956, -0.4348333972248277, 0.04966022421726297, 0.08827015683488616, -0.13815341664656988, 0.22548810994852111, -0.08810694429837629, -0.4751934740825182, -0.18108131324688134, 0.22918211055114424, -0.04239193681394855, -0.4089682350022051, -0.27699201872897317, -0.10086595658888126, 0.1726426069104453, 0.15787446619763743, 0.3216748376798492, -0.183271868618564, 0.31326792290383376, 0.3939643146760065, -0.026252313855363592, 0.1531543783934653, -0.3880427019087169, 0.5720114046793977, -0.021376996711468976, 0.6617119823689026, -0.06836931784366114, 0.1568673416104242, 0.7778026688991035, 0.495713382085375, 0.16061404174987504, 0.10224873781188713, 0.7355848274346894, -0.05404147074729325, 1.3251739386844834, -0.3834403267573899, -0.003524163565948951, 0.5080414674495486, -0.3348039340569122, -0.01799393127064358, 1.4445818276586433, 0.13014687933245897, -0.49061003639653744, -0.5110224342656504, 0.5607993937852923, -0.29540389799363287, 0.6466339948960773, 0.12889792002439412, -0.34907828788569206, 0.7121732913994729, -0.8159600145040903, 0.451738087970395, -0.6710689680176203, 0.49323817430510924, -0.4373277354958131, 1.27151004649925, 0.26565892184342577, -0.19199088034002018, -1.075424657290276, 1.1366266733513997, -0.8523278142503181, -0.12535198135123027, 0.12228973351342243, 0.6897599798117873, 0.9032836165309114, -0.3034374944479781, -0.2998871619069511, 1.0693645718792852, 0.4516711843763269, -1.0214195088332936, -0.3666488865547347, 0.26049139221670925, -0.30185779296145526, 0.030408114553228387, 0.6959165344917672, -0.031177192010863265, 0.5956146715313886, -0.2516966454828621, 0.4564653713998267, -0.30588953708935257, 0.49924810267851644, 0.6851299997863679, 0.04335171128990721, 1.332262974987452, 0.3599220115470598, -1.924671466133027, -0.22402145298131346, 0.6953000708979992, -0.08638406323834091, -0.3469357835551171, -0.13147607899640526, -0.04665496731146532, -0.38663928834513783, -0.08701104457207955, 1.46170852453197, 0.3279428505171998, 0.054945451601562965, 0.6156983634894331, -0.9272757430359103, 0.9120680274137979, 1.0928853048639224, 0.25880703399881744, 0.7563108157248857, 0.027996128307671425, 0.16542498522123303, 0.9560974852590071, 0.2368741280602018, -0.34380601401395816, 0.5548222195850201, -0.6275973536025921, 0.6052602376577777, -0.48078869729505225, -0.3861022192629686, -0.5096699510913093, -0.15747108804929727, 2.5154923221435315, -0.3292064472079866, 0.17815926102191126, 0.08985814701786451, -0.08924568926851692, -0.5609600214225783, -0.043084401125157684, -0.025212509396851428, 0.5950188018544734, 1.6322074108630305, -0.12403022397546665, 0.7507644037808784, -0.05771720567235039, -0.5920415801586814, -0.6710816546512987, 0.76747463976733, -0.4027076869139368, -0.3283186930252866, -1.1154882738804315, -0.46429496454176344, 0.7340007197826551, 0.10328242442280412, -0.08700940768769817, -0.7011477842398637, 0.631401450652259, -0.7603861766549005, 0.6929585774224577, -1.1346524707926158, -0.9032086803905811, -0.9499326259366804, 0.1582900516629906, 0.45549740653126014, -0.3362789701843881, 0.0849232362088276, 0.4751453514788938, -0.7667895506142015, 0.26008080406585, 0.12810093081213567, -1.0817642960887324, -0.28329377074946616, -0.9895553613260095, 0.03749035681650876, 0.6236109369469538, -0.22803086943183964, 0.3964787147655646, -0.41568440615424374, -0.1704201704260862, 0.43116880069064156, 0.14376323837118307, 0.17714579890129714, -0.38910081240983957, -0.22237570536606774, 0.3076115780453078, -0.7891352271163623, -0.6206206951598954, -0.9767531878693329, -0.4148842473067147, 0.11994780210046319, -0.5472536669088925, 0.19254950563412093, -0.524438390255247, 0.4675597040087061, 0.27528281555293466, 0.27936492369858923, 0.1908699265725646, 0.4618845415588021, -0.0537969673415081, -1.0986453339798925, -0.9575155824951872, 0.5923014170167064, -0.2931289322040442, 0.002773910596577148, -0.8124802275526046, 0.3796347651975835, 0.11808784896493169, -1.2118093972077486, 0.0867277921366303, -0.37448691476425394, 0.11735990894414437, 1.4740224132217143, 0.11771516130587369, 0.01582986720115471, 0.10352360344554787, -0.4260494276039073, 0.22987662272949191, -0.010322460233109162, 0.07744785571992474, 0.027933615836790313, 1.0754100958980675, -0.9792786295874338, -0.47244501078889467, -0.31176785250608874, -0.7092779450109565, 0.38301324625306366, -0.37664012769452837, -0.4368671117126257, 0.4844237324890347, 0.6357289223207775, -0.02517125293532357, -0.4201948950325444, -0.44656390123469264, -0.8912918994519453, 0.21852438962297513, -0.4459428283849674, 0.7003405789680721, 0.3891155789344567, 0.3688946259578771, 0.5254478656373682, 0.07179782439517617, 0.9078325508509837, -0.35853576181930985, -0.42294187880915957, 0.2913929080094692, -0.04788172036849406, -0.475823981683581, -1.1844684505242413, 0.31408394494268244, -1.210004067763084, 0.7401314199892847, -1.2219759554345055, -0.8116463132173185, 0.4622062204237156, 1.270613221756149, -0.3806730017237724, 0.5442223682863538, 0.2186713219994144, -1.558842260835407, 0.21178942487823132, -0.9702087527354456, -1.114296502585753, 0.39470815327796815, 1.1625597033099746, -0.09143312989653508, 0.12972413248897632, 0.5792355352166657, -0.7960906782988992, 0.9422855663226072, -0.11448762112432957, 2.122103450507538, -0.24204305158889752, 0.2436669759326974, -0.5202008525523905, 0.703871254944874, -0.293506800452923, -0.49699920883978965, 0.5396514118721841, -0.7278922723324471, -0.7504908264580707, 0.21714893895212017, 0.6547313448212521, 0.365304328795699, -0.3412032383951775, 1.3242912145196932, 1.4246127949016816, 1.1605046033854438, -0.2644924704862165, -1.1688672177778314, -0.24374959321354372, -0.01864743513753822, -0.236909229309109, 0.15559186962206706, 0.7091645114457096, -0.46340581665100106, -0.6533727162494445, 0.8212517065619472, 0.17571280261568842, -0.708413761365214, -0.3172291196662986, 0.22079028944738285, -0.9365273514440798, -0.14392224855188301, 0.5767393014475003, -0.37986594122347006, 0.6177317348694428, 0.8143217572836692, 0.026494785969752643, -1.4840144686892824, -0.4054493991852429, 0.22312561445881962, 2.1761334026829204, 0.49152963693591956, 0.7268483767447512, -0.08290820879473515, 1.220029796872105, 0.4961739437006243, -0.06080839681323341, -0.49909030277596916, -0.21785099198001265, 0.3557120772348745, -0.48034209194983946, -0.0569643262349641, -0.43379484528609186, -0.38454458623171905, -0.6239695198439424, -0.432414557038976, 0.6404149803132329, -0.33538057627104595, -0.08829622449724404, 0.11098622739130692, 0.07062826215202275, 0.29692570505825105, 0.039218431349095466, 0.11585965755457472, 0.6803191352213105, 0.2598743777739629, 0.42289073450321185, 0.036287572272298625, -0.2354928252830334, 0.07676335204009178, 1.4148896816621963, -0.6591198625304616, 0.18358065008940735, 0.03430666818733559, 0.7324252545883613, -1.2576735289313095, 0.4487000937082889, -0.7274026539652587, 0.3586407024039295, 0.36097055757420626, -1.0062863689239987, 0.12503469500926023, 0.6413169006808622, -0.8024095265856992, -0.7453798309229092, -1.0578268576901924, -0.6760566817749154, 1.3494166072339984, -0.5087300886675239, -0.4298206136921119, -0.16892348087447537, 0.1682713943479543, -0.378127688651818, -1.2027495512005102, -0.6318579881822588, -0.41994677795592317, -0.3001666039957092, -0.7296653964984623, 0.445761508184537, 0.9505454138516615, -1.2934774629250274, 0.24935733682818784, -0.3026582989812673, 0.7471079044332307, -0.9733099231490707, 0.35326286790423805, -0.13989944117584519, -0.7930018169360287, 0.9287313721928728, 0.6396009158630214, 0.4468173006706159, 0.9720846927220196, 0.20590901346552026, 0.22916914495949553, -0.8474822004316478, -0.512060738076384, 0.01837147277936424, -0.3554293521829939, -0.3066830789902276, -0.38006746909010164, -0.8560052999896361, 0.001115098877218012, -0.09590687701074595, -0.603738588293788, 0.2898086791040828, -0.021565945360138918, -0.13255336725354389, -0.13325167060716694, -1.4975107155451097, 0.6158201098126235, 0.6263087783810023, -0.9698291006459807, 0.6106552332051121, 1.5182558672123623, -0.6010733576012753, -0.03662411071755997, 0.5366855752843229, 0.5527607523845084, -0.5684205663073225, -0.0222362883324939, 0.3144402664816026, 0.08939141639513329, -0.4225690954801961, 0.6730982616811516, -0.2914429403127045, 0.7092291615051172, -0.95208189946664, -0.8443069103629739, 0.10415953185712204, 0.6438124838774434, -0.06273125601641623, -0.18664235189952194, -0.14073101772383828, 0.2587010418909051, -0.5029930034603664, 0.5482437905852312, -1.6389573111210858, -0.012861665719522436, 0.6199883060198907, 0.7968859695767915, -1.130779290134379, -0.5654799745701011, -0.5248162798380133, 0.07607963400898156, 0.14171005101413156, -0.08715391137452672, -0.42723970467309946, 0.8726046401149299, 0.14921294029014318, -0.3321974710689796, -0.8657510584754855, 0.8067527802858674, 0.5339422700202539, -0.8034357647558517, 0.720128114044609, 0.30376117054648233, -1.0358381315416834, 0.5246037367185381, 0.751609519715176, 0.6207531624849657, 0.4624285174446909, -0.0649646412325007, 0.265429557366362, 0.4150180017152389, -0.8304392524486788, 0.30795583678633687, -0.2771033626757937, 0.05828380260594261, 1.2742199810665866, 0.2163062391066533, 0.09692569669886926, -0.3223859740523872, 0.2775127804539885, -0.37280812389960344, -0.5650066494736987, 0.46280817001322877, -0.2393993394730783, -0.2017140991368161, 0.8478693366035703, 1.0540268027737596, -0.1445175146628894, -0.25904743879916875, -0.5590493367404727, 0.002023426816996028, -0.13844783393345042, 0.5063338874961708, -0.7708192449056464, -0.14762973463498774, -0.11106504000541736, -1.1206828636485573, 0.567461594305402, -0.22764895499501953, 1.2105381481764308, 0.13368939932778895, -0.5386874306041343, -0.6902119669830464, 0.13964709465766142, -0.273306221103201, 1.2405112907419742, -0.04297040805168485, -0.21844597253335532, -0.1467226266472485, 0.04167017191757135, 1.0752085957348962, -0.6514953735746605, 0.4222880008148934, 0.36550627966036076, 0.27410898083111834, -0.006237393574775908, -0.04475484256149592, -0.9492085263852313, 0.9004648534179944, -0.4505233485628185, -0.1685612479680823, -0.1882962870174483, -0.21394759978688604, -0.9057048090237088, 0.015374452202336897, 0.30997087582653876, 0.17929708159418303, -0.057253873936204305, 0.030731712149228887, 0.303125018856384, -0.3578309191840693, 0.32044025849893787, -0.3347811922078531, 0.04691294319914821, 0.5084971498785542, -0.4380202012973478, 0.4816915613356442, -0.9335115571732427, -0.2691513097991888, -0.24084957234659976, 0.5332531057475358, 1.0838702104366833, -1.0903819297489292, -0.04631255112986521, -0.17890604313936787, -0.2858699040833941, 0.07554531102507017, -0.5231691588460359, 0.9078436366344745, 0.009618239643018018, -0.16034752930962282, -0.44457811089369287, 0.043574783446734655, -0.02885339906619335, 0.6109344626258192, 1.3092591945381846, -0.09167414958752372, 0.8488618442035538, 0.15145488836518387, 0.2800170634571288, 0.8273182188302413, -0.0514828820205, 0.3203139521840916, -0.7564758393298504, -0.5968378207568332, 0.19427611591472876, -0.4099587908148946, 0.2582504974130605, -0.26444295647759863, 0.21081628822131132, -0.675896886402282, 0.7618677492526575, -0.4146311793119769, -0.09442712206462814, -0.2952911354186246, 0.26184636052776655, -0.9272925067294715, 1.0926554939255753, -0.8759196220865937, 0.035575511057662546, 0.41774468603992515, -0.24885663912769404, -0.38666211690465313, 0.2562108454396112, 0.1881868553596559, -0.4191661753232336, 0.4599870372684868, 0.20839557902254996, -1.0651171080924366, 0.44801249295923223, -0.7232594348799475, 0.4914668961820122, 0.21680063849371328, -1.0249152950410911, 0.3729652201100883, -0.06430703135807558, -0.6040107469767193, 0.40265550746015905, -0.4517348922762233, -1.4036982436770788, -0.5632579934335993, 0.8440094589039215, 0.26169050330225946, 0.4423599015981622, 0.3295441271170831, -0.19425481811716883, 1.2412077585351693, 0.6686091752730253, -0.3114817695988792, -0.552522958315145, -0.4154587138055167, 0.33362494693832273, 0.4158970226858685, -0.13736764249259684, 0.16175804699654042, -0.004273298021369073, -0.02098969451117582, 0.19310458079818285, -0.06482902705575208, 0.19112869229210339, 0.08356955495230015, 0.6048632144777534, -0.03649061877969141, 1.228746082064141, 1.285461001213101, 0.6041346915912029, 0.9755778135881555, -0.3788136500503282, -0.313680638046151, -0.11970780171496291, 1.223030212144808, -0.20016057084000732, 0.3700493150103824, -0.4266228190870537, 0.9066009258319332, 0.0023707578488332826, -0.392675383519117, 0.11902478533868677, 0.4877803249626521, 0.4151806186259844, 1.0092217605323517, -0.030476502637002162, -0.6560445034926206, -0.4357716754543649, 0.6404629766631498, -0.09664151577155342, 0.17063056225740297, 0.9529948484108132, -1.2604238988033987, -1.2193579070723761, 0.5147931566011479, -0.1553741229856863, -0.004966732724142511, 0.20567948420019466, 4.417614814367782e-05, 0.8561520745248815, 0.3520865626679851, -0.006080596166629176, 0.5306178302585898, 0.01235063805680283, -0.2588228586946022, -0.19557872408983787, -0.15161949661257465, -0.8356171744732758, -0.4376770039792601, 1.5650190835245368, 0.07723751823889446, 0.709248009519241, 0.6992061966163412, -0.0066016553914295464, -0.6490340618572149, 0.1439675437259853, 0.2630577145170732, 0.01962163728941161, -0.25077641613346885, 0.15766399082795815, 0.45648489120540797, -0.1617482049117347, -0.5646840536346482, -0.1581006964500004, -0.49714136117762164, -0.7317330334532286, 0.1720840204585468, -0.29754261445092733, 1.2946746275808794, 0.7655195824564442, -0.03777066382278428, -1.2293523646291624, -0.39067712914248565, -0.31622681040654704, 0.23885608687496368, 0.5001209498285839, 0.6775340493006664, -0.6714738615767814, -0.15289035271509335, -1.3287801763618257, -0.2019371370986512, -0.8365905759311144, -0.5610354162107752, 0.403447415427057, 1.0349403048613972, 0.34049529321311767, -1.1262719916632125, 0.769065012631888, -1.7685613522898544, 0.16130027680334486, 0.44670461943014617, -0.2210992785295151, 0.8537782855869246, -0.8832434141356276, -0.6220671126760129, 0.41437593832466557, -1.1543382396138298, 0.8211078377601133, -1.5710418707480767, -0.547013452064372, -1.8814530701525682, 1.1993427483533035, 0.22627315741931253, 0.3538119900013846, 0.6420305099802761, 0.3977528360761291, -0.6120449502914331, -0.21863871693047449, 1.0023603102728804, -0.6790201521432593, 0.5408981918732608, -0.46409683480404407, -0.6548456305834752, -0.9300806390341565, -0.7581141255643333, 0.5238822954077614, 0.09796638960648563, -0.519670180050609, -0.19382973257761638, -0.3898567987261668, -0.19237500283023193, 0.04357836113414863, 0.05539735874306061, -0.3934721635618398, 0.997351355531278, 0.39631132986303635, 0.5028617040235722, -0.04379016825275048, 1.1166078605703196, 0.5341833382619667, -0.4743042609526451, 1.507441458614635, -0.469868134585946, 0.46891878447026397, -0.6078488542237122, 0.0001648435264356785, -1.1786224837039567, 0.44685156245679303, -0.15177591738862548, -0.6641344688381109, -0.2441667535073103, -0.4575327663004718, -0.08302922303134669, 0.2919650041546015, 0.19818900135108686, 0.45804135654818506, 0.7332466425657891, -0.10078545025617108, -0.9673037013814079, 0.6487334219187881, 0.05278044431056834, -0.40700002901553345, -0.39190929998536617, 0.2943118376277731, -0.4439016732062089, -0.11014324531940521, 0.1579353058685367, 0.9580756090648375, 0.8041968683236369, 0.14176436366237827, 1.325090209275793, 0.1429533532883944, -0.3252282203334977, 0.096077932833432, 0.19473937541652359, 0.12400008378109711, 0.22406762526897184, 0.8787378722188903, -0.7428918565887743, -0.007395153952606667, 0.9937141519226526, -0.17259527399100094, -0.15796203118588842, -0.22844001134674707, -0.10812044056053792, 0.6397324638685852, -0.1180006239184705, 0.6469547507918538, -0.24900973989544456, -0.20685543813234428, 0.607260866774712, 1.1006290979186544, 0.17881596326209284, -0.042368373781278425, -0.5142276926103535, 0.26529329740251617, -0.7684860977243132, 0.5162403520449685, 0.06655890817632824, 0.20120724956695768, 0.5059701633069968, -0.9033808358900484, -0.25136371796481205, -0.12368574988679362, 0.28723208565014396, -0.6588657137225494, -0.3311454853041985, 0.7895039048267664, 0.03291985964829261, 0.05949645988734677, 0.24898563139576685, -0.009562540725122151, 0.6527315358155468, 0.4092778502062834, 0.20091309654611364, -0.5583498002473398, -0.3608222279902268, -0.1677663221294365, 0.05588143131557214, -0.06761692002112862, -0.20946647543018898, -0.4828541656587838, 0.6409549131953431, 0.2536017402925164, 1.00343349926228, -0.29050442658777587, -0.27077492867255115, -0.9439583114852413, 0.5891067002362105, -0.13682674354355395, 0.1023875749273405, -0.05798409875224631, 0.38018882823750166, 0.4609949620806067, 0.4213619407721225, 0.2338296070790598, 0.5511050064425341, 0.31479937153066406, 0.07782494078720416, 0.5138709871921516, -0.23433710125427742, -0.10097774825492636, -0.288844190025499, -1.2788442740150308, 0.06300369214724538, -0.14248555164323845, -0.4928065875359632, -0.9185982577000764, -0.44051891412106214, -0.6223395303369823, 0.2014921624746044, -0.7177084805101375, 0.29313594913044566, 1.1506425715568622, -0.8149264873199524, 0.3237743026761818, 1.2454243535465848, -0.2321212213425564, -0.23524938711873977, 0.3057175894582407, -0.07037224914574365, 0.0550055042056425, 0.5003591705187106, -0.4698278293066229, 0.25592161678099434, -0.05037912039067457, -0.39603228169300897, 1.263032778985936, 0.00891314796528923, 0.5192342424329712, -0.3458510419943799, -0.10105953647019102, 0.10730312814997503, 0.5639168285500666, -0.06802749431817505, -0.371208307028639, 0.42621198988698583, -0.7400766723634576, 0.3886608512476577, 0.2842768528755374, -1.0053454350019535, -0.10076631504004796, -0.30659175780884906, -0.26732918617314, -0.31851318437787873, 