{"arch": {"num_layers": 1, "neurons": [39, 56, 66, 166], "acts": [0, 0, 2, 2]}, "weights": [-0.2569644552086174, -0.7977030117564661, -0.44415651089897584, 0.2841960156045973, 0.17887708809056888, 0.5684197206441408, -1.6394446910616578, -0.12266820494136901, -0.2314459054682857, 0.6227395038918501, -0.9018580398756818, -0.5917507714990842, 0.1827092290444068, -0.2896506264500939, -1.142347144976082, 0.7913706574838064, 0.23076456993400565, 1.6306557999384323, -0.4256689993736432, 0.47224083937426115, 0.1258983581338109, 0.28534513733537925, 1.3835515497253255, -0.33480447862541285, -0.9035732889543693, -0.9115091244070161, -0.23310974091770487, 0.7402609009146733, -0.3517214285829692, -0.7984828379169253, 0.27497674500320707, 0.6315736108872141, 0.13376351785549956, 0.5289019065797217, -0.6463396525085235, 0.33619457709394707, 0.7685502307573379, 0.36567221616908235, -0.12263823841420267, 0.0858294596063129, 0.3872401184108726, -0.8761638660602362, -1.017677442285073, -0.35655034786520207, 0.04155400670708021, 0.45266849350420457, 0.1521950916188089, -0.18991913042366448, -0.02094525589679539, -0.2200335461611088, -0.26634237841310116, -0.3950927671474527, 0.29557007319236794, -0.1338560342640079, 0.30598501389752364, 0.07476259925890777, -0.13398582939335707, 0.09182025239590694, -0.049541751325607584, 0.3818732460942302, -1.0758894157520582, -0.31926984702567573, 0.05454293292538299, 0.2727308446111296, 0.7645379919711703, -0.5434631337417336, -0.09014361204963742, 0.6001763314251349, -0.19473097588101068, -0.5472365725600411, 0.5642587430630454, 0.1140706375274508, -0.6768595537503755, 0.7899465573538089, 1.2534757235692702, -0.777185827822684, 0.713169536920523, 0.33569208179669663, -0.40396808673363255, -0.36426234855946227, 0.17484027871815105, 0.2915187553894864, 0.5191129429785821, -0.20681579177799014, 0.03555593942888527, 0.6485510771193195, 0.5401622339943488, 0.379338372604393, 0.7981008283055003, 0.8766170089479555, 0.3309479124712605, 0.3152256860882951, 0.18179019058895024, 0.4702675669039908, -0.07695504005271371, -0.0025001760858875607, -0.8817467064047546, -0.8743928294267805, 0.13679126399725233, 0.404561838318374, -0.22575489537668209, 0.5143843362414433, 0.35972376760141783, -0.458150709632844, -0.43037767265989846, 0.8320793673229067, 0.4230416660977615, -0.056044772425346945, 1.459766873918886, -1.1955730755059908, 0.2699392941150108, 1.1186518318452816, -0.39602569571223967, 0.056437119423062926, 0.3294402157429397, 0.789042937198172, -0.7078825627805639, 0.6368423749476644, 0.3620271687622182, 0.4219649785383047, 0.35861362918491224, 0.19065268353243175, -0.36749586958309277, -0.05634358295203891, 0.46644870094757573, 0.26366660882996096, 1.5493490834165862, -0.6254679499564331, -0.010809349627638423, -1.1208077876748226, -0.8116854192635182, 0.033002511416292284, 0.664122286635843, 1.0427607290484089, 0.5818565283637271, 0.2509829640589413, -0.6838071517617657, -0.5841742396921646, 0.9434966643103014, 0.37832411991871584, 1.1842004663216037, -0.6357256938584797, 0.18191806925182108, 0.37393390266693616, 0.49619877998188316, -1.3623386227331256, -0.5042881054570324, 0.6957574637746033, -0.01966599332493621, 0.510045592180037, -0.5421003582741044, 0.5546350567024732, -0.5748374572911706, 0.535423537175223, -1.0774216752858305, -0.08315453206697136, 1.1207616429307534, 0.09895309813095303, -1.2335518850223353, 0.4203560359743783, 0.4170683478431235, -0.0270135794359015, 0.3987724062891964, -0.41226399211247894, -0.2857886048844631, 0.13022700045946858, -0.16840456466343523, 0.020934468691943132, 0.6115382529875386, -0.9301977210564061, -0.17379275012615608, -0.2997879706442519, 0.3895285698689453, -0.16369258970960068, 0.2579351402886473, -0.28351821904913554, 0.6101617745267796, -0.12340318007370767, 0.0038657463665154115, 0.5793705479743341, -0.1268484727641472, 0.082889230939272, -0.4679959544210377, -0.3131320714120137, 0.2999598343323511, -0.5940018692674799, 0.3891978521770479, 0.041461729451100986, 0.5332439738337352, -1.2056669970038714, 1.244806522760539, -0.5214279037462699, 0.8902470742549266, -1.8162776285775848, -0.06498088505629862, -0.11598571902058052, 0.8272204678132122, -0.37737136517953884, -1.1840991363771034, -0.21113160642270745, 0.07597279581949477, -0.06036261219373026, 0.7619033501045265, -0.05609993199072821, 1.0247365809939954, 0.015809412722418138, -0.560403579790576, 0.3913826468846987, 0.2843658493767251, -0.029976418340866673, 0.7108822381742071, 0.019092516347007385, -1.3875341118819258, -0.16186568400832302, -1.119657804710814, 0.9642095237636618, 0.22403121151103683, -0.13508408635132638, -0.18958126368824715, 0.7762911964955514, -0.18982183914090436, -0.7293652391879104, 0.18168885898353626, -1.0156828533747104, -0.5746147182075696, 1.103532536368222, -0.4171382820232187, -0.26062949180241723, 0.2680276306680093, 0.02355241429888047, 0.4625405631317445, 0.06979740057226198, -0.7860692074415745, 0.7238854027163407, -0.22747130227551818, 0.07278354138166432, 0.16101934649977503, -0.4464342686926308, -0.5157815052724584, 0.07228453956813594, 0.12379403906126475, 0.4360053546870668, -0.15621576653903718, 0.10229897554358064, -0.36360814018983795, 0.4832004596542722, -0.10888018645467067, -0.17909247242841037, 0.034522940724750165, 0.020340757277045367, -0.010465790756330874, -0.6057651023866977, -0.15393743405102603, -0.3193475865745504, -0.35859020652931256, 0.4476025716556225, -1.3773313894232369, -0.11621800148533179, -0.01867660015011964, 0.07127354248759146, 0.6383883584065363, -0.5354199504478554, 0.5542793325799673, 1.3663523297911495, -0.05543323826030816, 0.6108761501726273, -0.43735699769541875, 0.18297087662404737, -0.11622927871074973, 0.06521968651269396, -0.8485993236922711, -0.7899464934652944, -0.13989636193911897, -0.24809744397952072, 0.29840307740606975, -0.4554617897566238, 0.6884696479600811, 0.8159915841722342, -0.6927073689481751, -0.6366558915283711, 0.13710067570896686, -0.5709821027090289, 0.06982110487393747, -0.11892508168673308, -0.7709888883826506, 0.10813803580548759, 0.7745674827487823, -0.06275982661169369, -0.1757405672374875, -0.20985823928479747, 0.1457355789925598, 0.5292769981705407, 0.21320377264067908, -0.017759903491582643, -0.40076952294800483, 0.07046407331614561, 1.2049942318899984, -0.38754234057280257, 0.30563728254002065, -0.5121990486110166, -0.3741700604941877, -0.04779805522706218, 0.7872016027996829, -0.09999308128785277, 0.3158718498688977, 0.41789650935415706, -0.5765883191537261, -0.5270326005783783, 0.9983290599717825, 1.0550861769487632, -0.17034957195759698, -0.44903676931460185, 0.5393612507144643, 0.11338497104433021, 0.009366611431971317, 0.883421818235717, -0.8929089302447857, 0.3100313693997627, 1.3449655502083466, -0.11004251375159889, -0.40835816797329827, -0.05319376525284343, -1.3909928306413168, 0.029540593087558076, 0.5209977429661083, 0.1412836974004607, -0.8594531760829861, 0.1876339255902547, 0.00493930077497525, 1.0724782244696929, 0.46162953124649453, 0.6380575341377587, 0.498966820976513, 1.0191312766205844, 0.16281584753281045, 0.2617249822765105, -0.09009195340649222, 0.28578185648898324, 0.0493997709879655, -0.21997727568494604, -0.042787828558943995, 0.6034352197862994, -0.6858619014177929, -0.2443799688676113, -0.42584587984452305, 0.6002761273225199, -0.35667028003883006, -0.0027583055915352886, 0.6535302965175358, 0.3803253033246343, -0.5117838117989459, 1.0457047571933433, -0.2973118572826764, -0.24112748116511415, 0.6986410709800337, -0.31393477812705883, 0.01630317684660569, -0.861889968530898, 1.082860998164809, -0.6041111231935895, -0.9858000167697634, 0.2681732782724167, -0.26250217456261926, 0.01754261441812184, -0.3247419735495649, -0.20472654518314243, -0.0562463441266079, 0.18469847363563568, -0.005088468931084306, -0.46182170966294234, 0.6833268001643825, 0.2755862279704697, 0.14901603097758254, 0.7374434899167628, -0.4138617070692657, 0.1530358596605193, 0.18175053473699532, 0.9868525416165778, -0.24024163541900675, -0.7998880634363271, -0.24629748381194602, -1.270532014545029, 0.5835013239535092, 0.11229023532242025, -0.01599731365393825, -0.6226394732621513, 0.1614377296691247, 0.1538793753397858, -0.3907476082405069, 0.5687310385778714, 0.09361747085304292, 0.9833488494692508, -0.6541353409104855, -0.33048440204404017, 0.29729961425808094, 0.3841950601005605, 0.2927117026215688, -0.18803015690024258, 0.6591535085086022, -0.609612923469913, -0.23106193256926472, 0.61874231005481, -0.07865468177824413, -0.4520601641618471, -0.6104659894234566, 0.9406154322439944, -0.2104348890708249, 0.30879734913297247, 0.8243861849361944, -1.57753837557253, 0.3051440531801146, -0.6599385108411681, 0.08689854418880953, 0.6865384253965889, -0.8219638364524351, -0.7665869196691412, 0.056064133688799214, -0.4239985080489725, -0.14403778937992295, -0.6227225646936917, 0.9129329164489374, -0.8059500276651054, -0.5358179786571762, 0.23391972085066992, -0.15180787882070096, -0.2098600252259989, -0.9486032951119863, -0.1182533825379451, -0.04036478927388382, -0.09679539913710894, 0.17647882427545736, 0.2533820113598219, 0.4656145553542982, -0.22631015648836028, -0.2739099680397178, -0.725747332828979, -0.5974296454510089, 0.10398714795148002, 0.1258361724339313, 0.03459545821889279, -0.1091166250051828, -0.7750095830854741, 0.7675595813752223, 0.21905413181201638, 0.10269951664811787, -0.09759345233545556, 0.4506471864450513, -0.661744268717411, 0.22165114209487313, 0.4400348027207413, -0.5672545437055085, -0.18197113946868387, -0.48650737492302065, 0.22070249360000643, -0.032997164141582686, -0.15754274240440247, 1.3857452852887338, -0.31508848841829373, 0.16692648578452088, -0.1728239542478172, 0.8750992897084888, -0.33834787991139154, 1.2493593902941358, 0.6901682053298839, -0.12342283768363803, 0.36170313572276847, -1.331743919596804, 0.7794360553573563, -0.5902789988802142, 0.3475381670560227, 0.3654108984555997, 0.17790683284534944, -0.5747070102186811, 0.36638459926410016, -0.2807577056938078, 0.1955340233822471, -0.2670104429892295, -0.7195400858627705, -0.4319066375391765, 0.00640458461238036, 0.5987533066397719, 0.11866839204840296, -0.23806141769129444, 0.2283948560565998, -0.08515533874811894, 0.17289294057435173, -0.2521588574241098, -0.8740787725541426, -0.3201778871758688, 0.1956559323603847, 0.43845836942366534, 0.8964083398630655, 0.16469912042072624, 0.052095367509056995, 0.4011663240765049, 0.6384921870276697, -0.9270903029295283, 0.5962264174283484, -0.5062034371098926, 0.04533109976171301, -0.7424691704016558, -0.5894122045577237, -0.4986594031541689, 0.5491940643261011, 2.1069192438398807, -0.36838921070307556, 0.13624461008039318, -1.1429469246075499, -0.38244125658478756, 0.35610903763299406, -0.449705103737273, -0.5112603384381768, 0.6303581249412261, 1.1472893145733485, -0.19099547202512504, 0.2891453822424975, -0.1189752456435429, 0.5318274586680463, -0.4725519616491389, -0.2837793133381921, 0.15681179354354902, 0.4356292814410225, 0.4258677721625344, -0.9863583030569636, 0.4038289423012379, -0.7635902065174863, 0.20153790719998949, 0.08215791312806607, 0.6352335362970141, 0.17522754657093886, -0.3101004917148561, 0.14336917706565033, -0.34313185146251757, -0.7931384575107424, 0.05571516066043771, 0.6485414041314312, 0.07758846393951571, 0.6305142337474126, 0.0709054736618201, 0.008461632128595499, 0.5487376906170386, -0.6781427910840389, 0.1822530045650287, 0.8923283985099837, -1.447401570217791, -0.7729546200180164, -0.7286796138862597, 0.08688592336621545, -0.7776725017915258, -0.12042441950453833, -0.07321638436941344, 1.4468603968791347, -0.18314178368465223, 0.4333383554692125, 0.36809602719153284, -2.0569469951577677, 0.3526328408393943, -0.8312457804436137, 0.2577717707120876, 0.4035655287536728, -0.2138247153908022, -0.10501196669395835, -0.2606529326129836, 0.5753549426402675, 0.858858561167121, -0.9360393796319275, 0.16411240528834925, 0.8848188129114132, -0.06815192796587556, -0.28573095962665773, -0.09821589017361773, -0.3717836934034616, 0.17825247243325243, 0.8615216577445964, -0.2935883480610655, -0.3663668045247074, -0.13453839991096833, 0.8460608252013648, -0.13762103909694562, 0.2533345320950279, 0.09864085457756958, 0.23980968285468252, -0.42232866464286517, 0.3321029781469959, -0.48312554355479087, -0.5042093446511955, 0.31350204669047704, 0.10036851865195504, 0.7942963083309171, 0.5614430861548942, -0.2685292943027996, 0.7803217573954341, -0.10543284079281576, -0.6815648492129759, -0.3127840596007579, 0.09868384992438063, 0.1645151651825011, -0.8391425889636261, 0.2544334240174545, 0.27055941688183044, -0.4146508448379707, -0.4323856910042008, 0.0038174422270312626, -0.4827153627378247, 0.05008913484243685, 0.9139423697835417, -0.7903854999877529, 0.1912330481294936, 0.6033474093672122, -0.05297721687776921, -0.044991072531259724, -0.8660129202549858, -0.22590554366076157, -0.05837444466018282, 0.5080434123167692, 0.16077337217007623, -0.2943858758084418, -0.5513249847836712, 0.4566954720026326, -0.05194415312343778, -0.36231605156683894, -0.26432705667535805, -0.015246954143508008, -0.019868795837945555, 0.056332625626402455, 0.33433847663708816, -0.3153560842008986, 0.2342053977621193, -1.0094100942244488, 0.2610446374511845, -1.1070220688395618, -0.024076537244809577, 0.47543928485276826, 1.013199350163291, 0.2428984116511926, 0.42039967216878577, -0.40629115838655966, -0.3823438872182171, -0.6684328981491882, 0.13016500928693728, 0.02587231153420924, 0.14696046670922047, -0.36256336777486375, 0.6449206521423133, -0.2992363869105533, -0.8199660191737534, 0.3345664846266115, 0.602348792654587, 0.1625108194611479, 0.08000606091701218, 1.0833434815983956, -0.9455561186630879, 0.4080284177497798, 0.8299104769301117, -0.49404397026879016, 0.48962850171320915, -0.16109058224094833, 0.2928151260663785, 0.18808627545387394, -0.9285390331637208, 0.406389555614409, 0.31070723344045215, -0.19736515601228777, 0.0002291649783866534, -0.7136091797976959, 0.3666059355808622, 0.31858139783347, 0.28591871287559145, -0.2561598892036841, -0.603155053504232, -0.2710294371710003, -0.11492362137378428, -0.39285878893310855, 0.03908280039398739, 0.03568860011730533, -0.4401181693932332, 0.44192615262579105, 0.5146283564355751, 0.32424604927881884, -0.05992160549990429, -1.8212112890999586, -0.6943197381812973, 0.5748889820535426, -0.06252770672921638, 0.7489116988971136, -1.3643705267088733, 0.7796908823726172, 0.25540096962129594, 0.36208284469884, 0.6771297742225109, 0.7111467770800866, -0.12748394924773615, -0.36372660930751277, -0.3064599609749735, -0.47700915900816876, 0.571044658668972, 0.12330588608573462, -0.12134027645878616, 0.7304385114745715, 0.05019798288360306, 0.026516561188955182, 0.22815696184310158, -0.9690855809045396, -0.4972257966530884, 0.886475700690985, -0.12181571533485525, -0.1656485231164299, 0.06587044812846551, -0.570790305333282, -0.8847229113603668, 0.6268939064083475, 1.074080802723544, 0.34462323334905454, -0.36866757338772893, -0.038494517713693596, -0.6074594152383188, 0.2166529088856348, 0.2518138542002887, -0.7569619947209206, -0.6078279798557825, -0.31265619125899513, -0.804468613115654, 1.0125609973121508, -1.2074998103125516, 0.2889911425548418, -0.506961334999582, 0.22553331065392174, -0.103813769739261, -0.20127345983373163, -0.06950820891164378, 0.9038133690713663, -1.341579252922466, -0.6486127629541731, -0.6283026506585615, -0.6616417292856842, 0.7109307338162075, -0.396737996411412, -0.16297697422067575, -1.190315382941094, 0.14130733493858322, 1.1346557317181556, 0.46191185568688437, -0.13694081052333673, 0.1522251387100211, -0.16662991916264908, 0.24886948395305036, -0.1785434262339564, -0.6550543426188328, 0.6330613222893281, -0.1062987305118438, 0.27715358013524116, -1.1951214374473071, -1.4112870953263528, 0.25601033191250155, -0.3888458323181092, -0.21975797597669094, 0.24261661491753922, 0.004043958293420516, -0.6938761340522743, -1.8455323576360165, 0.5473433758064811, 0.3040403775988204, -0.020350606955854326, -0.1438595815412539, 0.7282864890423142, 1.0291349786023791, 0.4892332214262145, -0.6262802024605949, 0.18139629905322271, -0.1338001181216542, -0.24123138629446852, 0.6740031706063327, 0.5350514774223661, -0.41652596933018693, -0.8751375931296899, -0.5036755079028273, 1.4750228057493948, -0.7582363672730124, -0.1695191710187624, -0.5076354016339427, -0.08468883735870185, 0.10903350901040909, 1.1924375359645476, 0.30899574976206046, 1.1346524440815482, -0.10674255967335126, -0.19924335533447793, -0.30196933183624114, 0.18134232231488112, -0.7365138136061223, 0.3841191773410665, 0.02585956648112919, 0.7789499919560465, 0.16929505308979131, 0.09275558524084396, -0.16033376787194992, 0.23625866812334959, -0.37467111094565375, 0.42458445178978316, -1.2245046041204553, 0.09533805827124253, 0.43784474089608505, 0.4617962157762959, -1.0496797944113498, 0.5421715698393167, 0.2736646820415394, -0.7589763605443547, 0.43014796720122034, 0.16535038805523133, -0.39173547330512515, -0.9263959481667206, 0.2635825360428783, 0.5194108364020724, -0.4888493413873588, -0.3807814001407562, -0.21001553191274502, 0.28572954902595427, -0.3771307073910858, 0.0993742299171365, 0.037929146923608936, -0.41350739786020585, -0.8661380458050982, 0.559172296905651, -0.24856270178581846, 0.7651294528980853, -0.12886537507767265, -0.08916572611536368, 0.09326296272274189, -0.9057032935354005, -1.074903644851601, -0.28862992982457536, -0.8091014281675082, -0.5964215342316003, 0.6551365715015016, 0.7743375532109835, -0.01829455930806423, 0.5652119240778386, -0.09964422285976898, -1.3012461817475882, -0.5838814881361271, 0.7548910512825759, 0.9506402129664612, -0.06184112122473688, -0.8577338530400799, 0.3628379775115319, -0.13280221043090518, -0.16348352392995094, 0.4200232533254814, 0.23050148126949338, -0.039282417358463106, -0.29903847447920706, 0.5306429861825633, 0.7312971973036674, -0.4355163766642758, 0.18847664727862215, 1.378671598194864, 0.24040481275974748, 1.0608933525713726, -1.0443961119309724, -0.682818746584118, -1.0493201455055305, -0.8929362890907104, -0.28398934340994925, -0.4253414173367518, 1.3565027101491873, 0.6136215590713481, 0.47184019827290796, 0.0396967203906769, 0.6738280688723488, 0.3876615985984335, -0.8980296819081325, 0.0881171627112721, -0.521573867740046, -0.5963519484372437, -0.930088929372601, -0.16505049153743126, -0.05065028692801786, -0.3622012201872279, 0.2830541101918159, -1.142068257071816, -0.24121417854033902, -0.4014938594028483, 0.3689467340375477, -0.88586698673888, -0.7941272355272418, -0.5014820462959835, 0.19140659863651097, -0.2474157854625694, 0.12548272942497918, -0.6653039945128435, -0.7042233819595916, 0.857131002091271, 1.172773988367298, -0.868209366168486, -0.5091920335212549, -0.5813914421040834, -0.2332988355052243, -0.13879898173895533, -0.724111497438419, -0.345642990753892, 0.10999524573724928, -1.0441205082140301, -0.09109499804982263, 0.2138846331275967, 0.2943121233427672, 0.1294034393771878, -0.1563855877201223, 0.35012649778945615, 0.3334400679236016, 0.17620480303177719, 1.0937536436242288, -0.14799122524781283, 1.5032777284679855, 0.09873806268818436, 0.11559421984958385, -0.6729923374693907, 0.2677220024986199, -0.2812330780740411, 0.4611895395545771, -1.0931597117903187, 1.105804877899371, 0.33089129489303154, -0.8114074293658358, -0.3581530061027577, -1.424794886884083, -0.22797425349941866, 0.18292676382227352, 0.40413219912927084, 0.29973743867465413, 0.27504434632224417, -0.40659020383293265, -0.03300001089510511, -0.3870901997322049, -0.12683903914577419, -0.7492594556655963, 0.5921003591477255, -0.7066397172379658, -1.0474093032743699, -0.43214098592480554, 0.02253053607632364, 1.3441323646309524, -1.1523538673046303, 0.1299380271452041, 0.9441822875513182, -0.36720086467422663, -0.6581395169714476, -0.3160944038744028, 0.1027058881768616, -0.6559827535316217, 0.6311290684874242, 0.13345493206835618, -0.4723408112885362, 0.072528423863131, -0.5243202442332703, -0.047488839564320665, -0.04814617695359848, 0.6985530371776295, 0.07864668435765924, 0.39311830317163254, 0.4150525839547445, 0.6032502765148061, -0.21914324233683932, 0.26902253268029264, -0.2234208147242973, 0.18235685414859878, 0.6034527335859563, -0.13475239891194696, -0.6978557138881624, -0.8086130056044565, -0.15885463200948857, 0.6182591015781432, -1.4262916944466515, -0.25244437355765675, -0.37977963694130384, -0.5767222680132573, -0.11998103328964665, -0.1728811052294919, -0.07208940055498687, -0.9890298889696321, -0.45912279294818287, -0.499102213945532, 0.17089490381846198, 0.09223696711792859, -0.9475411702946395, -0.4215241061283789, 0.5596791941739145, -0.4609985538711202, -0.29207901292751337, -0.05601797558200658, 0.5610931989695384, -0.2167048061009131, -0.9187429390519659, -0.715359168384362, -0.03813945052050868, 0.2299084594306261, -0.20505529472232403, 0.2287019345268017, -0.6195542951955215, 0.36233508550411847, 0.34657156667553807, 0.709867952120139, 0.061112609761289925, -0.24254276028137808, -0.12535334424796032, -0.05759497349659014, -0.417195698850931, -0.29731653807801706, -0.5817478719001794, -0.6268140715997933, 0.10957886687035502, -0.9322888049778735, -1.3530763982780702, -0.4744095393346003, -0.041485440228003365, -0.7314759437804209, 1.475228784920706, -0.5593229211531756, -0.5383615041826982, -0.16908598962516236, 0.0492950576253369, 0.08860371011462145, 1.7240032469822737, 1.6390832917024234, 0.5839043192411262, 1.0542060017679522, -1.2075818268472274, 0.9147612425502208, 0.42847038856373054, 0.3108452399668857, -1.0482309013871052, -0.1341745268935265, -0.19909716933042199, 0.8337012285697802, 0.39516180518691846, -1.1285284380040814, 0.4704689790603394, -0.3868066722575244, 1.0167677730871967, 0.6964373663814982, -0.12534476004175912, 0.34793259228184925, -0.37746679317017595, -0.1672981933367534, -0.11641450862721928, -0.14280291586246027, -0.21320345644201383, 0.022928937194549137, -0.1834495050865362, -0.26383276739280564, 0.005889773640878491, -0.22638990802737852, 0.5042245066932095, 0.39249167257472856, -0.5370705797941516, 0.6411463636137478, 0.08038717893161897, 0.2226114829802965, -0.08707825655074525, -0.010860260247014343, 0.22572811163903347, 0.6415533279817577, -0.44860859673013004, -0.48739679138252456, -0.641797782841252, -1.128998587301476, -0.15631875785751867, 0.39532475764069885, -1.4816225372619396, 0.042235286587361906, -0.3128544441517375, -0.4049492479585339, -1.3008289473095693, 0.11643789040205837, -0.19917017736014084, 0.3479517491246492, -1.0030616423162046, 1.0375612907618075, -0.7262110965089806, -0.9951427756693242, -0.012558254240956064, -0.8856108083791807, -0.1662606880775128, 0.3662800404652272, 0.7262992762406287, 0.03960049826827855, -0.08717845587008226, -0.08088808475351708, 0.7391982479871039, -0.4165299158313987, -0.05102883014713544, 0.18969317526025184, -0.24520513479741513, -0.3487415465318601, 0.13436506767825163, 0.07894405910537998, 0.4596937792887058, 0.2991568479084149, 0.6781730687018788, -0.4497253613913378, -0.7249326927265184, 0.380850790060359, 0.617160090116796, -0.005029826566779888, 0.18032313187654825, -0.634903814987113, -0.1521679007265047, 0.638970708273663, 0.6075000970095269, -0.22652799459213058, -0.4884969918570983, 0.5374567909964053, 0.1135706401788737, -0.6934119731892386, -0.7916483894471454, 0.14393346680922658, -0.28234366742886413, -1.248122909089787, -0.08908434487317649, 0.39154485177569537, 0.7427985603771867, 0.0701231103592534, -0.517068049330033, -0.2970284059153202, -0.06100973197652546, 0.26890418091704676, 0.2985632809323982, 0.7887815385039585, 0.14538457334046057, -0.6512106046569488, 0.8334264680976573, 2.629320496269055, -0.2150520097177259, -0.2498205411197239, -0.1704836661471415, -0.17833266452376878, -0.7679384043380542, 0.6845828610991292, 0.6703086415758082, -0.08550691084669951, 0.6235666758014097, -0.486642851901279, 0.31462856593079164, 0.39765192121748105, 0.04368005184374935, -0.7532827933354562, -0.11214628942883013, -0.46193780834188675, -0.039248860715239975, 0.4626164284069343, 0.09808121245058284, 0.494536296189548, -1.150457654179063, -0.027010560659268518, 0.28553076201272276, 0.9032665076426525, 0.2228733640164245, 0.5957624775279603, 0.028045020876294017, -0.523325845339528, 0.25260576885652164, -0.3003089632107717, -0.668856150554541, -0.7984336276360309, 1.0287021816839226, 0.06330703217191605, -0.21641396772252275, -0.571747852839341, -0.5727505761429186, 0.12943528783906388, 0.6567033775445454, -0.8770061451190914, 0.14924812604220117, -0.43751490233361673, 0.7437731183395, -0.46806238402597444, -0.216789616640936, -0.19435107841390278, -0.49652691463031545, 0.32155677539102967, 0.07580565220192415, -0.0678316487612235, 0.46754559937845397, -0.19497512769069827, -0.6474788773599572, 0.11075627326688084, -0.07485270398957383, 0.5566732182494609, 0.40849777131162274, 0.17326767373121355, -0.055610552161292626, -1.9017768950395126, -0.12283269024900159, 0.9116623098000123, -0.5044633814247337, 0.011250510853060136, 0.04864874116604892, -0.24181765975147662, -0.16658187708438155, -0.4639956656144972, -0.8656749951856131, -0.29024523256226115, 0.31486037328696975, 0.2892594177701125, -0.8138943226501442, 0.7634847668732263, -0.37791034440014915, -0.7228720016857053, 1.0096982628616857, -0.332427418527801, -0.15203994800836707, -0.7756951691107253, 0.3350373815728713, -0.17743909009041267, 1.6777059340128895, -0.8157916166120818, -1.453567766410977, 0.5795844499404964, 0.2922841760803299, -1.1548835769073182, 1.1519107632587844, 0.0515608325970392, -0.1835398047555763, -0.11649444116272814, 0.38068850096724727, 0.11069731076144171, 0.3362948776374478, -0.26547548838199037, 0.05974082377271177, 0.33266312143768406, 0.025501141678557396, -0.7793040494244141, -0.484584948187164, -0.24251897904016262, -0.014923475391621602, -0.5293431143579722, 0.2243136891171213, -0.33671858267861227, 0.29265761060332907, 0.16729725448802724, 1.28739728970891, 0.35732414983851957, -0.7900904636472007, -1.4522640966019535, -2.0778578822004663, 0.2461853483713215, -0.6803515712479034, 0.05613203268404995, 0.19420580405597077, -0.8695540681568245, -0.06839512839920521, 0.14693708535680622, 0.40700887494094945, 0.973227914323133, -0.3258430639291755, -0.3481341430830074, -0.9579242320642798, 0.19534491075897165, -0.5749493031962468, 0.42095480596884016, -0.27586636701206096, -0.871206966959507, -0.08416734046690379, -0.22621644887547002, 0.13421412788289772, -0.3094290803276773, 0.6310422692835645, 0.34935513268981944, -0.437549439622423, -0.5588847130812667, -0.05021614171124622, -0.22692190372554522, 0.06105854768856781, 0.07170199459164087, 0.22688881859182494, 0.11637165079711229, 0.5493430336445155, -0.20061641916081366, -1.198239214066661, 0.6022662330600911, 0.1889371034587, 0.22024022537131893, 0.4635489806906941, 0.06861261331537599, 0.9369557667327943, -0.14908878791890806, 0.36049145507507485, 0.2770118659381077, 0.3567863586279204, -0.42136776913008644, -0.9315603721275774, 0.6865049809831538, 0.23702266982741288, 0.9446895474440726, 0.005617592047516269, 0.36487292478204003, 0.0809864038619772, -0.2905648186897086, 0.9109154205184274, 0.10064780724081143, 0.5853464079902845, 0.04982536667939209, 0.593928224295818, -0.02048982287682871, -0.22281020191240877, 0.19751826215933968, -0.7630367123565499, -0.943907097984628, -0.07870454835029533, -0.7873937110446813, -0.21426494984442518, -0.7888375374643632, 0.6610194622889939, 0.5812808336338547, -0.3101756617733838, 0.027578644902543317, 0.2325523373383546, 0.9935048216972799, 0.40182550283022456, 0.07944388475745608, 0.3661598170020747, 0.047312710759721384, -0.5912726017666461, 0.6272859189260704, 1.0570583565004021, -0.12508047947378031, 0.24757878591594062, -0.6157315296578287, 0.7860078025838764, 1.214983172936317, 0.001428813109184024, 0.07484057986569087, 0.08750618083665625, 0.30607165705273554, 0.47111948405848975, 0.31104953645738076, -0.17328330616854176, -0.418591331752955, 0.061802986384689965, 0.3268907535392722, -0.1306219809752746, 0.4854235221419254, -0.1517457613241908, -0.02475641130334296, -0.7154725005476834, 0.267210027257894, -0.26200013535777705, 0.3779547460821926, 0.2689780075605584, 0.125954565951911, -0.5883997958523066, -0.026631978582531593, 0.8165756107866671, -0.341331466391461, 0.06733121725292959, -0.7264657575184672, 0.3663408497107228, 0.31530543642670444, -0.41851724235703347, -0.1325225743930213, -0.2771235049147207, -0.06746998962012818, 1.186246878874861, 0.1844567450759198, 0.4721015863521265, -0.024374342324135698, -0.7720861412278881, -0.32227670422966437, 0.01946653423814615, -0.07601919521630782, -0.11925176733719006, -1.0856442115812126, -0.05149737847005453, -0.30208698375217996, -0.28873653052296133, 0.4984316663630903, -0.659793633915001, 1.3689724387297224, 0.039594946154968155, -1.0844594988342435, 1.3230262054200899, 1.6082868918472473, 0.2135166939281329, -0.5510776901584421, -0.7594074537394576, -0.7398198453443661, 0.8405273191751588, 0.6335292684198206, 0.04465496288680064, -0.30996872604399334, 0.6637789388613217, 0.9298897742879604, -0.8002362116554721, 1.169564863629182, -0.8475782701604289, 0.40852103279640006, -0.9650716705401812, -0.40888468726004273, 0.18917620298145074, -0.903983401047998, 0.3288080968713719, -0.5813970527489001, 0.1758682785495414, 0.11780770441112688, -0.111265865445304, 0.48373225507466067, -0.29521235158553677, -0.12141391153320899, 0.5759989012982936, 0.13101940357216552, -0.45945307169299343, 0.7166203209743056, -1.5809345648064728, -0.33310754413151955, -1.1229208728942184, 2.4293648928362117, -0.22675732958910533, -0.3380236159518003, 0.22039678317669692, 0.28909640884283827, 0.25778554823742, 0.3237725457171336, -0.30483343378577843, -0.17883607416926323, 0.07867633424188435, -0.3969780234600685, -0.15775386257000729, 0.3859986166787548, 0.30259098625895825, -1.3138408229234972, 0.0781285768680702, -1.4046829524252304, -0.17085361956582962, 0.2782089262205687, 0.5155954070618308, -0.3953850129402514, 0.3586601939378976, -0.6491838971374972, 0.20431890321055124, -0.09171594901127583, -0.5259223741360299, 0.2718382370507061, -0.16224677540995064, -1.1986094647593222, -0.028483857524062857, 0.5155151577736056, -0.36800539522035774, -0.40754464756167674, 0.5576127915921685, -0.6557664864306035, -0.28607826112796114, -0.8629282141988204, 0.9390639783751855, -0.3500795502993157, -0.9839134078418401, -0.34401320646938754, 0.9797004717501027, 0.057886647238751046, -0.5391747875776824, -0.27633506054298407, -0.19792930838508271, -1.9817301797020856, 0.3185768308846448, -0.24491921551333962, 0.8235192363866379, 0.2989651520409824, 0.1667308104887723, 0.6374244150812536, 0.3352870949783161, -0.15430764778297307, -0.11795869285720423, -0.8238342810741974, 0.6101688081032717, -0.6596527585456365, -0.09638114137782008, 0.09966907065753235, -0.21153808092633497, 1.1501802669465708, -0.045117430250126066, 0.43282085461959263, -0.24606847830576867, -0.23993971130794833, 1.2564810821289305, 0.010665014675299725, -0.18774668023094282, 1.155530680024944, -0.31858924026563507, -0.9670209346560927, 0.45779940384248297, 0.4919447646750751, 0.02938297549112638, 0.45466713314214274, -0.09136323591822575, -0.2687938504828369, -0.9932110041967182, 0.3483336377208004, -0.13948780153388715, 0.03617093492898661, -0.03664496639861013, 0.34395756609159933, 0.10012630105120841, -0.35753812080520114, 1.1379481670295655, 0.28384437931803486, 0.41808956486929627, -0.9093796491399879, -0.4567770526124255, -0.1962965681782129, 0.8150963000081453, -0.44313071622522526, 0.3100689261636032, 0.41970060748304594, 0.23293478978173257, -0.9484937499907946, -0.3221862244475362, -0.6222318814479799, 0.07958251723452854, -0.8035567687214391, 0.1661128826666915, 1.6547127457889503, 0.7744326815121976, 0.35530974477047794, 1.4434954730559066, -0.43238015326671375, 0.20102655440097167, -0.2110983332814615, 0.37330681198671756, 0.8698642928275273, -0.6536763215708746, -0.5482911311578118, 0.054934168069929276, 0.7301470992912634, -0.3347500374905528, 0.5418366602776344, -0.7208836247657152, -0.27953235837069024, -0.130715290284885, -0.5192108683351165, -0.06435429756876554, -0.5207030004250338, -0.015205916566824757, 0.9302343528776216, 0.5980189862095546, -1.5451549222464085, 0.16036365234539332, 0.40105254505500987, 1.0969007354920939, -0.16781243275383326, 0.2331492793204062, 0.855381627714242, -0.575845492027636, 0.3399102207501123, -1.054683812607072, -0.06254652333522659, 0.06462871373280647, 0.4072097310381054, -0.3348636431886932, 0.2127958266045714, 0.36582391699188654, -0.02929976596348982, -0.4325866201328263, -0.007190855405799147, 0.0935397689600529, -0.016406962399983682, -0.37801162722348985, -0.02073711990635524, -0.591192128816193, 0.0767669773525313, -0.13134584779549688, -0.3794257071433902, 0.4865133135264914, 0.23302985375721347, -0.0715406499184095, -0.13849711487795457, 0.48153038433832757, -0.7232325222312439, -0.21917534906056016, -0.7008566333486067, -0.6620582966572949, 0.15121713164903652, 0.7430184093995968, -0.37291358599791635, -0.8138561042491212, 1.2318917853764044, 0.04946884933453466, -0.4141984797388441, 0.49012481958563625, 0.9830254903405868, 0.06636600760364562, 0.11967644287301363, -1.108960679025132, -0.2347215318171924, -0.06411810921014383, -0.10177158417147265, 0.5585852089972142, -0.8935344928679829, -1.0467327408653917, 0.40300379998804925, -0.8628263558344225, 0.19407250467435197, -0.22472488752887715, 0.32685626667758105, -0.9022479310079868, 0.5940369668538648, -0.3146598918042188, 0.4687141681347404, 0.25926595300220145, -0.7685920053940607, -0.6542502754634916, -0.8666156782364619, 0.47592729623995755, -0.4565047346442685, -0.7830099867517539, -1.1222347039110228, 0.9426876706466387, -0.43063142585196523, -0.12990413104329146, 0.3246296847545298, 0.6980359964495887, 0.35951854001929684, 0.04455011833796954, 0.062188921176355064, -0.6290278434043616, 0.88954446032409, 0.5256469019343044, 0.8595153778086182, 0.7796493614783934, 0.7793054570554371, 0.35461322296828546, 0.31825229459948456, 0.2846859238262681, -0.08090319117713812, 0.31304609863968125, 0.44593498451701824, 0.38158274502185596, 0.1882305242199671, -0.02243332535692274, 0.001156948535207869, -0.060966136721377, 0.545608905280476, -0.6671038257792509, 0.1091896001711879, -0.49708605224844993, 0.33219099483893255, 0.4203491872972952, 0.7586311876212681, -0.03404232216169087, 0.6709554494619374, -0.11093152087697139, 0.4477602445103661, -0.6074308346685509, 0.8432741857529176, -0.429183765625667, 0.7455411901795918, -0.20981093456082417, 0.13084744820781485, 0.9130062214493757, -0.35279966627340625, -0.5581895502245053, 1.7631764402042989, -0.0743952261147929, -0.017854467056083505, -0.836834199658018, -0.459568262192298, -0.08556282954455185, 1.0584565371022367, 0.32795829939311155, 0.12917208703166078, -0.08385416056367667, -0.2891546492495718, -0.12960400014698203, -0.2652991634930699, 1.9988412060458898, 0.19290748123442802, 0.7992925325735244, 0.22127029071736048, 0.11238984717475897, -0.060337021542201906, -0.2229747208697308, 0.6918186048231574, -0.5042982022241188, -0.2837395721122472, -0.5071401932372419, 0.43530651849431534, 0.04632510765790164, 0.006340627549559309, -0.4714777622167839, 0.4818083203084291, 1.0911914117666908, 0.2148831821318419, 0.08877930440780875, 0.906845051124154, 0.1808600213426838, -0.46892333601799896, 0.19604174635810195, 0.18788609373049342, 0.6185294053919542, 0.6739406796221223, -0.36928005408440134, 0.204318959578889, -0.27426582570972347, -1.6916993311284472, 0.1806853675322023, 0.648517890806237, -1.4379985218859748e-05, -0.37428183254421993, 1.3195194207110865, 1.0569853678282992, -0.007095783755860556, -0.4565332919790552, 0.9059430248770891, 0.49114624450225663, -0.30710016493639136, -0.11357867677297546, -1.0590939180788805, 0.2071763477691582, -0.706443495420704, -0.1487657215393885, 0.2080195266714649, -0.9727210603542789, 0.3773765559602819, 0.8394008586838408, 0.0358529638226808, 0.7809388448758854, 0.6149533117047936, -0.16255140812179386, -0.7397791039183369, 2.0219225269019363, -0.032788410347039006, 0.5735751387191902, -0.30026017654005227, -1.2313866304758432, 0.612321076770203, -0.04435367610859234, 0.12019769769290828, -0.052870354382504564, -0.7581285229587496, -0.8280279184609799, 0.5486295166810323, 0.7786647449495999, 0.049176483396951784, 0.4878575083822598, -0.2552479778383303, -0.48931474491787513, -0.3312818449495262, -0.0056072290788440685, 0.02113953737192692, -0.04723366956655316, 0.5772036714178563, -0.14263936927394633, -0.22035547533409006, -0.6647185857510499, -0.8527549542481896, -0.62557473999698, -0.48655878823944276, -0.9054751142840485, -0.8977736474443124, -0.8092348623408281, 0.008891816439463171, -0.20613529759079632, -0.4493347427828077, 0.831770161758782, -0.41570296334692197, -0.7795547322077263, 0.60373008572626, -0.15658736332581485, 0.2436274065501768, 0.6496655289221464, -1.603580701006637, 0.9996534684421989, 0.09195993954891932, 0.20228902989205153, -0.0815476787149802, -0.39695426977058684, 0.4345192795318372, 0.7405509519002258, 0.905568483681316, -0.37957835576671, -0.39498655618000156, 0.727905229155239, 0.3281025368409558, 0.7327292935583055, 0.751732215893931, -0.07360826107761673, -2.443359012435798, -0.41953607601350734, 0.7560316944850434, -0.3804344084043596, -0.20797335775459627, 0.2643395440175525, -0.34969034400978266, -0.1912963878689915, 0.02185490345354804, 0.16344526793268016, 0.3792373852752081, 0.20577776329803077, -0.010314914350015587, 0.47911836585762535, -0.7099180091059114, 0.12072008094460138, 0.5129705111805426, -0.1238638347860389, -0.8316909712588119, 1.0032230685780985, 0.37811080013203824, 0.4330993277888129, 0.17412442515998494, 0.11402204311236562, -0.23664533387176193, -1.0980609667910095, -0.005934292369629116, 0.4588484037375849, -0.3587870964329982, -1.890066113900047, 0.5872029464308546, 1.0499317695554589, -0.09187714136386141, -1.161409218064817, 0.654499990397629, 1.2189774964658375, -0.1154839609506931, 0.08481875393633286, -0.1279661668826562, -1.2621653645748787, 0.5907757708983259, -1.0394716720697297, -0.677233327573394, 0.677474726270009, -0.6923514196071202, -1.9980726698701303, -0.5714629075232617, 0.010920463881186039, 0.6241967134570845, -0.4657882646814333, -0.44910512645730527, -0.31495433034129516, -0.271273732557485, -0.21281229017919814, 0.008984304455607522, 0.3468688527772738, -0.143075529150905, 0.21811602022094484, -0.47828641225327645, -1.336427665748306, -0.1513809688489699, -0.588517169237814, -0.5009916125134689, -0.3500512663515881, 0.8176186127614808, -1.29008895278114, 0.06008535331795653, 0.5651122730891917, -0.9240203022330402, -0.591683267376883, -0.8288911871474884, -0.00498043011169641, 1.1194688162269, 1.0940999712567354, -0.15242438458336538, -0.7783732059913681, -0.3456497531575279, 0.16060893111701816, -0.18634897751828983, 1.3366762182794927, -0.23255874015264505, -0.24740234203426392, -0.8587400473948341, -0.16361988017039453, 0.3085804227430908, 0.48397381267750356, 0.33288935645598655, 0.5362838893497142, 0.02466728934777209, 0.4035664364458549, -0.23378162488912724, -0.5552808745350256, 0.2200025635408977, -0.06776922272181199, 0.006407647857312564, 0.25444344929753815, 0.056318912661510574, 1.600664721771218, 0.7119498104840932, -0.033698679197116194, 0.16393805666611777, 0.6111053659674973, 0.9709648455150697, 0.9288917121276958, 0.1263017870044238, 0.3664422994653294, 0.8532628132953197, -0.6208873593970989, -0.31201689030192037, -0.6274931786284323, 0.22789611771980967, 0.16296613513062302, -0.20082424918120054, 0.46518762867032293, -0.0399013856511925, -0.5657721830519771, -0.24611061180156862, 0.4718440174397964, -0.40267175387566756, -1.053411231260137, -0.14407865318441818, -0.3217582592556302, 0.19943199724299335, -0.536382326921696, -0.6265034871159538, -0.5070396823187687, -0.08430466437269811, 0.12475190838644973, -0.04040380240800295, -0.17887103802470328, -0.809225083157803, -1.2862178717645507, 1.0361882498249444, -0.11039411548810438, 0.18001510265217296, 0.08299583453235998, -0.4636248945262692, 0.134872593269692, -0.06904113656077177, 0.18564875457454713, 0.25566917240071185, -0.18490275223670244, 0.9807228634710702, 0.17670232568648794, 0.060348029972660505, 0.31923974087273027, 0.17522153193067175, 0.5816306622474876, -0.22737064978893542, -0.3896779141530943, 0.5213151628605097, 0.3699255576990496, 0.8197688817318274, 0.19441000572547332, -0.5508113901625782, 0.010156410914962555, -0.8683442273617041, 0.4080558017878903, 0.04280404237934772, 0.3881265545006968, -1.4318726335263219, -0.15453571375475741, -0.5433981330299812, -0.10231809987183543, -1.072369294561165, 0.3349640264326452, 0.21142615874250661, -0.9578145930490698, -0.5300845584721893, 0.9064852085385267, 0.31928892816249155, -0.07017811995755156, -0.6851925698482448, 0.47404089325758875, 0.5330124326996108, 0.10353514983525551, -0.49715426468045376, 0.20041464239228066, -0.16846318893532475, 0.9224840547554349, 0.3017519059282048, 0.11415795829943931, 1.0140440742776573, -0.6578713452306703, 0.8389205804601293, -0.25607140823650426, 0.08120261657727798, -0.49446693042368617, -0.11020509526037958, -0.07936236757115878, 0.383315689372808, 0.5181642889152517, -0.22725546610985792, -0.8243974366218015, 0.10527351730466325, -0.5687695167088935, 0.2615042222656111, 0.6137061213665063, -0.7461151972009076, -0.8252695933104792, -1.4766891518086651, 0.27108025725536206, -0.740393203036792, -0.5057822770927787, 0.13477623005498984, -0.1256756665842445, -0.13699900825876565, 0.062364536183578914, -0.9322242322285328, -1.3611469727224064, 0.3321720405900341, -0.233091489788104, -0.06622616091649071, -0.36437794404118967, -0.5199363570659656, 0.3368315336836971, 0.8104607856749907, -0.2386259404025652, 0.19438620189891548, -0.845059385062586, 0.5353990471217569, -0.12797508778001046, -0.2569426595142039, -0.4732994068662916, -0.9368582766866105, 0.690466862045803, -0.6170322068876478, -0.3952599677665041, 0.5824562121624678, 0.4623590349727977, 0.13690809437639972, -0.4163844923878245, -0.8389517176839082, -0.5940124170654809, -0.03147771894407653, 0.44544427688440047, 0.1160707396030109, 0.24132637081789227, -0.5934654453088759, 0.21811211320628632, 0.009025672623184378, 0.6170897103118854, -0.48056489838108546, 0.9279499687261149, 0.06027505870526191, 0.8904573987940978, -0.16881451641632905, 0.0792122193197284, -0.23670024426226766, 0.7543223725260538, -1.028113929950396, -0.011656101564261043, 1.2814423579497145, -1.1719070892152699, 0.08039316155943037, 0.9055603734200146, -1.1229863256607664, -0.10968579479486051, 0.734840512090547, -0.1584413340654383, -0.9878282760830794, 0.07930098510237509, -0.8127234862458996, 0.6822166913715495, -0.2541903930279604, -0.12437050109865878, -0.2574876860266974, 1.3347267675589443, 0.20168390168633932, -0.6825772901202202, -0.02173508812070052, 0.1813231790675407, 0.29005578386680236, 1.026134273483381, 0.3132275091770802, -0.34331180767831154, 0.11074560831129356, -0.1468436854637722, 0.4720859625578439, -0.08021736804699865, -0.5466249217755464, 0.09531259911231862, 0.6206656907942771, 0.00941304816459811, -0.013384707398493983, -0.076254818045813, 0.09998190517520272, 0.41224105382682136, -0.2915109294369025, -0.060311867372735195, 0.23646930746794448, 0.7724088015103618, -0.5632680234890609, 0.6120195187573285, -0.20487969367888936, 0.30545271208431846, -0.8529164144269209, 0.31824052196924824, 0.014536777875867823, 0.02319737439360171, -0.42109485938647195, 1.6226939020253446, -0.43542388646618596, 0.2560140014690026, -0.24515133686679572, -0.1918138092111398, -0.48342462683704335, 0.7244739585050857, 0.36222348518067865, 0.2772476231800635, 0.21137382194116922, -0.3473366170250898, -1.2246893440648359, 0.09013238795889136, 0.48777822341772625, 0.09068307277523459, 1.8452349646798518, -0.6662110692841028, -0.16402428257359464, 0.7171234279768555, -0.9415539362437794, -0.9013109225544503, -0.11875499913685493, 0.7895776395376117, 0.04040398999076361, 0.38887499355592736, -0.25349139884724065, -0.4483702865287792, -0.22868080987530276, 0.3109806192068852, 0.29538872292519747, -0.10927220935383633, -0.5017655743579135, -0.22104959925526674, -0.16144639830375535, -0.7315615118380833, -0.8103456563847223, 0.09341654382445591, -0.06304953603206404, -0.31520386461596966, 0.07307799883630994, -0.6686392793965176, 0.09543877857574501, 0.018982036046949397, 0.06914213956272147, -0.2712786053325706, -0.35184282712968556, 0.23283067069682006, 0.7297699641944856, -0.9094771131451374, -0.061392242059996965, 0.6856268518792062, 0.5919649815673149, 0.24996388391129395, 0.06673270694756592, 0.34222323554601275, 0.6611350963137153, 0.6252700249419196, -0.14426431899328518, 0.41582284789454427, -0.2887947227853119, 1.0409431807086404, 0.4444815941897413, -0.45114594307334094, -0.17733821422107404, 0.5964970818555858, -0.2507992597194617, 0.2084356966396094, -0.10635628752450232, -0.15905619318115402, 0.1419888943922172, -1.4839832786217164, 0.10897830308417575, 0.0667871755820123, 0.1977848737513495, -0.06314064139104544, 0.3543730387259519, 0.09195771313677242, 0.42633483329532956, -0.2288613019376586, -0.37683913180820483, 0.6741055953272859, 0.5348467632375774, 0.10275286594009776, -0.9526499342483046, 0.01628444617058938, 1.3536418260988143, 0.38908506722861624, -0.5762708746748649, 0.18677082111334672, -0.3415066059686977, 0.012323855314506178, 1.5235455346800206, 0.5349293808223422, 0.5693391149056444, 0.4416614946747011, 0.34272595045628046, 0.44725981929489844, -0.38633746894022836, -0.208104291868397, 0.6144745198565855, 0.6902152296462973, 0.3450284403986939, -0.6317170913888541, -0.20827259259122147, 0.4833915259331495, 0.7410450828413254, 0.13137611011313555, -0.5527786403271228, -0.7394936760261187, 0.173208020924758, -0.19346613231893356, -0.08821122788011011, 0.7176543721152335, -0.3812350248562757, 0.3071435326181529, 0.52907631060639, 1.0994096324068992, -0.6019041362109678, 0.42714437149226947, 0.7395578853286138, -0.7557856663296028, -0.8484373634677529, -0.28871527419489734, 1.3202402512878153, -0.6720584348005326, -1.396954396571902, 0.5332808677155493, 0.3466433759274213, 0.015161348884672968, 0.060299663650060384, -0.6256619603811215, -0.14977624364169934, -0.0028936973833545154, -1.2834799121095397, 0.8153869481893457, -0.6763265449904657, 1.195386511315831, -0.3070244373502141, -0.319330136367808, -0.07154128620712469, -0.3367159612899863, 0.16239193611317923, 0.8656278366510778, -0.7028808433971143, 0.7734550537698206, -0.49576987193380534, -0.19714917451775, 0.21299487939800224, 0.008902810651947202, 0.4791947600424455, -0.6088644747498201, -0.6026306041810069, -0.44800422016099484, -1.0767850001061205, 0.2215464900223497, 0.5581432451176667, 0.4447326796745162, -1.1338270313350183, 0.03788544229532095, 0.19862687575876692, -0.6013878590453792, 0.9298166673570785, 0.3914527992317123, -0.19877448343443946, 0.931752249804142, -0.827831276173592, 0.4884995715196789, 0.6461042304084282, 0.1646414105602844, 0.1868028491319698, 0.0079995803309008, 0.5552520911027258, -0.35390338701018625, -0.1358039982026703, -0.7332735864373116, -0.07011232471983386, 1.7892189949486637, 1.177699148139431, 0.33364231237652464, 0.8640582094015582, 0.38608393422706355, -0.07689989834743152, -0.12014798703741202, -0.9453945281284449, -0.5585709134951504, 0.4344992842740766, 0.552454592681186, -0.21078450346027822, -0.24978467064382756, -0.0757170758899257, -0.9934689996981535, -0.7375408426118298, 0.15198653494045875, 0.8146517392229772, 0.16094685981630943, 0.43907577461069797, 0.27174434869301634, -0.7956287305625723, 0.12098813086044084, -0.18569070695743292, 0.10033079174399098, 0.7501687336226113, 0.569593891782859, -0.8874680967108544, -0.6098505698068821, 0.8461249545599936, 0.6279966357941171, -0.1939785387463577, -0.13661685269405013, 0.21235825890650584, -0.49526774840190996, 0.7601529938450534, -0.135685047093202, 0.27527692755769134, 0.3554093397985939, -0.95327682634804, -1.108926528167977, 0.8315759792169004, 0.042221668840849644, -0.6202148876588222, -0.16040002888041777, -0.36763658750797623, 0.5485741655230274, -0.6913807392183227, -0.46906587152332657, -0.1609318496769231, 0.16154976045545555, 1.098545298926172, -0.673845532396599, 0.06571675796013, -0.1492072089398444, -0.20263773082973835, -0.8117503360227499, 0.009540694040987452, 0.3457531627931723, -0.0021236089859588995, -0.5731923250212559, -0.27279735525519677, 0.6042799132131544, 0.7609052308685315, -0.5178973577715266, -0.2625953278569617, 0.7303586681171876, 0.042522254283099165, -0.21917750944319492, 0.21814009755167424, 0.15429989753509318, 0.5186947878983312, -0.3327937823305358, -0.22074686828143503, -0.13061284159106845, 0.30211932172364286, -0.3270780410937802, -0.5548413023517568, 0.6755432971348099, 0.21374778513209716, -0.6683462162482818, 0.9156635283585164, 0.7105037833205077, -0.30512531736759, 0.6146205035711629, 0.20312414964491832, -0.2797354105635411, 0.2065733990684633, 0.5566591396398173, 1.67588740226559, -0.06071883761868592, -0.1768565220172052, -0.16095059160512992, 0.42881187612123406, 0.8837146593840057, -1.840511938603768, 0.9746674737693779, 0.38191207264255744, 0.255464685598927, -0.4464732825583619, -0.6353301990605524, -0.38422943126244447, 0.9786027033079017, -0.08581163212357185, -0.21348704835255922, 0.24050959477766595, -0.6278277079108115, -0.16436880636120882, -0.1253996105689748, 0.3785418809163326, -0.08266851192766933, 0.1481606023237934, 0.7187070525870313, 0.01950767464055747, 0.5180438199928066, -0.3431336979032321, -0.39283607290466893, 0.31670760909408313, 1.2143578046294747, -0.24841541377746848, -1.2667030067341822, -0.5288137002980895, 0.18781967055012355, 0.9208022793801948, 0.5474877198013238, -0.0010142447242509635, 0.253668829962237, 0.7225181879340525, 0.6975941173773063, -0.9485577436409652, -0.13486089002750598, -0.36607755611271564, -1.5277900940310467, -0.4754079810801163, 0.15347986590040366, 0.07724793200370514, -0.5107512794283577, 0.41211889809682734, 0.25390862559119, 0.5601962156557263, 0.24983559598314117, 0.11820990120846891, -0.9069323630449675, -0.13880194171289378, 0.2177086961188608, -0.8405052942734266, 1.0072880314332893, -0.32290395822082846, -0.4356257708280229, -0.4134201290222814, -0.5783818489008267, -0.2219918449634498, -0.0005215408081157002, -0.43650741516919117, -0.3396252794719963, -0.40160740201556905, 0.5996460864850882, -0.24904074041152502, 0.5040465931612645, 0.047342272017657616, 0.2353591055383392, 0.8773622471853486, 0.8423754898251554, 0.19054591672753518, -0.5411776562365495, -0.3859068397798362, 0.28918905509000664, -0.4616871323346709, 0.9131735655663783, -0.4368818362154207, 0.37542404768906024, -0.017131917174025582, -0.6527346490956012, 0.12290333580836657, -0.394118371495062, 0.08234915342601683, -0.4149661605332818, -0.9266938723734279, -0.6260045131049461, 0.2294154551926158, -0.05124657989932324, -0.21657315034623162, -0.5012209815686599, 0.7903436280948256, -0.06704228201985678, -0.8521090404172746, -0.7663380785554452, 0.42074326875656504, -0.4481194162511961, 0.5329983751529265, -0.6588943350859126, -0.34672730299632326, -0.45747809744555357, 0.45633481134093623, -0.5255975556313072, -0.708983664229351, -0.5459524799389566, 0.391422333023596, -0.1795780410215524, 0.012532521231437773, -0.6307636852544551, -0.7098663472364645, -0.20951017091562515, -0.17353217081856154, -0.037211212591955034, -1.0716645502143995, 0.5868442139581664, -0.6428643660372425, 0.18758655178765665, 0.04355070217751815, -0.22694642239273555, 0.38729945597282095, -0.12190780893378285, 0.4052247469744674, 0.5509391916291684, -0.2500121895686361, 0.7236611945176521, 0.45678835899663184, -0.15253518985381292, -1.2251933649778497, 0.3569833289819682, 0.3405322616393428, -0.20908050550950114, -0.28997946422817994, 0.1639973614631602, -0.25230094073653075, 0.02365275507050138, 0.671723258713863, -0.9253713921735014, 0.07302553015694138, 0.3458025594673977, 0.23277317800258435, -0.06503089408891985, -0.44017755094461386, 0.8850484871039185, 0.992123603854985, -1.3864392537481247, 0.35832787008827616, -0.5472445899785008, -0.3531752289580895, 0.7217689577582229, 0.20517601819164802, 0.08741301048570663, 0.6220401942752827, -1.1956526269328085, -0.17506907618912493, 0.7184293077448969, -0.20165072030324693, 0.315467133071194, 0.05040764076773507, 0.8238071816742006, 1.0147918037275097, -0.14666657690537094, -0.043840908310893795, 0.37771471532725126, 0.1051832791166159, -0.33627711202715116, 0.30075243746606134, -0.3666216049923858, 0.031222860121083496, 0.6741366557806661, 0.30502708548497925, -0.23585966439998324, -0.3697171128563092, -0.474909442208415, 2.140075637871668, 0.7255352568797016, -0.6957245506946446, -0.6688942094154521, -0.522669451296519, -0.5077609130084644, 0.5751340185506659, 0.6206048528965168, 0.017973117983392697, -1.5371826600706864, 0.12945994290499063, -0.3900539017923905, -0.6419833485605544, -1.2283947799917705, -0.7095031779531997, -0.21348935931817936, -0.8398307185736726, 0.36967203220693656, -0.12263876330291966, -0.029757397020765693, -1.1734030329132912, -0.1885129029918602, 0.5410643035197146, -0.3853412927832215, -0.20858079157752343, 0.9785844983065095, 0.4001230702315349, -0.8503366503468082, 0.03024607751105453, 0.37159990186945535, 0.5734719067497105, -0.4565593890036571, 0.13686327914739768, 0.3061223824570471, 0.8447407172299892, -0.765682716474821, 0.9964156493862749, -2.7585769083141214, 0.16507756916045088, -0.5562308206941258, -0.07060000477185023, 0.7065376845376666, 0.14072401116716698, 0.7374597624313805, -0.6672432737318905, -0.50801112288357, 1.0794015193703226, 1.5948522732231991, -0.07838343639452787, 0.04674331769972634, -0.8872347053293398, 0.15757860998488168, 0.2793953254492287, -0.9105163680442391, 0.17776626149083374, -0.7973403187335565, -0.28503844502721176, 0.6638634067752833, -0.06940120358565743, 1.1562555038504927, -1.180847155460302, 0.014950901460885513, -0.11719276327284238, 0.0967248553817491, -0.11997958654559168, 0.32749939780555054, -0.07903950758923287, 0.26240730550177715, -0.5788234383848012, 0.02622929767751167, -0.827356282613157, 0.06764500720122067, 0.5457480943635585, 0.11340968937703867, -0.3934030206206348, -0.3155472050015333, 0.26123348589456247, -0.20068096164874394, -0.2208505213990149, -0.7761163729227398, -0.4669866124794237, -0.48475656391947836, 0.455644346580219, 0.1997711793750236, 0.5201928732058881, 0.06316382995574318, -0.06518638309769172, -0.44499742754680305, -0.22165578233205696, 0.9169222220928485, -0.20371116004796835, -0.1095406352321959, 0.12342905991360821, -2.177573474996557, 0.8794084831437012, 0.6165491746522942, 0.3707255150072939, 1.0146241953224893, -0.33448482032325816, 1.115177270548625, -0.9647686429147719, -0.03403159284980114, -0.3900442833483385, -0.20486568892473733, -0.6894096692915733, -0.6921939342583688, -0.14148667181559602, 0.24082894834045734, -0.30686550288533, -0.6842527482885061, 0.6804184946384082, -0.11993757622559877, 0.9179723603556575, -0.036438562809211233, 0.5643077788427979, 0.0391245721308908, 0.8728018623723552, 0.5412322517965011, 1.2369359953680696, -0.12051387936642877, 0.6616189894014377, -0.4022163719402025, 0.666440079646647, 1.2008789035493634, -0.3097691695335607, 0.45726001096451097, -0.8651808852702046, 0.4234064738196448, -0.44556405621919376, 0.037458918386464965, -0.4271949633020974, 0.47960547634406314, 0.6047463789282729, 0.02448299109358946, -0.279347574567645, -0.10258113142310889, -0.16831016324471515, -0.25322945549140663, -0.016956619915817945, 0.11963341765588797, -0.2699529222446828, 0.5931962045196377, -0.04445430015784654, -0.4944050152764128, -0.23561909953694088, -0.12444500611726811, 0.006092910486989761, 0.6393153120537715, 0.12585605579416706, -0.5477108966530927, 0.1860075587706966, 0.45485662863197024, -0.6743147144635021, -1.0520422362880923, 0.17450573463140093, 0.3850046419779115, -0.27968963773135896, -0.07681455112530595, -0.40031505156695774, -0.3653934406875563, -0.627533783002244, -0.49746594421507995, 0.6457236471838734, 0.49941320801420386, -0.5103748249239122, -0.37427786122609696, -0.923305447788944, -0.3133629626144874, -0.6891188490214164, 0.4377528845126397, -1.2219959812103374, 0.2950774222146139, 0.27808021729008375, -0.09009810035640177, 0.13755696907358872, 0.3177826795712379, -1.3216924634578933, -0.029730878940307376, 0.9222395398806973, -0.638097705376818, -0.5677363860692166, 0.45760513478517084, -1.5253190469664235, 0.30530027062839316, 0.5390524343779745, -0.7761830827792306, -0.8326133678661594, 0.17250436930413643, 0.19694699939926277, 0.39302819516291876, -0.5837813495706208, -0.17425958065521246, -0.03454986656660412, -0.41402285357775637, 0.12474605699198932, 0.8066369740802976, 0.6568687134254383, -0.0829748455160239, 0.23932208428118698, 0.8838178182163823, 0.27419370018422906, -0.881173908272926, -0.2654351606380487, -1.0840104176298955, 0.03165814125041792, 1.2628027883061619, -0.29513745530469004, -0.5311765269226202, 0.0073213663419434485, -0.0986721063861671, 0.1926997431101598, 0.063570721797964, -0.012083572995801498, 0.030012073024787367, 0.41527121816990353, 0.5293826005953428, 1.2782317825385632, 0.23799944056613226, -0.9445453083418405, -0.18691897093517296, 0.05405637024941909, 0.5608597019042774, 0.14199875835204814, -0.11017431110415618, 0.43078685423899066, -0.26355513238420425, 1.8780922612055995, -0.7451395468044317, -0.36320065961673836, 0.006370052283430544, 0.5386831176962968, 0.6463470395738216, -0.43227005374880667, 0.32485185322015014, 0.4358826654195116, 1.0804025420736079, -0.19028146891336523, -0.5674791444028768, 0.20423797754921177, -0.876052860103228, -0.1551786357493456, 0.4447844411700419, -1.122413229851571, 0.13257866072619634, -0.4617269996404944, 0.036564480523925934, -0.2160718313511676, -1.1036355459900016, -0.1497122382432824, 1.1970075938431894, -0.18960122702137105, 0.17029235283973576, -1.5197521833837926, -0.17298640042052685, -0.6781547248832029, -0.6354094081770056, -0.632418426898443, 0.13250880895177897, 0.24098043641539407, 0.03844949925553931, 0.013972104845672587, -1.0988055361457145, -0.08029597394665101, -0.0844659903296852, -0.29726228504535107, -0.45807031781852814, -1.351364642637938, -0.406686800118464, -0.05390641624048431, -1.3531628389167516, -0.011362807684655571, -0.4699118939381145, 0.454349441401681, -1.98137073793532, -0.8354988410139865, 0.027080361825617474, -0.8147030126334303, 0.13195296415568783, -1.746502666936368, 0.5972043511100081, 0.21057746702123362, 0.7572213339653826, 0.28568073335233946, 0.9233778717804166, 0.04565364589882693, 0.47021739018142295, -0.24019373878749964, 0.22176174947968455, 0.188347299857429, -0.08070675564801393, 0.16944613529260535, -0.04053258743021523, 0.3084826867301447, -1.0582867754796579, -0.2677407969990193, 0.06640848837371968, 0.3844821777329118, 0.09388711040654409, 0.35008964577338186, -0.08422000711115735, -0.2523042002443874, -0.8453842528756974, 0.5256682983316763, -0.17198245449496175, -0.08198706049567571, -0.6997366533980887, 1.252324018973544, -0.4219080112628772, -0.05980141073532236, 0.15875588219766265, 1.650558030626768, -0.45155119706122815, 0.515893778008079, -0.4228325792803258, 0.329794589088635, -0.2496381612954037, -0.5713893147809432, 0.7395843415574526, 0.14372892792292455, -0.5867251141676151, -0.7641390466640257, 0.4590804531124576, 0.308439347848122, 0.008067298476738184, 0.29288588528360915, 0.44171757303283554, 0.6432633343775556, 0.8599925199281745, 0.9602552140353875, 0.04269283141547882, -0.06069751704947589, 0.6518341276254097, -0.028072269309959992, 0.4358421893724208, -0.30959675548304866, 0.5456318655938807, -0.010315407177232476, -0.4405488888614361, -0.1370700649724849, 0.8175318613389891, 0.8664880262205396, -0.12369172483431182, 0.3296097537307366, -1.3308344888295531, -0.6612500651425284, 0.026411481977937655, 0.00025246058825200736, -0.4613606572381487, -0.1288334841479457, 0.6418981478059879, -0.11519966545635629, 0.2762585365658945, 0.8083804144196511, -0.8805298088697575, 0.3188502382411009, 0.18986011829706173, 1.6668975488222575, -0.9117542107574137, 0.03730870898106158, 0.4123128811287021, 0.34184611229135875, -0.2838453872945692, 0.7250548747862595, 0.08271577060791463, 0.08027051304698604, -0.15149920168389147, -0.07112133559312186, 0.38971429641470656, -0.0119639554303142, 0.6731459167977715, 0.5995273752887657, 0.11766765212258982, 0.5375168348012681, 0.17741107896935393, -0.4623422570323168, 0.2398951568916819, -0.13502606656343363, -0.38745892464014087, 0.9882287081778265, 0.9899939898501809, -0.157238994697459, 0.6445791009392721, -0.16317523914268267, -0.7763336815013143, -0.39712584783940647, -0.2711374769227706, 0.9585005954428765, 0.23083446055708884, -0.17622929398564505, -0.30081698830992154, -0.024660901855662498, -0.16549147636228098, 0.04563780934904436, 0.7250373685918717, -0.7273565649990564, -0.22298349395174152, -0.6809043172090288, -0.45865821528406125, -0.7568862807637529, -0.07556621114486088, -0.30200279747899295, 0.7847920522783864, -0.5147848262358578, 0.19311319933020366, 0.0014294437183091924, 0.07374965357211405, 0.32647927331636506, 0.2966830869253306, 0.7051429377500615, -0.48587013154928316, 0.17535316914168336, 0.0014389484806971338, 0.22169360430100093, 0.034387563320849135, 0.4966991059860383, 0.07974776569227592, -0.11472223444084959, 0.029277661219199225, 0.05746537329526919, -0.30971191151047256, -0.8937357897780422, 0.12455308748573224, -0.572540141356366, 0.3686141823434464, -0.7182021160005406, 0.12162964161005768, -0.6565141488625997, 0.09813707050400723, -0.016075872004616534, 0.3671399935390237, -0.31469364221681195, -0.1702716840168527, -0.6174870769724864, -0.3594434588645832, 0.040773543310942226, -0.3231932384334563, -0.20124733163504, 0.870698778773648, -0.19623391588678404, -0.6533226549523384, 0.2566878151212769, -0.7795380343166933, -0.1644863797626416, -0.9320530503579169, 0.6919021850510918, -0.6650634651793004, 0.5936217142078832, -0.1610798457402641, -0.001408270472074126, -0.012781054472042478, 0.302473259060368, -0.14491503584475773, -0.14771294256150735, 0.5615142066087797, -0.7885370017223384, -0.3722257841872502, 0.675001730152849, 0.005161397910329907, 0.5117356679418711, 0.06577659606458182, 0.49334399658591044, 0.36048727795331376, 0.8707478662191781, 0.3260211228240185, -0.6439565364966638, 0.01299222637359301, 1.1174278028270273, 0.9765945256303235, 0.02920766766423273, 0.11737230810931606, -0.42854746385427755, 0.12301747857095947, -0.008544331037040748, -0.7592510367430119, 0.21345334681428113, -0.4399930777552713, -0.044978746020575805, -0.13177998959832107, -0.2824064157143183, -0.08191758837397706, 0.014266476493799068, 0.8674557024177167, 1.0967130976288848, -0.7755694410809164, -0.1068104391364186, -1.5651989533051118, 0.026594362836523326, -0.8572538133901925, 0.6438221193028266, 0.9629426673242536, -0.9685749762918912, 0.7473435489802271, -0.4758551608590256, 0.15673261096855678, -0.32546719718537626, 0.07960182390033115, 0.8755471338573139, -1.2209729001742584, 0.26072838162554846, 0.09382042313208613, -0.3418809526232153, 0.2959395633605399, 0.039337993586800284, 0.2648289518625877, 0.04062915945179176, 0.40982695497617067, 1.404957873163859, 0.3583087318434061, -0.34343454586924493, 0.08130525507838827, 0.661065844244343, 0.7453406893182677, -0.16148983342928327, -0.44455597454438645, -0.10362561596177801, -0.7818025641779522, -1.1025950260381283, -0.6502343275734022, -0.49104776131772454, -0.17714742135245973, 0.042715944050050025, 0.27032479326407044, -0.3578065884034206, -0.7270063994723459, -0.2755763387276464, -0.041148352283166115, 0.25146309606519635, 0.08556661805449926, 0.2988642900575912, 0.3539255403496426, -0.5377969010588164, -0.07933207771388393, 0.3949817038653489, 0.9030131090139357, -0.14722187380807183, 0.0020684071749318515, 0.8146778136935895, 0.875380183243377, 0.5749684359689291, 0.8605142267898908, 0.38204999319621774, 0.9989893318539884, -0.32975561190736685, 0.4884363915759229, -0.4004862394634985, -0.06654384810740664, -0.7611213855599707, -0.520732611897591, 0.08059491955381032, 0.3034653928973463, -0.44054807443591526, 0.017846103357585463, 0.2135564855165617, 0.06451837507525901, 0.41989733475792973, 0.7911310378294923, 0.5694680716517498, 0.3414679259977832, 0.45617715494288597, -0.23155960836059292, -0.4735029065013823, 0.23857224288888199, -0.6877778175266913, -0.17266828766379946, -0.6384111775063125, -1.3512155150019463, -0.4170946224644305, 0.011849821042611841, -0.28316627833733676, 0.08073677472331474, -0.5015831106136078, -0.08079288319226019, -0.4286310008475523, 1.0196642120369042, -0.4922594602931466, -0.5917773917065567, -0.266653666038464, 0.6022960371312993, 0.3305511061251642, 0.136849753094338, 0.3131199405039299, 1.6094110771596244, 0.03293622615907975, 1.0237101188244402, -0.16577047805294584, 0.9684904726461576, -0.1691222190485199, -0.33517439256072123, 0.36021448458718563, -0.6577900630316886, -0.1024658729360503, -0.5538374101244703, 0.5578163832705325, 0.23775552734995858, 0.02537670419696948, -0.2943723463733756, -0.787469005739629, -0.0032025152982371498, 0.9357509484515868, 0.2956467401761618, 0.4865937951919742, -1.3986071221140775, 0.23444002273097972, 0.7946397336858622, -0.17057943589031135, -0.33561316124336216, 0.5839236618345738, 0.6480356425913898, 0.672188914671384, 0.04142922584478378, 0.05947028229444916, 0.22654798308777174, -1.0833897587701038, 0.8108632828416749, -0.564794973498091, 0.016873764500208784, 1.4755148325783887, -0.3224687209939684, 0.5156442299625819, -0.5321729290476619, -1.4959090212532895, 0.29190328138572147, 0.39410726641065663, -1.8898261576220627, -0.046573103483214306, -0.68215886863067, -0.34824654572939256, 0.6193229004644423, 0.11087287962077395, -0.23949956243531378, 0.3479932984348206, 0.4528555590327971, 0.4768887366754168, 0.5034272241311437, -1.2869766985074498, 0.0681625691957913, -0.7520343140304848, -0.4853887608474004, -0.41472836276694625, 1.2668318438939121, -0.04601313636777987, -0.6601657043667993, 0.29850721392435414, 0.21762657201791483, -0.1333194790712889, -0.2497380135992906, 0.3685543160262293, -0.7565300689936072, 1.2625022211567367, 0.3581715935421454, 0.4579086896190425, -0.14930614133873124, -0.3486821352533209, -0.28964521579852825, -0.9040038190474251, 0.8243577904191617, 0.3178437904854249, 0.5558701972396785, -0.27437127169696796, -1.1681683057844126, -0.1793943206314903, 0.7592070363455571, -0.0964286342419364, 0.13663336183505856, -0.28522626460741274, 0.45651825857464884, 0.11069803240774057, 0.8969031991998738, -0.20876050804120364, -1.1117575852833976, 0.24170541001481144, -0.21942824917099477, -0.9916994971050359, 0.198563776571191, 0.6045797450290498, -0.2548929968982035, 0.35492017673181453, 0.41317484459028286, -0.5524458378131973, -0.4482341370822533, 0.047436268652696845, -0.11803478643981866, -0.0007522958123981388, -0.2778840679937144, -0.6972322993261447, -0.291956541393825, -1.1810194126939995, 0.2596141286823872, 0.40638165465394027, -0.9838586419738691, -0.1034893452453862, 0.04314004379156727, 0.6070409168855406, 0.4982098104666163, 0.3782945646183807, -0.10367237588036059, 0.6335351308449098, 0.861199594032015, 0.6715390034167067, -0.17217591033115756, -0.4767383795901039, -1.2809348956139284, 0.46600093433868384, 0.509277970470866, -0.1268334849442983, 0.20740043073542888, -0.27093232899629244, -0.03435062224178281, -0.661902776998367, 0.7761240403024187, -0.8025319506296867, -0.05406385957364128, -0.09502586771569572, 0.7560741222618623, 0.24408130007338485, 0.27580739295673606, 0.060739181838870504, 0.15370414363193896, 0.23911983900655964, -0.28583850463367433, 0.038660229242565236, -0.4768149693883529, -0.13562558037288738, -1.188888295957633, 0.4667184189452324, -0.653873863360156, -0.286846047333128, 0.6591336920000022, 0.9714212616580549, 0.5757469689811466, 0.25887178357964, -0.0524574474260078, -0.8939734797369242, -0.7820628211125534, -0.6944086080327526, 0.505432487658973, 0.05169299181289053, 0.07216779888419389, -0.4617310347700347, 0.30148627164687664, 0.1834900852630652, 0.341785616874959, -1.8203255534157283, 0.18528950135569133, -0.285187696921407, -0.8026452201387859, -0.4304709570372556, 0.014519878082257399, 0.6129880942805618, -0.23955234066089431, -0.03566707075109466, 0.4697059929348262, 0.31668354609783844, -0.41386157680049784, -0.24052063189527065, -0.6900424455880161, 0.040469260204904656, -1.1972976445871448, 0.6087005242848823, -0.06864109743043656, -1.2563109534435792, 0.3123299740878781, 0.5900972497845267, 0.26802596496376163, -0.29125693890833604, 0.8588078731204758, 0.8554680457198545, -0.3615076256926709, -0.20067536462360278, 0.7051334650802018, 0.03502688531167904, -0.314042101607328, -0.6142932977836577, -0.17275834037633098, -0.9045762218788301, -0.47876111882520833, -0.38050154452085866, -0.5686408531502476, -0.5087567873752248, -0.361212033467182, -0.09076953072759344, 0.2694166667501543, 0.14605048879134114, 0.08055105454712089, -0.4136636368479183, 0.9377601804827169, 1.4549132284548543, 0.6088863655050809, -0.022152130659088835, 1.0139575786690873, 0.5756092760731624, 0.010530263928100664, 0.08312359896906613, 0.7728816200473425, -0.3372664455152775, -0.002928615688647364, -0.3029137159905003, 0.3024448366669981, 0.02939784057739661, 1.4812085019641685, 0.49547866468516544, -0.8349615454439332, 0.46459327755805024, 0.16481338355412212, 0.25330897603326363, 0.27480539969261963, -0.5969382496140667, 0.6018525884623945, 0.07716853077912812, -0.26236451010273953, 0.2007509164961275, 0.5752461629265296, 0.09602294056175717, -0.30805569291457213, -0.044039916861585926, -0.2054785620224521, -0.03621963257256926, 0.5436061240972093, 0.9039135575563381, 0.6393847115966429, 0.6066118257361132, 0.006489296262832433, 0.7594133724177231, 0.4772032327867639, -0.2429371704724591, 0.30403764543119427, -0.30188595525089834, 0.34508957212303354, 0.20056081388206395, 0.4595026027867003, 0.30097918980072536, -0.33992103148831254, -0.3301580968337809, 0.3289809704175213, 0.5810782405429034, 0.21855523998240747, 0.29024675830870256, -0.2108933351553102, 0.5186940329525083, -0.5236515459262094, 0.3780617705008621, -0.23262701879832914, -0.8735554968339944, -0.4200357974242318, -0.9029474990440503, -0.2790992513885277, 0.7975906821243842, -0.5962744466359658, -0.9561585642596404, 0.11948166524398929, 0.3953571268024565, -0.03215076337187911, 0.6437747061729664, -0.4680131097076424, 0.0555789321777412, -1.2164004700100544, -0.38993327614917794, 0.28147872710462885, 0.9458515779087717, 0.49899245300956796, -0.5574895521716595, 0.05584909719764497, 0.2991990370991566, -0.22326846219639063, 0.022511109560695464, 0.640228069417777, -1.1910611449968271, -0.12030408529302342, 0.19118462486183685, 0.33749711109184455, -0.16245057887003872, 0.0430269953803663, -0.06423536304197736, 0.6279656577472008, -0.5195977698448457, 0.36670014083486857, 1.508355286761005, -0.10585315627464723, 0.6097497121831137, -0.4470200744523787, 0.3427488814017396, 0.11925449304735351, 0.30617069358984594, -0.06243595104234927, 0.14340592384441941, 0.03503926718119116, 0.06986457958109779, 0.5221463945343976, -0.37227110085404197, 0.05511998705910237, 0.12991585607056189, -0.6591404486233118, 0.7645675379246548, -0.15765846026204855, -0.07289890966367397, -0.9686050509236384, -0.17192559933786383, 0.7246383320696399, -0.1322049972328497, 0.38069738882239323, -1.4976305481085737, -0.13484017230688963, 0.05831640884498977, -0.6196444100617708, -0.11601259742122672, -0.5655192419380717, -0.5202368044448453, 0.3910978598003002, -1.1378226791822568, 0.3338793133519473, -1.441284693183827, 0.48600030490097673, 0.2991558211298684, 0.004206807811567431, -0.1809696701947064, -0.6521363940897542, 0.18648832181160419, -1.2061489088197255, 0.7781492687627349, -0.4143080816321605, 0.6161405714346282, 0.13851295898015215, -0.08019119694179463, 0.44336313123193, -0.807731409409722, 0.2727504120005537, -0.27891326899925983, -0.669507687941903, 0.2262942698193442, 0.2390639889333884, 0.581464530544923, 0.39802294493519563, -0.3226268322449007, 0.1668786543534494, 0.11873114353878178, -0.5202298435907278, 1.1057925342408852, -0.6665805009593329, 0.9950756807615893, -0.17479339088885687, -0.6323413358418275, 1.3044481335299056, -0.24438571185395747, -0.18370310322746616, 0.879482042154404, 0.9615125546930525, 0.34879118614334875, 0.365313587200615, 0.9340129793393012, -0.6606601710732204, -0.21704767927144575, 0.2531001115119441, -0.1275602251699237, 0.29009177390600405, 0.5816831666680387, -0.13518297733042645, 0.27611997318808584, 0.082107239029887, 0.006833332907667524, -0.21312294273844448, 0.14469304636508828, 0.5831230097283995, 0.33323417091785207, -0.52432011857741, -0.10946469458920041, 0.2815359066612825, 0.09781909375395387, -0.6386016696630388, -0.01092647526134812, 0.2422423125708016, 0.29844477179720597, 0.42268108209802624, 0.4057005237217578, -0.10836644760967677, -0.3244004881510072, 0.18668001460487282, 0.1134369747275426, -0.19136854040301846, 0.047450831043379105, 0.8362140998424255, 0.163258168517838, 0.021443724749188826, -1.312424043128533, -0.14482645349953596, -0.10116273216608748, -1.219942241079341, -0.061048293038028, 0.8189853184941779, -0.09515239403312709, 0.2181753994113696, -0.1304794322646045, -0.21428635806914637, -0.907273797704875, -0.6197989423368016, 0.3571545168445761, -0.022535065080580223, 0.06173291746820965, -1.0846731006909502, 0.30783564822906373, 0.0428268979173307, -1.0417246154898516, -0.008885035923528739, -0.16346882098194251, -0.3514048571822497, -0.22402953304747336, -0.14862792699057914, -0.5265219619048712, -0.08432791547146135, 0.026391860776375453, 0.35541623113714566, -0.6424629778619027, 0.3491697124727497, 0.3323021632509867, -0.22631674745593622, 0.7004080350950457, 0.3400625156220007, 0.062194987231255314, -0.2501203261664198, -0.310801618070542, -0.26270914465051826, 0.010637695384816459, 0.7778265685256827, -0.45541160212846304, -0.20505103702589322, 0.4875420912654582, 0.5840183156614823, -0.2796469207417192, -0.4051802583225695, 0.5608343560084934, 0.09107680334710898, -0.4811785501736532, 0.7372914757593196, -0.005054331083757538, 0.17107499296387071, 0.6700722100701544, 0.967545687448012, 0.6652547068879928, 0.23068550254730885, -0.20862384261557776, -0.8923898421990822, -0.3837680900378953, -0.3090822234196083, 0.0562604851140955, -0.2503530984676118, -0.5703211740760837, 0.12121968956150628, 0.2752625905757976, 0.5752872519807899, -0.03809659947432144, 0.38689738987647543, -0.31004742080204223, -0.056227423856980964, -0.45593051185325106, -0.6865258891334436, 0.48945908652478776, 1.11813237742273, 0.9971645508575686, -0.5774617860732707, 0.3991140503536894, 0.12755018389606645, 0.5779350686448774, 0.4429545733840691, 0.2536046327600012, -0.22995144174564805, 0.1789215436044135, 0.42221493327252063, -0.1975590807477015, 0.7203051591671221, 0.3557206706355138, -0.12008770992064517, 0.7531080541636437, 0.1773004932878889, -0.447161479708388, 1.5461314656353602, 0.37555391082383943, -0.746180562653159, -0.566573330597709, 0.002977206741777705, 0.1578886967928595, -0.17865309590787395, -0.6009005182055085, -0.1564373197905589, -0.23024955985589307, -0.37184080763564475, 0.251902663625355, -0.6312108596364477, -0.7938227519928844, -1.1567135544451954, 0.1620088626747329, -0.003889717549529756, 0.42120203650287913, -0.2313988783237718, 0.9519276937148345, 0.23946693010550718, 0.8312384455517531, 0.4257255589931518, 1.1160870278575756, 0.0935298872867926, 0.38554151198300785, -0.16173120384786302, 0.3792349899468441, 0.27793320135552957, 0.4064098243243385, -0.10849245314105087, 0.13260313473425336, 0.5387438599143431, -0.18514116324942637, -0.023305038152930956, 0.3403917296231799, -0.32274242865238745, 0.3283098365688775, -0.329167406102464, -0.664409881856741, -0.26206758905900845, -0.30956510295949025, 0.7877335292030592, -0.5311749554626377, 0.3608729236830071, -0.6729378924067272, -0.3834601328628411, -0.29276292437608703, -0.49434787983498213, 0.04857147565723608, 0.8932696549182972, 0.334197077177757, -0.40822579917958224, -0.4391168742233424, 0.27095688077137153, 0.5696952132369881, -0.014366470139384191, 1.3369718256588232, 0.05072550604442805, -0.4340534812129238, 0.021502883655239904, 0.46605608691562034, -0.47110442268986785, -0.19503343382166974, 0.7749100977375734, -0.01658539631697197, 0.962925408476016, -0.029301197740224494, 0.9866658791192526, 0.6514469123117184, -0.8185279767593812, 0.0702378907477876, 0.2468967862235898, -0.6593556846300551, 0.16115275043857935, -0.048530593303499014, -0.5962172572207786, -0.18567143522838353, -0.04821164471350996, 0.28598103207897785, -0.05254662955235992, -0.6883834569474934, 0.08596535072367523, -0.022947024071974423, 0.19288386945750727, -0.5600975201547191, 0.0806702722324798, -0.3241156555138104, -0.3084345573551871, 0.5102439807976795, 0.269119335212703, 0.7928503779009537, -0.44174775112440334, -0.1495846594395926, -0.40292395808432624, 0.39128064463126655, -0.046571556994566395, -0.6605596544377702, -0.5739458475364421, 0.2419973793102762, 0.30731870843407016, 1.272132188737147, 0.21872746807669474, 0.08102256346549033, 0.5629471699598059, 0.2387179583156175, -0.8491176936756251, -0.12361400573482628, -0.8007932441168417, 0.3136336754292023, -0.108981051265741, 1.0338622258274064, -0.18058577401292436, -0.3401294666008863, 1.6090495160616716, -0.5799360249526265, 0.4043371606673366, -0.9717386679229485, -0.2672123016954717, -0.03804710483439078, -0.8110999116725445, -0.5683445689835029, 0.6806128809589888, 0.1548681384376901, 0.1387461565782208, 0.17029679602819084, 0.4907688243206513, 0.8348820890257468, -0.224329808336611, -0.23980559989172093, -0.5585410743556858, -0.5494514882836967, -0.9007596929484105, -1.0875166814279416, 0.8331090872151631, 0.1417529210149573, 0.01083840601694024, -0.6067457112644312, 0.4923764177101112, 0.24507649385361738, -0.662535285545598, -0.3751802315858569, -0.0830200769880261, 0.504525283942846, -0.36947273310534046, -0.2155689374910573, -0.0312808124426675, 0.7864077092026841, 0.24463148176961175, 0.39740128094322347, 0.23765750339601133, -0.7097961344334318, -0.23302494287781333, -0.04181149168301189, -0.23736914224891376, 0.5193393123911164, 1.3627154233734924, -0.017892990290123728, -0.4889562714215719, 0.6234232236814744, -0.4520294987232112, -0.46590447725113515, 0.11005702743832226, -0.3153240749623908, -0.8578990130350311, 0.4201975444377801, -0.03641616475017004, 0.33594159482954783, 0.07834884951770332, -0.0272272500515576, -0.10370498903583701, 0.6613720140335512, -0.14095406963951254, 0.5962144857203238, 0.9148784337046911, -0.5743742372548357, 0.3982711866098844, 0.22221251021741228, -0.7253532653812915, -0.07990037228474285, 0.8057690807052751, -0.09269247147464071, 1.0394932252322833, 0.07390527631396167, -0.3231317871945812, 0.6407870531041983, -0.10647923613935562, 0.1966693566963838, -0.08826016877450482, 0.2266196269357641, -0.46549587700304074, -0.4588097658446654, -0.1553994635103374, 0.38317921077514755, 0.29380258117859037, 0.7267512590452412, 1.1782567699673214, -0.5590642181719987, 0.34090461270817773, -0.05076872639797854, -0.5408247997504481, 0.15310700601774527, -0.4760791218474328, 1.3311632037342744, 0.4111209595492725, 0.1363395407963111, -0.020620189048316605, -0.845395951250584, 0.6312485373053113, 0.3212125268253802, -0.10084320420965126, -0.06549431976968667, -0.32669247981368665, -0.8968694312447474, 1.2500390437282953, 0.19466158486753296, 0.12843919908713858, -0.16885352533993808, -0.06395667003722243, -1.7242422442760303, 0.5578561953352184, 0.22281071626835086, -0.130458018838376, -0.4436397384360531, -0.2566885653180674, -0.3653831986160188, 1.2444738976097023, 0.2514665616707563, 0.23622163808003546, -0.6588784369953132, -1.226263846032038, 0.37340832843485683, 0.014418584054391188, -0.38959490183558365, -0.29601226750875814, -0.35147897131040134, -1.538163969193358, 0.5602839998718141, 0.0393240816790671, -0.46675298417493793, 0.054374198727375464, 1.9424270074272976, -0.4562882601575035, 0.5769414354451524, 0.3448019957223061, -0.6237545039648902, 0.2415194735413081, -0.12921255310377563, 0.2418969766175435, 0.4386183958523671, 0.37696665621452907, -0.05288515314253979, -0.09329984725210161, -0.6805556821187466, 0.9635287844397323, -0.19475499033350788, 1.0011070679651857, 0.9325783611069967, -1.2711024170892569, -1.2731045195805368, 1.0056695918126621, -0.13152437658177124, -0.7568535121738893, 0.23859781757315096, 0.22206500133742502, -0.47403042036229937, 0.705753566297205, -0.6635265239767614, -0.41475524144106274, 0.6704785047097939, 0.16797645091287122, 0.5206271880126598, 0.022767458603625897, -0.14334775228341706, 0.2600805284261181, -0.25598527167168117, 0.19864025558176115, -0.765569705686367, -0.021714072431000306, -0.06341885304952594, 0.6128205417762963, -0.03651178464414728, -0.08453911176160855, 0.21975558182653832, -0.08994697236697906, 0.32539343601272214, -1.2736217622831294, 0.10818239881196554, -0.40843041747245606, -0.39591983910241896, -0.6312325361725377, -0.1389035481496521, -0.15265110272733548, 0.4850762655378551, -1.0110114976682067, -0.2880456410217169, 0.15225237381237147, -0.5035797721907643, -0.7828776258017727, -0.17302111553386482, 0.9988294076256106, -0.571374829695067, -0.052134752060174185, -0.9104133779949743, 0.1428541069834252, 0.09610372756318665, 0.8176357501619476, -0.19550978623983023, -1.0995836078793906, 0.4161558111665459, 0.143948275595827, -0.15437795908033888, -0.28805018019636225, -1.291590191823785, 0.7306440304426157, 0.50029494600104, -0.31707881880397604, 0.3479834532816384, 0.31545228542650633, 0.368678962895212, -0.040199830409335884, -0.012409688562198706, 0.5164102594593067, -0.3253172812348004, 0.6828482117285466, -0.7929781363892504, -0.0446677653651341, 0.393505254644008, -1.04750473997004, -0.07570216192104975, 0.3885055254283246, 0.1981622606077406, 1.2603874724309072, 0.6530197924049184, -0.10109901114771164, 0.7051425742667365, 0.031963586896039196, -0.1061476889690217, 0.11936213175626895, -0.034245631933602555, 0.5161390861944002, -0.0439912320812115, -0.06633886838552111, -0.39802983198910874, -0.15141351597899613, 0.46051966854202897, -0.4558417577637657, -0.29525443003259033, -0.3773582155251687, 0.12051450140080022, 0.0695692241336934, 0.06179980017714312, -0.31905546792163386, -0.36722826214597576, 0.010128231806989912, 0.47088542630639474, -0.3660215402696614, -0.014844276512390099, -0.6607987632410155, 0.6180864143080507, 0.2148428130030976, 0.7155245604598819, -0.07141970713785123, 0.15293148868930606, 0.2927726884431504, 0.631687493450145, 0.1532552276871501, 0.17893765337191908, 0.7579793353813207, 0.09394352207386261, 1.3118591848132755, -0.3747525001406725, 0.6227139394664913, 0.5859446744085759, -0.3368385397374778, -0.06585096118804552, 1.4212842102107115, 0.227714951540477, -0.5301301542921398, -0.458923223319922, 0.4080598463998308, 0.34554446777262077, 0.67339295729936, 0.11759787288301471, -0.3681709249418149, 0.8380995285667736, -0.9623740273642011, 0.3311696565470844, -1.1519436631782376, 0.3510798828728846, -0.21175602629383058, 1.1231654394990196, 0.30127813622361777, -0.10597637981130989, -1.0677751261050448, 0.7206245159906937, -0.4570081978814599, -0.5697767668705643, 0.4639411476953858, 0.7176714739602492, 0.940572688831275, -0.26120537485373746, -0.37542789745802685, 0.8996092975152012, 0.7785686815606555, -0.5168513016813175, -0.13350917609468607, 0.42441638810507515, -0.3054756473829511, 0.029044985963977362, 0.6295187962344131, -0.1265214601116319, 0.9281578453207608, -0.20872983644293108, 0.7502187370417159, -0.3419990497021302, 0.1936269233503986, -0.008226572139184997, 0.04817254673029449, -0.028689254758213795, 0.29099956187926734, -1.3598049095743565, -0.17023483164802516, -0.12863417204528416, -0.053428619789074566, -0.49400725731786543, -0.057364003114644714, -0.13798030425340926, -0.21482701354876024, 0.07126880073677197, 0.2791745518785407, 0.3845231408433591, -0.011118801557677433, 0.7271908672665118, -0.9326839603569816, 0.9055958497258632, 0.2479178364990329, 0.2651262306450987, 0.3456899786844781, 0.0453926851617619, 0.40338718653551264, 0.9949894351124399, 0.27918344331106143, -0.2589465725715015, 0.7674194701106332, -0.6853246822547341, 0.53030618162274, -0.3903055458028795, -0.31692177490663037, -0.12919521791171387, -0.0493454026869401, 0.36634606687330173, -0.37695767870956665, -0.13225763423281556, 0.003898567035219125, 0.1786247022045483, -0.15592893197437546, -0.056478295029284184, -0.06787922541504207, 0.042166716536694515, 0.8564108413074516, 0.19641309420803676, 0.4978334896940307, 0.5408939236971403, -0.5461433088465265, -0.6650983809922753, 0.6424021964350998, -0.4491170557676468, -0.3378770088076826, -0.9534073116072668, -0.40356954430532505, 0.20102866066256586, 0.16799488062930265, -0.07570866553743613, -0.645173155345355, 0.9453918254896574, -0.6234003454618645, 0.7933611521077685, -1.259903604305475, -0.5077214855769593, -0.9552843714960007, 0.09271721903132364, 0.23115051584679386, -0.2366526928294853, 0.09502034156680375, 0.18552845211855473, -0.10803257742130125, 0.006852222431634598, 0.11573168486661735, -1.1345068604436301, -0.3355312376366775, -0.7145495904585049, 0.016828543262262075, -0.03257358389313945, -0.3149792614329545, 0.5514710166193239, -0.32505437576771384, 0.18252213014124583, 0.47851617704211047, 0.14717141421652458, 0.17554983628020462, -0.21909479177043673, -0.5523788126038296, 0.7688676781014866, 0.676104005308356, -1.2105763804519412, -1.4227118102037561, -0.4615600191433872, 0.048004745283416084, -0.48922641161336256, 0.03420680490941434, -0.45561027166162554, 0.6450130887623879, 0.36744235648195656, 0.18977771341358168, 0.19098525610012476, 0.46353444685724077, 0.17681479376720827, -0.2952652026176826, -0.6267713083626809, 0.3792316624283886, 0.08663393582383719, -0.0550825671496772, -0.7110066049805832, 0.2865324936177862, -0.10089206456577976, 0.0966813268594183, 0.09149902943237523, -0.35551800890563295, -0.027809898826224054, 0.3129114822501835, -0.0352160169522276, -0.10432183472664194, 0.0696624215708493, 0.16411875690790223, 0.33026194199707687, 0.05461597778029247, 0.11048014017321232, -0.25790800003740777, -0.029020312556336688, -0.9267498414603074, -0.47101266754533844, -0.2732370115572799, -0.5703692054622096, 0.6479341644688409, -0.37277877322437764, -0.2056451507231884, 0.10588330884216787, 0.7473912992175067, -0.14941410233246952, -0.237550128518221, -0.370644924498176, -0.12907523050774028, 0.2546792310251268, -0.47137779847307104, 0.606918683937982, 0.3682221158701743, -0.11428480323890472, 0.5359910428534759, 0.3355892774448679, 0.012527530048612862, -0.517152265034987, -0.6830166754885527, 0.265012300908901, -0.17836206092569273, -0.08328850881233255, -0.671093069366472, -0.7540408710705493, -1.1565353378654424, 0.8734674173334812, -1.3323678655620041, -0.7979497296306476, 0.7021007004105233, 0.703557291742616, -0.5855827739537374, 0.4782060605801398, 0.2119985710961176, -0.5445174086618807, 0.6302233315964052, -1.6457014910722552, -1.150334502351353, 0.2055977310080596, 0.45168778723607145, -0.1315881847545544, -0.05955091590045718, 0.5359501244332664, -1.1628954568843275, 0.565863155724798, -0.16151906440413505, 0.9127311692574047, 0.027389403835614386, 0.20620991599420627, -0.5361443798650549, 0.47957310143058174, -0.18567843426013464, -0.5871667563468357, 0.6895685062425652, -0.6889322647322478, -0.7225088845181991, 0.2562228059491868, 0.07388879865019153, -0.4350283491970354, -0.34147333293046933, 1.2314608342736153, 0.534132778867359, 1.0534824664961442, -0.45561988813478904, -0.8019412753185533, -0.2937538208201652, 0.06203288761697878, -0.29613066869701443, 0.13846242142703863, 0.5613006081630529, -0.499359229922757, -0.8676668651206618, 0.7910988058908659, -0.29206398864902555, -0.8050398692389855, -0.47907340972109014, 0.037961982207119466, -1.1831877482068922, 0.21926611981725647, 0.5515868143820021, -0.3319546448952644, 0.6173864440453828, 0.5191867421917632, 0.05752627398746504, -1.5783321917340902, -0.4678102558370848, 0.24363649067899612, 2.2148699840074166, 0.608148478656426, 0.362652992753262, -0.30090952561888873, 0.2880136228168442, 0.08177761361804048, 0.00209656875923777, -0.597463970905479, -0.11074118305456147, 0.2970484986568951, -0.6432236796745369, -0.1400479853648197, -0.0056734713411263765, -0.48346847109180563, -0.2834089116722089, 0.1525446942637525, 0.5793138224628736, -0.15514526308288876, -0.27735048389877104, 0.5424508166894336, 0.7991179720083351, -0.2898371061479935, -0.03136948622964998, 0.22011499648052987, 0.3628379759084839, 0.17722982935240153, 0.4534031737424494, 0.10041315921253646, -0.49577340882002663, 0.0319550643518679, 1.3637139412045785, -0.6888870791902089, 0.2464272108704953, 0.4178525909599333, 0.139241040867823, -1.0648342028762194, 0.9266304288793019, -0.20616863608431782, 0.003148973369199299, 0.36412304801170536, -0.8318816848381311, 0.10868201149386825, 0.4488038965054837, -0.6852768354725379, -0.7324709892203061, -0.24433887669873455, -0.37641103508647755, 1.3774684261985737, -0.5401896073775335, -0.376263348340549, -0.25159044330639235, 0.3420373159826813, -0.3192637485193547, -1.2169221860117663, -0.2507147085600464, -0.7139526431246024, -0.30081210106741274, -0.615797801924092, 0.10396659326314908, 0.09449095414979045, -1.0910081181342073, 0.03045982675405924, -0.5108239586261016, 1.2178888342606229, -0.5067317399240108, 0.45658701306018284, -0.14217721632043392, -0.6951181429386197, 1.0132025975628374, 0.6330946034957294, 0.08896673769569236, 0.858748847099879, 0.3611928496860913, 0.19340486106730193, -0.7697928402028952, -0.47173403601337194, 0.3626570535181404, -0.2949235566073929, -0.3898894289612143, -0.41410791342308884, -0.8561366794033375, 0.050130841773307955, -0.11850295084568307, 0.073422965770164, 0.4782507421687225, -0.05799663004613771, -0.03456093040805386, -0.10890328302485741, -1.5754445238711898, 0.5858514077490931, 0.2047308208650615, -0.9769599117342036, 0.6213862751598439, 1.8511884651541717, -0.7066430759271117, -0.21530092389704378, 0.58546404037281, 0.6031419303230633, -0.7621798855355892, 0.05275836995628377, 0.23074977331380125, -0.25662490946864597, -0.8829786169147796, 0.20113766576918907, -0.2876500046757297, 0.6974820071729452, -1.1562888632353974, -0.5384257641840963, 0.1016261006727106, 0.6195935598198878, -0.07342003791539063, -0.07538945948777456, -0.11169014515073045, 0.035199055506159135, -0.4960949388670272, 0.4622879482170095, -0.13461180518058516, -0.23364939940291873, 0.5305356750121937, 0.5442810771077551, -1.3214630407225707, -0.2623546327795946, 0.0010757682302454386, -0.004661373923364399, 0.44394559688953605, -0.23128385562552595, -0.26811292500706957, 1.033141473816836, 0.127663321088233, -0.43546760940095464, -1.2349215403780744, 0.8130527448831572, 0.2994403486612113, -0.8621497269254143, 0.698836072344728, 0.28916426719955773, -1.2473798504709106, 0.45379769739348186, 0.5791500742401359, 0.7629489724828861, 0.645447102761819, 0.18002518153584757, 0.2890346704031107, 0.452512089076117, -0.865998029222567, -0.3240850105771528, -0.7217442889474637, 0.0596285258491758, 1.043774984221293, 0.20481875500929891, -0.6424405299562967, -0.3105976722977938, 0.3163069657654951, -0.36423595468717923, -0.5504082651572043, 0.6255689870702368, -0.3243102615723764, -0.32117116450111854, 0.8825355299096053, 0.8713383441285064, 0.023014034847857093, -0.2682168916040629, -0.5696871444864549, -0.0486472375256321, -0.14143552605169787, 0.5545244032569494, -0.5383382658152644, -0.22423840067075732, 0.2664056786826945, -0.6690589333706827, 0.5553141000907889, 0.23929045865185145, 1.1979257857960488, 0.5470836279256452, -0.4659752052493635, -0.7958424255756137, 0.11913278082939678, -0.3370138719876982, 0.5498051695185856, 0.3481877714398414, -0.28960224061937173, -0.15981523847430495, -0.17871206313197546, 1.197390062250446, -0.394112394753152, 0.6326041099419608, 0.010730711376965962, 0.18886917184170693, -0.011892354775069103, 0.1591646495528156, -0.9179033689803178, 0.948126587371501, -0.5574313655494341, -0.18495385029866585, -0.1810015518383497, -0.06075606698965727, -0.7464145921879397, -0.16086302619798845, 0.3297521207997208, -0.12512637481770705, -0.03824245991508606, 0.054260904567806446, 0.4083538942656342, -0.2999973251139646, 0.33029553772611103, -0.22354121019478845, 0.10312108198957416, 0.5848914869093956, -0.23058208086427212, 0.24312582038595132, -0.48788756780783504, -0.2333916068674795, -0.208802849480814, 0.2524233121435304, 1.1079744460348466, -1.0589897798002728, -0.19079078082604783, -0.26520014086057275, -0.020507084656775303, 0.0026317028834337564, -0.6076892604438014, 0.5082434725853584, 0.25535478738746353, -0.23794166162797104, -0.41909671434081885, -0.05361257776581054, -0.13058138190641574, 0.9004731540544568, 0.5300608692206852, -0.039378084641925534, 0.7957767342390206, -0.24940607752136412, 0.4203450878130456, 1.080814305666247, 0.45519412366762313, 0.32752670921760746, -0.6380081864396565, -0.2207665377426732, 0.261986259717938, -0.40956398841778685, 0.4528216404159324, 0.23214438740794904, 0.2235218985478934, -0.13045043819310276, 0.6248380245862307, -0.4004587516813167, -0.6536053390063423, -0.3888641103805855, 0.20927739580191773, -0.3662194227611689, 1.2761582240885374, -0.7323792696265631, 0.658446790734022, 0.6812259845313013, -0.09803587547970019, -0.37978466126349486, 0.3815489766618705, 0.30192236546935425, -0.7025478272813246, 0.4252991771028135, 0.18208296663064005, -0.9794428311947743, 0.18548310203805476, -1.3650219525318072, 0.26233286241808085, -0.43175766972288987, -0.6828112985762881, 0.333394257538006, -0.1009895767640862, -0.4403353482549606, 0.40356000119368735, -0.44222436814027516, -1.16452522336374, -0.3572479240367488, 0.5008002549349311, 0.5426577591266228, 0.441055610098381, 0.5026182209625563, -0.21100224690885971, 0.6148803532386402, 0.7177098210958321, -0.16794384775750446, -0.527858932472417, -0.5222784916164647, 0.2521597432283257, 0.3950665054356718, -0.04946586722509959, 0.24892415738014845, -0.02324890588632762, -0.07622101459708369, 0.20880003471108532, 0.0381477324161325, 0.16145049227348676, 0.1954638565002139, 0.11142830999212287, 0.41204064593239575, 0.5317795092266286, 1.4506576986090531, 0.9004193973434893, 1.1784227843038915, -0.3796279437467408, -0.17747054938649326, -0.3131779096098106, 0.9628516469269219, -0.27797890059227626, 0.3816375623011684, -0.45836993791411584, 1.2837917590922965, -0.03800016519344836, -0.4740845779889405, 0.0011160403503484434, 0.13877793596990906, 0.6595603428888197, 1.0894285466164644, -0.26775384972859684, -0.1368412600613606, -0.4009386995849093, 0.1859004503599552, 0.5438201106452205, 0.2868887693498947, 0.6618431470333508, -0.7662086278311142, -1.4625653602596622, 0.5048947190028907, -0.044828019839356026, -0.08127910066577415, -0.2822613735138043, 0.08592908533214634, 0.7325736763756698, 0.34656521422917613, -0.10739652751632611, 0.8532137163432637, -0.3285708102091923, -0.3183567712511797, -0.22807947371409304, -0.3910822368744482, -0.8269246733293529, -0.6440358770131424, 1.6035891141044523, -0.5250415643219909, 0.49825831784522123, 0.4034754811262776, 0.12091150375554732, -0.5243447442282861, 0.30776092328245125, 0.25957872042673685, -0.13810845975488587, 0.09967386997871736, 0.16712445883489044, 0.2791100450580844, 0.07415560808132898, -0.33422780491821125, -0.09994910001221463, -0.94244642181019, -0.6566665318601207, -0.13171949808716496, -0.2905011843789819, 1.6851224093627084, 0.6142671129257568, 0.02251269826655098, -0.40475359962822355, -0.40380659059216606, -0.26864712069104674, 0.4304275287563171, 0.6984921440331845, 0.9817349677579263, -0.9531679922926305, -0.051213149791889706, -0.9980637219342136, -0.13496426381396825, -0.934677637651788, -0.5269234038591312, 0.39387024239266655, 0.0654232709423242, 0.35640662395927314, -0.7578009393112419, 0.18350332067901035, -0.44572122538241943, 0.5588379465894162, 0.45121636093512907, -0.17015725148021443, 0.383416348331332, -0.8479481039497084, -0.5835653547490676, 0.45117978392471986, -1.155780968289745, 0.7132427623958186, -1.062027434819047, -0.44508190971572836, -1.031270774031157, 1.358471057097855, 0.1961684692281474, 0.07822130427964342, 0.7610267231758776, 0.32695137295173926, -0.829622828599855, -0.2609770668573485, 0.795989539426211, -0.9161996077225827, 0.63225263069279, -0.9588433731203204, 0.11913713706595377, -0.8511606061585387, -0.8741546009838002, 0.6664219339571616, -0.185652292369847, -0.510308087125887, -0.5488428498825513, 0.09366022271904811, -0.22551552756172782, 0.46609214583486297, 0.018573072390385748, -0.08017936841253012, 1.0766645820468748, 0.22909369965832538, -0.11644812538786335, -0.36524862753772325, 1.1530630983132186, 0.7813877965337109, -0.19764759193314643, 0.9683980783204349, -0.4095725949315879, 0.43462507504032755, -0.5199360625026713, -0.00829922804409141, -0.09017354333467338, 0.3694283724925016, -0.16391939934051397, -0.32646813058394436, -0.22999999154254253, -0.574353186930465, 0.3629448031875462, 0.24728174980846634, 0.3869312925767325, 0.19079897245652627, 0.14069194046944025, -0.5733229924653817, -1.0237836807015566, 0.47473885121993054, 0.09340420494835576, -0.4059579534895006, -0.42721651272871697, 0.3080930639921626, -0.24876708120897462, 0.016536560971316373, 0.194857303016814, 0.7151041016621422, 0.12504231721851564, 0.1194467706983747, 1.4866454769702029, -0.3084450719870523, -0.2965643555664406, 0.03908848016897563, 0.2244409643058028, 0.1778346948819402, -0.009254795819493511, 0.8744749288602303, -0.7424944004089645, 0.030767976160502475, 1.1155141857889208, -0.5429844056150902, -0.04719514831306837, -0.8652041691847947, -0.2345251704996149, 0.6416529573328537, -0.07117975928710668, 0.9348775048873705, -0.21455347029006605, -0.5209615872621305, 0.25123607813624566, 1.2868011520280414, -0.2489534946011327, -0.1139372866526965, -0.6515857521553097, 0.2607118406728287, -0.2932404696522991, 0.5385065447185762, 0.19592397891195396, 0.14082326917123195, 0.3531336757990673, -0.5808493420753007, -0.32409465041991825, -0.3815526576322974, 0.20292797556853343, -0.6015682987317265, -0.3417501250306363, 1.2970431355600758, 0.22480198737396362, 0.14997010980992376, 0.6063168898979555, -0.23163479389011538, 0.6799810230319328, -0.04663964987565157, 0.32047626002638363, -0.5595422414619288, -0.5057069248340554, -0.16976631594078795, 0.1565747407792729, 0.529781700056383, -0.4941659432727042, -0.5838034980594238, 0.582813564292855, 0.25174349264096524, 0.29724891963317124, -0.3523464455634947, -0.30964075675400776, -0.7250464826597331, 0.3648087043726671, 0.04834963922854468, 0.4294711759533996, -0.03478485348251312, 0.4258016172949937, 0.4655046016791977, -0.12026721789519584, 0.1880560647425777, 0.385279944138712, 0.058645813895532896, 0.2757537561633661, 0.21819969878321147, -0.40854541674010497, -0.6041384405677845, -0.1712590370538077, -0.9826678059944163, -0.005083052726244201, -0.11208269263593591, -0.4756067747932909, -0.5304390242412933, -0.08956955477724754, -0.316848170065025, 0.014597624881363791, -0.8163361457029031, 0.03310248495861965, 1.1618976385177686, -0.8193043632245268, 0.08559602139414615, 1.0002750708606045, -0.3532959197229468, -0.3997363228812434, 0.30424616507764346, 0.13021367972633546, 0.2695693513575033, 0.2846381943286625, 0.004686849343398136, -0.4037463791733009, -0.05604458126216638, -0.3300096560953559, 0.1437849259783017, 0.0009515114247631573, 0.36556171162894296, -0.38052003970716025, -0.09503608520565654, -0.18484942000278154, 0.3568126066076074, -0.06889410341192295, -0.24375451226639272, 